{"learner":{"attributes":{},"feature_names":["z_score","atr","hour","day_of_week"],"feature_types":["float","float","int","int"],"gradient_booster":{"model":{"cats":{"enc":[],"feature_segments":[],"sorted_idx":[]},"gbtree_model_param":{"num_parallel_tree":"1","num_trees":"100"},"iteration_indptr":[0,1,2,3,4,5,6,7,8,9,10,11,12,13,14,15,16,17,18,19,20,21,22,23,24,25,26,27,28,29,30,31,32,33,34,35,36,37,38,39,40,41,42,43,44,45,46,47,48,49,50,51,52,53,54,55,56,57,58,59,60,61,62,63,64,65,66,67,68,69,70,71,72,73,74,75,76,77,78,79,80,81,82,83,84,85,86,87,88,89,90,91,92,93,94,95,96,97,98,99,100],"tree_info":[0,0,0,0,0,0,0,0,0,0,0,0,0,0,0,0,0,0,0,0,0,0,0,0,0,0,0,0,0,0,0,0,0,0,0,0,0,0,0,0,0,0,0,0,0,0,0,0,0,0,0,0,0,0,0,0,0,0,0,0,0,0,0,0,0,0,0,0,0,0,0,0,0,0,0,0,0,0,0,0,0,0,0,0,0,0,0,0,0,0,0,0,0,0,0,0,0,0,0,0],"trees":[{"base_weights":[1.0431461E-7,5.57841E-2,-1.6675949E-1,-7.556935E-2,1.09522074E-1,-2.4726294E-1,-6.199797E-3,1.0994269E-2,-1.6544795E-2,7.632971E-3,4.5744568E-2,-3.0728443E-2,-1.346636E-3,4.0602176E-3,-9.031766E-2],"categories":[],"categories_nodes":[],"categories_segments":[],"categories_sizes":[],"default_left":[0,0,0,0,0,0,0,0,0,0,0,0,0,0,0],"id":0,"left_children":[1,3,5,7,9,11,13,-1,-1,-1,-1,-1,-1,-1,-1],"loss_changes":[3.8415676E1,2.1850986E1,1.3378391E1,1.5007893E1,2.5330486E1,9.6705475E0,1.4591877E1,0E0,0E0,0E0,0E0,0E0,0E0,0E0,0E0],"parents":[2147483647,0,0,1,1,2,2,3,3,4,4,5,5,6,6],"right_children":[2,4,6,8,10,12,14,-1,-1,-1,-1,-1,-1,-1,-1],"split_conditions":[1.8E1,-9.568535E-1,2.2E1,5.78E-4,1.4195E-3,4E0,1.2605E-3,1.0994269E-2,-1.6544795E-2,7.632971E-3,4.5744568E-2,-3.0728443E-2,-1.346636E-3,4.0602176E-3,-9.031766E-2],"split_indices":[2,0,2,1,1,3,1,0,0,0,0,0,0,0,0],"split_type":[0,0,0,0,0,0,0,0,0,0,0,0,0,0,0],"sum_hessian":[4.1276006E3,3.0934524E3,1.0341483E3,8.9801044E2,2.195442E3,6.8843304E2,3.4571527E2,2.930087E2,6.050017E2,2.0053484E3,1.9009344E2,5.475491E2,1.4088397E2,3.2947864E2,1.6236628E1],"tree_param":{"num_deleted":"0","num_feature":"4","num_nodes":"15","size_leaf_vector":"1"}},{"base_weights":[-2.1936776E-5,5.0213184E-2,-1.5030417E-1,-6.8040475E-2,9.85664E-2,-1.9661997E-1,8.012625E-2,9.895628E-3,-1.49015505E-2,6.959221E-3,4.2384792E-2,-8.465077E-2,-1.7702064E-2,8.535333E-2,2.0135876E-3],"categories":[],"categories_nodes":[],"categories_segments":[],"categories_sizes":[],"default_left":[0,0,0,0,0,0,0,0,0,0,0,0,0,0,0],"id":1,"left_children":[1,3,5,7,9,11,13,-1,-1,-1,-1,-1,-1,-1,-1],"loss_changes":[3.1173628E1,1.7702417E1,1.1056459E1,1.2168364E1,2.0676737E1,1.0825333E1,8.04854E0,0E0,0E0,0E0,0E0,0E0,0E0,0E0,0E0],"parents":[2147483647,0,0,1,1,2,2,3,3,4,4,5,5,6,6],"right_children":[2,4,6,8,10,12,14,-1,-1,-1,-1,-1,-1,-1,-1],"split_conditions":[1.8E1,-9.568535E-1,2.3E1,5.78E-4,1.434E-3,-2.3037562E0,-1.835932E0,9.895628E-3,-1.49015505E-2,6.959221E-3,4.2384792E-2,-8.465077E-2,-1.7702064E-2,8.535333E-2,2.0135876E-3],"split_indices":[2,0,2,1,1,0,0,0,0,0,0,0,0,0,0],"split_type":[0,0,0,0,0,0,0,0,0,0,0,0,0,0,0],"sum_hessian":[4.1272607E3,3.0937673E3,1.0334935E3,8.977656E2,2.1960017E3,8.6065186E2,1.7284164E2,2.9309225E2,6.0467334E2,2.0175079E3,1.7849394E2,2.3960594E1,8.366913E2,1.1489466E1,1.6135217E2],"tree_param":{"num_deleted":"0","num_feature":"4","num_nodes":"15","size_leaf_vector":"1"}},{"base_weights":[-1.626134E-5,5.0256763E-2,-1.2189924E-1,3.907607E-2,5.616914E-1,-2.2574277E-1,-4.8832767E-2,1.1900907E-2,-2.9353648E-3,1.1630141E-3,1.0006889E-1,5.5253636E-2,-2.4364019E-2,-9.329753E-2,-3.4868151E-3],"categories":[],"categories_nodes":[],"categories_segments":[],"categories_sizes":[],"default_left":[0,0,0,0,0,0,0,0,0,0,0,0,0,0,0],"id":2,"left_children":[1,3,5,7,9,11,13,-1,-1,-1,-1,-1,-1,-1,-1],"loss_changes":[2.5297075E1,1.6691729E1,9.13648E0,1.5654964E1,1.5070169E1,7.066574E0,8.72065E0,0E0,0E0,0E0,0E0,0E0,0E0,0E0,0E0],"parents":[2147483647,0,0,1,1,2,2,3,3,4,4,5,5,6,6],"right_children":[2,4,6,8,10,12,14,-1,-1,-1,-1,-1,-1,-1,-1],"split_conditions":[1.7E1,1.9995E-3,-2.0444818E-1,6.965E-4,1.2E1,3.43E-4,2.935E-4,1.1900907E-2,-2.9353648E-3,1.1630141E-3,1.0006889E-1,5.5253636E-2,-2.4364019E-2,-9.329753E-2,-3.4868151E-3],"split_indices":[2,1,0,1,2,1,1,0,0,0,0,0,0,0,0],"split_type":[0,0,0,0,0,0,0,0,0,0,0,0,0,0,0],"sum_hessian":[4.1265E3,2.9218948E3,1.2046051E3,2.8604377E3,6.145686E1,4.966569E2,7.0794824E2,1.3189862E3,1.5414517E3,2.7733475E1,3.3723385E1,1.0492942E1,4.8616394E2,9.984571E0,6.979637E2],"tree_param":{"num_deleted":"0","num_feature":"4","num_nodes":"15","size_leaf_vector":"1"}},{"base_weights":[-6.0283533E-6,4.1231036E-2,-1.2353916E-1,-6.542843E-2,8.4825516E-2,-1.905058E-1,9.750764E-3,-1.2183695E-2,1.3596996E-2,5.8322283E-3,3.62723E-2,-5.0550323E-2,-1.5256121E-2,5.171103E-3,-8.000859E-2],"categories":[],"categories_nodes":[],"categories_segments":[],"categories_sizes":[],"default_left":[0,0,0,0,0,0,0,0,0,0,0,0,0,0,0],"id":3,"left_children":[1,3,5,7,9,11,13,-1,-1,-1,-1,-1,-1,-1,-1],"loss_changes":[2.1028015E1,1.4395617E1,9.223156E0,1.0223874E1,1.6162441E1,8.142174E0,1.1813036E1,0E0,0E0,0E0,0E0,0E0,0E0,0E0,0E0],"parents":[2147483647,0,0,1,1,2,2,3,3,4,4,5,5,6,6],"right_children":[2,4,6,8,10,12,14,-1,-1,-1,-1,-1,-1,-1,-1],"split_conditions":[1.8E1,-9.568535E-1,2.2E1,1.4E1,1.4195E-3,5.39E-4,1.2605E-3,-1.2183695E-2,1.3596996E-2,5.8322283E-3,3.62723E-2,-5.0550323E-2,-1.5256121E-2,5.171103E-3,-8.000859E-2],"split_indices":[2,0,2,2,1,1,1,0,0,0,0,0,0,0,0],"split_type":[0,0,0,0,0,0,0,0,0,0,0,0,0,0,0],"sum_hessian":[4.1258804E3,3.0937952E3,1.0320853E3,8.974844E2,2.1963108E3,6.866659E2,3.454194E2,7.014221E2,1.9606227E2,2.0061892E3,1.9012157E2,7.249832E1,6.1416754E2,3.2929376E2,1.6125633E1],"tree_param":{"num_deleted":"0","num_feature":"4","num_nodes":"15","size_leaf_vector":"1"}},{"base_weights":[-3.2837343E-5,4.1615438E-2,-1.0113948E-1,2.2921545E-2,2.7049628E-1,-8.083089E-2,-4.590787E-1,1.068777E-2,-5.718646E-3,-4.4349935E-2,4.480961E-2,-2.5243804E-2,-3.380083E-3,-7.029929E-2,4.982811E-2],"categories":[],"categories_nodes":[],"categories_segments":[],"categories_sizes":[],"default_left":[0,0,0,0,0,0,0,0,0,0,0,0,0,0,0],"id":4,"left_children":[1,3,5,7,9,11,13,-1,-1,-1,-1,-1,-1,-1,-1],"loss_changes":[1.737769E1,1.249965E1,8.714952E0,1.8186834E1,2.8172642E1,9.196543E0,1.5395514E1,0E0,0E0,0E0,0E0,0E0,0E0,0E0,0E0],"parents":[2147483647,0,0,1,1,2,2,3,3,4,4,5,5,6,6],"right_children":[2,4,6,8,10,12,14,-1,-1,-1,-1,-1,-1,-1,-1],"split_conditions":[1.7E1,1.4195E-3,1.6915E-3,6.965E-4,6E0,-9.4338477E-1,6.680271E-1,1.068777E-2,-5.718646E-3,-4.4349935E-2,4.480961E-2,-2.5243804E-2,-3.380083E-3,-7.029929E-2,4.982811E-2],"split_indices":[2,1,1,1,2,0,0,0,0,0,0,0,0,0,0],"split_type":[0,0,0,0,0,0,0,0,0,0,0,0,0,0,0],"sum_hessian":[4.1248184E3,2.921833E3,1.2029854E3,2.702228E3,2.1960489E2,1.1395557E3,6.3429756E1,1.3192603E3,1.3829679E3,4.3445587E1,1.761593E2,2.4418515E2,8.953705E2,5.076233E1,1.2667426E1],"tree_param":{"num_deleted":"0","num_feature":"4","num_nodes":"15","size_leaf_vector":"1"}},{"base_weights":[-4.2565105E-5,3.39608E-2,-1.0204537E-1,-1.3635859E-1,5.7404578E-2,-1.4019008E-1,8.709584E-2,-1.360159E-3,-3.0815696E-2,5.007995E-3,6.463956E-2,-7.062643E-2,-1.2330262E-2,1.7538154E-2,-4.163011E-2],"categories":[],"categories_nodes":[],"categories_segments":[],"categories_sizes":[],"default_left":[0,0,0,0,0,0,0,0,0,0,0,0,0,0,0],"id":5,"left_children":[1,3,5,7,9,11,13,-1,-1,-1,-1,-1,-1,-1,-1],"loss_changes":[1.4309921E1,1.2362991E1,7.4541664E0,7.8975353E0,1.1704613E1,8.122322E0,7.794018E0,0E0,0E0,0E0,0E0,0E0,0E0,0E0,0E0],"parents":[2147483647,0,0,1,1,2,2,3,3,4,4,5,5,6,6],"right_children":[2,4,6,8,10,12,14,-1,-1,-1,-1,-1,-1,-1,-1],"split_conditions":[1.8E1,-1.835932E0,2.3E1,7.43E-4,2.324E-3,-2.3037562E0,1.8596815E0,-1.360159E-3,-3.0815696E-2,5.007995E-3,6.463956E-2,-7.062643E-2,-1.2330262E-2,1.7538154E-2,-4.163011E-2],"split_indices":[2,0,2,1,1,0,0,0,0,0,0,0,0,0,0],"split_type":[0,0,0,0,0,0,0,0,0,0,0,0,0,0,0],"sum_hessian":[4.123754E3,3.0932605E3,1.0304935E3,3.7367673E2,2.7195837E3,8.577642E2,1.7272926E2,2.1857503E2,1.5510168E2,2.6872502E3,3.2333332E1,2.3665516E1,8.340987E2,1.4751048E2,2.5218771E1],"tree_param":{"num_deleted":"0","num_feature":"4","num_nodes":"15","size_leaf_vector":"1"}},{"base_weights":[-5.854836E-5,3.409109E-2,-8.306556E-2,-3.0449152E-2,9.1493875E-2,-6.459132E-2,-4.0998775E-1,1.0611058E-2,-1.669772E-2,2.4903638E-2,1.2510576E-3,-2.1589343E-2,-2.3232205E-3,-6.307981E-2,4.5044564E-2],"categories":[],"categories_nodes":[],"categories_segments":[],"categories_sizes":[],"default_left":[0,0,0,0,0,0,0,0,0,0,0,0,0,0,0],"id":6,"left_children":[1,3,5,7,9,11,13,-1,-1,-1,-1,-1,-1,-1,-1],"loss_changes":[1.1691951E1,1.0829525E1,7.234849E0,2.5679773E1,1.9246002E1,7.1235266E0,1.2466343E1,0E0,0E0,0E0,0E0,0E0,0E0,0E0,0E0],"parents":[2147483647,0,0,1,1,2,2,3,3,4,4,5,5,6,6],"right_children":[2,4,6,8,10,12,14,-1,-1,-1,-1,-1,-1,-1,-1],"split_conditions":[1.7E1,8E0,1.6915E-3,4E0,1.1E1,-9.4338477E-1,6.680271E-1,1.0611058E-2,-1.669772E-2,2.4903638E-2,1.2510576E-3,-2.1589343E-2,-2.3232205E-3,-6.307981E-2,4.5044564E-2],"split_indices":[2,2,1,2,2,0,0,0,0,0,0,0,0,0,0],"split_type":[0,0,0,0,0,0,0,0,0,0,0,0,0,0,0],"sum_hessian":[4.1226416E3,2.9213628E3,1.2012787E3,1.3754072E3,1.5459557E3,1.1381594E3,6.3119354E1,6.8773517E2,6.87672E2,5.1552356E2,1.0304321E3,2.4342592E2,8.9473346E2,5.0441574E1,1.2677781E1],"tree_param":{"num_deleted":"0","num_feature":"4","num_nodes":"15","size_leaf_vector":"1"}},{"base_weights":[-6.272412E-5,2.2089312E-2,-1.10603675E-1,-1.2720285E-1,4.1444294E-2,6.139624E-2,-2.2220455E-1,-5.5534393E-3,-4.4467267E-2,3.2467444E-3,3.765589E-2,1.1320392E-2,-8.7408416E-2,4.7324758E-2,-2.6103497E-2],"categories":[],"categories_nodes":[],"categories_segments":[],"categories_sizes":[],"default_left":[0,0,0,0,0,0,0,0,0,0,0,0,0,0,0],"id":7,"left_children":[1,3,5,7,9,11,13,-1,-1,-1,-1,-1,-1,-1,-1],"loss_changes":[1.0097941E1,9.9318905E0,1.3228348E1,8.95138E0,9.13848E0,1.3266494E1,1.1404509E1,0E0,0E0,0E0,0E0,0E0,0E0,0E0,0E0],"parents":[2147483647,0,0,1,1,2,2,3,3,4,4,5,5,6,6],"right_children":[2,4,6,8,10,12,14,-1,-1,-1,-1,-1,-1,-1,-1],"split_conditions":[2E1,-1.835932E0,2E0,4E0,1.9995E-3,1.202E-3,3.69E-4,-5.5534393E-3,-4.4467267E-2,3.2467444E-3,3.765589E-2,1.1320392E-2,-8.7408416E-2,4.7324758E-2,-2.6103497E-2],"split_indices":[2,0,3,3,1,1,1,0,0,0,0,0,0,0,0],"split_type":[0,0,0,0,0,0,0,0,0,0,0,0,0,0,0],"sum_hessian":[4.121787E3,3.434354E3,6.8743286E2,3.935081E2,3.040846E3,2.706915E2,4.167414E2,3.2199335E2,7.1514725E1,2.962583E3,7.826305E1,2.573199E2,1.3371599E1,2.144654E1,3.9529486E2],"tree_param":{"num_deleted":"0","num_feature":"4","num_nodes":"15","size_leaf_vector":"1"}},{"base_weights":[-7.6465156E-5,-5.340458E-2,4.0635835E-2,4.8884705E-2,-1.3093759E-1,-8.384957E-1,4.7976017E-2,6.81699E-3,-5.453053E-2,-4.6524E-2,-8.070121E-3,4.239426E-2,-9.675581E-2,6.1077964E-2,3.6828357E-3],"categories":[],"categories_nodes":[],"categories_segments":[],"categories_sizes":[],"default_left":[0,0,0,0,0,0,0,0,0,0,0,0,0,0,0],"id":8,"left_children":[1,3,5,7,9,11,13,-1,-1,-1,-1,-1,-1,-1,-1],"loss_changes":[8.951293E0,1.4162109E1,1.5127346E1,8.864273E0,1.7018396E1,3.573268E0,1.4530501E1,0E0,0E0,0E0,0E0,0E0,0E0,0E0,0E0],"parents":[2147483647,0,0,1,1,2,2,3,3,4,4,5,5,6,6],"right_children":[2,4,6,8,10,12,14,-1,-1,-1,-1,-1,-1,-1,-1],"split_conditions":[-2.3868981E-1,6.925E-4,2.935E-4,6E0,7E0,-2.0346122E-3,3.245E-4,6.81699E-3,-5.453053E-2,-4.6524E-2,-8.070121E-3,4.239426E-2,-9.675581E-2,6.1077964E-2,3.6828357E-3],"split_indices":[0,1,1,3,2,0,1,0,0,0,0,0,0,0,0],"split_type":[0,0,0,0,0,0,0,0,0,0,0,0,0,0,0],"sum_hessian":[4.1209106E3,1.7839039E3,2.3370068E3,7.693156E2,1.0145883E3,1.8413328E1,2.3185935E3,7.4598883E2,2.3326744E1,1.3146724E2,8.8312103E2,1.4959302E0,1.6917398E1,4.3988495E1,2.274605E3],"tree_param":{"num_deleted":"0","num_feature":"4","num_nodes":"15","size_leaf_vector":"1"}},{"base_weights":[-9.514913E-5,2.5776163E-2,-7.7861294E-2,5.2082676E-2,-7.7157706E-2,-1.3333936E-1,3.2203235E-2,1.4545818E-2,-1.3472305E-3,-2.141661E-2,2.598065E-2,-1.9224642E-2,9.529197E-3,1.738458E-2,-1.6290072E-2],"categories":[],"categories_nodes":[],"categories_segments":[],"categories_sizes":[],"default_left":[0,0,0,0,0,0,0,0,0,0,0,0,0,0,0],"id":9,"left_children":[1,3,5,7,9,11,13,-1,-1,-1,-1,-1,-1,-1,-1],"loss_changes":[8.293602E0,8.3798895E0,6.287835E0,1.50858135E1,2.914153E1,9.235539E0,9.580892E0,0E0,0E0,0E0,0E0,0E0,0E0,0E0,0E0],"parents":[2147483647,0,0,1,1,2,2,3,3,4,4,5,5,6,6],"right_children":[2,4,6,8,10,12,14,-1,-1,-1,-1,-1,-1,-1,-1],"split_conditions":[1.8E1,4E0,2.2E1,6.965E-4,8.995E-4,4E0,5.58E-4,1.4545818E-2,-1.3472305E-3,-2.141661E-2,2.598065E-2,-1.9224642E-2,9.529197E-3,1.738458E-2,-1.6290072E-2],"split_indices":[2,3,2,1,1,3,1,0,0,0,0,0,0,0,0],"split_type":[0,0,0,0,0,0,0,0,0,0,0,0,0,0,0],"sum_hessian":[4.120251E3,3.0922026E3,1.0280482E3,2.463187E3,6.290157E2,6.833792E2,3.4466907E2,1.0155023E3,1.4476846E3,4.4744897E2,1.815667E2,5.43504E2,1.3987515E2,1.9975726E2,1.4491182E2],"tree_param":{"num_deleted":"0","num_feature":"4","num_nodes":"15","size_leaf_vector":"1"}},{"base_weights":[-8.682955E-5,-7.2818495E-2,2.6683744E-2,2.0088641E-1,-1.053644E-1,-6.827069E-1,3.2202046E-2,-7.3551433E-3,5.1255744E-2,-2.9474733E-2,-5.22362E-3,-1.4370148E-3,-8.881445E-2,5.5106338E-2,2.3110337E-3],"categories":[],"categories_nodes":[],"categories_segments":[],"categories_sizes":[],"default_left":[0,0,0,0,0,0,0,0,0,0,0,0,0,0,0],"id":10,"left_children":[1,3,5,7,9,11,13,-1,-1,-1,-1,-1,-1,-1,-1],"loss_changes":[8.024222E0,9.898173E0,1.181442E1,1.014586E1,9.96172E0,3.1860085E0,1.40925865E1,0E0,0E0,0E0,0E0,0E0,0E0,0E0,0E0],"parents":[2147483647,0,0,1,1,2,2,3,3,4,4,5,5,6,6],"right_children":[2,4,6,8,10,12,14,-1,-1,-1,-1,-1,-1,-1,-1],"split_conditions":[-9.568535E-1,4.155E-4,2.935E-4,3.69E-4,6E0,-2.0346122E-3,3.245E-4,-7.3551433E-3,5.1255744E-2,-2.9474733E-2,-5.22362E-3,-1.4370148E-3,-8.881445E-2,5.5106338E-2,2.3110337E-3],"split_indices":[0,1,1,1,2,0,1,0,0,0,0,0,0,0,0],"split_type":[0,0,0,0,0,0,0,0,0,0,0,0,0,0,0],"sum_hessian":[4.1191836E3,1.1077827E3,3.011401E3,1.1717667E2,9.906061E2,2.229742E1,2.9891035E3,6.2716488E1,5.446018E1,2.16021E2,7.745851E2,5.494023E0,1.6803396E1,5.0447838E1,2.9386555E3],"tree_param":{"num_deleted":"0","num_feature":"4","num_nodes":"15","size_leaf_vector":"1"}},{"base_weights":[-8.611231E-5,1.899655E-2,-9.545642E-2,-1.8912327E-2,8.8896E-2,6.0012672E-2,-1.9650279E-1,3.9421967E-3,-1.9977247E-2,-2.7256468E-2,1.2573192E-2,1.0054262E-2,-9.30952E-2,-1.5174395E-2,-7.4146494E-2],"categories":[],"categories_nodes":[],"categories_segments":[],"categories_sizes":[],"default_left":[0,0,0,0,0,0,0,0,0,0,0,0,0,0,0],"id":11,"left_children":[1,3,5,7,9,11,13,-1,-1,-1,-1,-1,-1,-1,-1],"loss_changes":[7.499017E0,9.099837E0,1.0804458E1,2.3503542E1,1.6111938E1,1.099376E1,1.0049589E1,0E0,0E0,0E0,0E0,0E0,0E0,0E0,0E0],"parents":[2147483647,0,0,1,1,2,2,3,3,4,4,5,5,6,6],"right_children":[2,4,6,8,10,12,14,-1,-1,-1,-1,-1,-1,-1,-1],"split_conditions":[2E1,9.115E-4,2E0,1.2E1,6E0,1.248E-3,2.085463E0,3.9421967E-3,-1.9977247E-2,-2.7256468E-2,1.2573192E-2,1.0054262E-2,-9.30952E-2,-1.5174395E-2,-7.4146494E-2],"split_indices":[2,1,3,2,2,1,0,0,0,0,0,0,0,0,0],"split_type":[0,0,0,0,0,0,0,0,0,0,0,0,0,0,0],"sum_hessian":[4.1185244E3,3.4325132E3,6.8601135E2,2.226004E3,1.2065092E3,2.70393E2,4.1561835E2,1.6837216E3,5.422824E2,1.10990524E2,1.0955187E3,2.6063184E2,9.761168E0,3.8525504E2,3.0363325E1],"tree_param":{"num_deleted":"0","num_feature":"4","num_nodes":"15","size_leaf_vector":"1"}},{"base_weights":[-1.3294055E-4,9.062884E-2,-1.8336313E-2,2.2933514E-1,-7.763594E-2,-1.5951549E-1,1.7076788E-2,-4.1671347E-2,2.9652406E-2,-3.3912864E-2,2.6438492E-3,1.55099435E-2,-2.3718694E-2,2.1255152E-2,-2.823515E-3],"categories":[],"categories_nodes":[],"categories_segments":[],"categories_sizes":[],"default_left":[0,0,0,0,0,0,0,0,0,0,0,0,0,0,0],"id":12,"left_children":[1,3,5,7,9,11,13,-1,-1,-1,-1,-1,-1,-1,-1],"loss_changes":[6.806316E0,1.6080229E1,1.7158348E1,1.65095E1,8.492292E0,1.685446E1,2.43122E1,0E0,0E0,0E0,0E0,0E0,0E0,0E0,0E0],"parents":[2147483647,0,0,1,1,2,2,3,3,4,4,5,5,6,6],"right_children":[2,4,6,8,10,12,14,-1,-1,-1,-1,-1,-1,-1,-1],"split_conditions":[4E0,5.515E-4,8E0,-2.3601687E0,-7.199633E-1,1E0,1.1E1,-4.1671347E-2,2.9652406E-2,-3.3912864E-2,2.6438492E-3,1.55099435E-2,-2.3718694E-2,2.1255152E-2,-2.823515E-3],"split_indices":[2,1,2,0,0,3,2,0,0,0,0,0,0,0,0],"split_type":[0,0,0,0,0,0,0,0,0,0,0,0,0,0,0],"sum_hessian":[4.117615E3,6.872111E2,3.430404E3,3.764926E2,3.1071848E2,6.872166E2,2.7431875E3,3.4976574E1,3.4151605E2,8.781641E1,2.2290207E2,1.3586932E2,5.513473E2,5.155265E2,2.227661E3],"tree_param":{"num_deleted":"0","num_feature":"4","num_nodes":"15","size_leaf_vector":"1"}},{"base_weights":[-1.2897518E-4,-6.34993E-2,2.3183648E-2,6.9676094E-2,-1.2341095E-1,-6.332271E-1,2.8258236E-2,-9.417764E-3,1.5075475E-2,-4.4271026E-2,-6.5464354E-3,2.643012E-2,-7.546755E-2,4.876053E-2,2.0231085E-3],"categories":[],"categories_nodes":[],"categories_segments":[],"categories_sizes":[],"default_left":[0,0,0,0,0,0,0,0,0,0,0,0,0,0,0],"id":13,"left_children":[1,3,5,7,9,11,13,-1,-1,-1,-1,-1,-1,-1,-1],"loss_changes":[6.084465E0,8.84627E0,1.0047288E1,4.5885596E0,1.411281E1,2.7219028E0,1.1010482E1,0E0,0E0,0E0,0E0,0E0,0E0,0E0,0E0],"parents":[2147483647,0,0,1,1,2,2,3,3,4,4,5,5,6,6],"right_children":[2,4,6,8,10,12,14,-1,-1,-1,-1,-1,-1,-1,-1],"split_conditions":[-9.568535E-1,5.78E-4,2.935E-4,2E0,7E0,-4.602097E-1,3.245E-4,-9.417764E-3,1.5075475E-2,-4.4271026E-2,-6.5464354E-3,2.643012E-2,-7.546755E-2,4.876053E-2,2.0231085E-3],"split_indices":[0,1,1,3,2,0,1,0,0,0,0,0,0,0,0],"split_type":[0,0,0,0,0,0,0,0,0,0,0,0,0,0,0],"sum_hessian":[4.116563E3,1.1066501E3,3.0099128E3,3.4332425E2,7.6332587E2,2.2140955E1,2.987772E3,1.1359531E2,2.2972893E2,1.16230194E2,6.4709564E2,2.498712E0,1.9642242E1,5.0288868E1,2.937483E3],"tree_param":{"num_deleted":"0","num_feature":"4","num_nodes":"15","size_leaf_vector":"1"}},{"base_weights":[-1.3034162E-4,-2.6783789E-2,5.539111E-2,3.633178E-2,-1.4893436E-1,-3.5851438E-2,1.543611E-1,8.419319E-3,-1.3084123E-2,-2.455306E-3,-3.5381507E-2,6.7444396E-4,-4.017438E-2,5.4351147E-3,6.073196E-2],"categories":[],"categories_nodes":[],"categories_segments":[],"categories_sizes":[],"default_left":[0,0,0,0,0,0,0,0,0,0,0,0,0,0,0],"id":14,"left_children":[1,3,5,7,9,11,13,-1,-1,-1,-1,-1,-1,-1,-1],"loss_changes":[6.093312E0,2.1453686E1,1.2065736E1,1.4693575E1,2.4148523E1,1.0845619E1,2.8996609E1,0E0,0E0,0E0,0E0,0E0,0E0,0E0,0E0],"parents":[2147483647,0,0,1,1,2,2,3,3,4,4,5,5,6,6],"right_children":[2,4,6,8,10,12,14,-1,-1,-1,-1,-1,-1,-1,-1],"split_conditions":[9.115E-4,7.035E-4,1.3763055E-1,4E0,3E0,2E1,4E0,8.419319E-3,-1.3084123E-2,-2.455306E-3,-3.5381507E-2,6.7444396E-4,-4.017438E-2,5.4351147E-3,6.073196E-2],"split_indices":[1,1,0,3,3,2,3,0,0,0,0,0,0,0,0],"split_type":[0,0,0,0,0,0,0,0,0,0,0,0,0,0,0],"sum_hessian":[4.115551E3,2.7810208E3,1.3345302E3,1.8340592E3,9.4696136E2,6.947047E2,6.398254E2,1.4262283E3,4.0783093E2,5.899361E2,3.5702527E2,6.231423E2,7.156242E1,5.250239E2,1.14801476E2],"tree_param":{"num_deleted":"0","num_feature":"4","num_nodes":"15","size_leaf_vector":"1"}},{"base_weights":[-1.2565654E-4,8.045962E-2,-1.627545E-2,1.5145975E-1,-1.7893465E-1,-1.4405943E-1,1.5767332E-2,-3.662769E-2,2.004984E-2,-7.956194E-2,-1.1656801E-2,1.3844012E-2,-2.1387616E-2,1.915186E-2,-2.4983133E-3],"categories":[],"categories_nodes":[],"categories_segments":[],"categories_sizes":[],"default_left":[0,0,0,0,0,0,0,0,0,0,0,0,0,0,0],"id":15,"left_children":[1,3,5,7,9,11,13,-1,-1,-1,-1,-1,-1,-1,-1],"loss_changes":[5.3568416E0,1.2682877E1,1.4042159E1,1.3784785E1,5.604404E0,1.35901575E1,1.964552E1,0E0,0E0,0E0,0E0,0E0,0E0,0E0,0E0],"parents":[2147483647,0,0,1,1,2,2,3,3,4,4,5,5,6,6],"right_children":[2,4,6,8,10,12,14,-1,-1,-1,-1,-1,-1,-1,-1],"split_conditions":[4E0,7.705E-4,8E0,-2.3601687E0,7.97E-4,1E0,1.1E1,-3.662769E-2,2.004984E-2,-7.956194E-2,-1.1656801E-2,1.3844012E-2,-2.1387616E-2,1.915186E-2,-2.4983133E-3],"split_indices":[2,1,2,0,1,3,2,0,0,0,0,0,0,0,0],"split_type":[0,0,0,0,0,0,0,0,0,0,0,0,0,0,0],"sum_hessian":[4.114095E3,6.8617804E2,3.4279172E3,5.3904846E2,1.4712961E2,6.865433E2,2.741374E3,4.6079945E1,4.9296854E2,1.2433119E1,1.3469649E2,1.3585402E2,5.506893E2,5.1529144E2,2.2260825E3],"tree_param":{"num_deleted":"0","num_feature":"4","num_nodes":"15","size_leaf_vector":"1"}},{"base_weights":[-1.3854413E-4,-2.463788E-2,5.0891295E-2,3.1119479E-2,-1.326373E-1,-3.137044E-2,1.4008442E-1,7.3782816E-3,-1.1797766E-2,-2.0746768E-3,-3.173582E-2,-1.9741973E-2,4.6424917E-3,4.9813264E-3,5.4961618E-2],"categories":[],"categories_nodes":[],"categories_segments":[],"categories_sizes":[],"default_left":[0,0,0,0,0,0,0,0,0,0,0,0,0,0,0],"id":16,"left_children":[1,3,5,7,9,11,13,-1,-1,-1,-1,-1,-1,-1,-1],"loss_changes":[5.1443806E0,1.6745348E1,9.797573E0,1.1676843E1,1.9562151E1,8.989186E0,2.365379E1,0E0,0E0,0E0,0E0,0E0,0E0,0E0,0E0],"parents":[2147483647,0,0,1,1,2,2,3,3,4,4,5,5,6,6],"right_children":[2,4,6,8,10,12,14,-1,-1,-1,-1,-1,-1,-1,-1],"split_conditions":[9.115E-4,7.035E-4,1.3763055E-1,4E0,3E0,1.3E1,4E0,7.3782816E-3,-1.1797766E-2,-2.0746768E-3,-3.173582E-2,-1.9741973E-2,4.6424917E-3,4.9813264E-3,5.4961618E-2],"split_indices":[1,1,0,3,3,2,3,0,0,0,0,0,0,0,0],"split_type":[0,0,0,0,0,0,0,0,0,0,0,0,0,0,0],"sum_hessian":[4.1128525E3,2.7791194E3,1.3337332E3,1.8333297E3,9.457896E2,6.9416315E2,6.3957E2,1.4258387E3,4.0749094E2,5.897027E2,3.5608694E2,2.2097284E2,4.731903E2,5.2497406E2,1.1459591E2],"tree_param":{"num_deleted":"0","num_feature":"4","num_nodes":"15","size_leaf_vector":"1"}},{"base_weights":[-1.2512239E-4,1.5717467E-2,-7.936986E-2,-1.5196971E-2,6.890027E-2,-1.9799946E-1,3.8272098E-2,3.7703407E-3,-1.8685637E-2,-2.3968333E-2,1.0157628E-2,-9.9183895E-2,-1.8088495E-2,7.3103993E-3,-6.52922E-2],"categories":[],"categories_nodes":[],"categories_segments":[],"categories_sizes":[],"default_left":[0,0,0,0,0,0,0,0,0,0,0,0,0,0,0],"id":17,"left_children":[1,3,5,7,9,11,13,-1,-1,-1,-1,-1,-1,-1,-1],"loss_changes":[5.164166E0,5.637226E0,9.572079E0,1.9700964E1,1.2732896E1,4.4589148E0,8.352397E0,0E0,0E0,0E0,0E0,0E0,0E0,0E0,0E0],"parents":[2147483647,0,0,1,1,2,2,3,3,4,4,5,5,6,6],"right_children":[2,4,6,8,10,12,14,-1,-1,-1,-1,-1,-1,-1,-1],"split_conditions":[2E1,8.96E-4,2.2E1,1.2E1,6E0,-2.6100805E0,1.2605E-3,3.7703407E-3,-1.8685637E-2,-2.3968333E-2,1.0157628E-2,-9.9183895E-2,-1.8088495E-2,7.3103993E-3,-6.52922E-2],"split_indices":[2,1,2,2,2,0,1,0,0,0,0,0,0,0,0],"split_type":[0,0,0,0,0,0,0,0,0,0,0,0,0,0,0],"sum_hessian":[4.1114316E3,3.42709E3,6.8434143E2,2.1677317E3,1.2593585E3,3.4040027E2,3.4394116E2,1.6576676E3,5.1006403E2,1.19978455E2,1.13938E3,5.981917E0,3.3441837E2,3.2829153E2,1.5649622E1],"tree_param":{"num_deleted":"0","num_feature":"4","num_nodes":"15","size_leaf_vector":"1"}},{"base_weights":[-1.688421E-4,7.5004487E-3,-1.5460868E-1,3.6004018E-2,-4.768668E-2,-1.9612703E-1,3.890934E-1,6.809782E-3,-9.214172E-3,-8.563953E-3,1.0327085E-2,1.9986074E-2,-2.6342914E-2,8.228596E-2,-2.5787652E-2],"categories":[],"categories_nodes":[],"categories_segments":[],"categories_sizes":[],"default_left":[0,0,0,0,0,0,0,0,0,0,0,0,0,0,0],"id":18,"left_children":[1,3,5,7,9,11,13,-1,-1,-1,-1,-1,-1,-1,-1],"loss_changes":[4.870318E0,6.163892E0,4.4675946E0,1.063249E1,7.655266E0,4.886987E0,4.1792746E0,0E0,0E0,0E0,0E0,0E0,0E0,0E0,0E0],"parents":[2147483647,0,0,1,1,2,2,3,3,4,4,5,5,6,6],"right_children":[2,4,6,8,10,12,14,-1,-1,-1,-1,-1,-1,-1,-1],"split_conditions":[2.593289E0,1.6E1,1.2875E-3,4E0,4E0,2E0,3E0,6.809782E-3,-9.214172E-3,-8.563953E-3,1.0327085E-2,1.9986074E-2,-2.6342914E-2,8.228596E-2,-2.5787652E-2],"split_indices":[0,2,1,3,3,2,3,0,0,0,0,0,0,0,0],"split_type":[0,0,0,0,0,0,0,0,0,0,0,0,0,0,0],"sum_hessian":[4.1099233E3,3.9163914E3,1.935317E2,2.582767E3,1.3336244E3,1.8039555E2,1.3136146E1,2.0658486E3,5.1691833E2,1.0660397E3,2.6758472E2,2.591993E1,1.5447562E2,7.7010493E0,5.4350967E0],"tree_param":{"num_deleted":"0","num_feature":"4","num_nodes":"15","size_leaf_vector":"1"}},{"base_weights":[-1.4102682E-4,-5.075933E-1,1.9219499E-3,-8.715538E-1,7.201238E-2,2.3331916E-1,-4.627157E-3,8.826297E-4,-1.08422436E-1,7.323739E-2,-5.2832346E-2,3.8280242E-4,5.1973965E-2,-2.9127965E-2,1.5725502E-5],"categories":[],"categories_nodes":[],"categories_segments":[],"categories_sizes":[],"default_left":[0,0,0,0,0,0,0,0,0,0,0,0,0,0,0],"id":19,"left_children":[1,3,5,7,9,11,13,-1,-1,-1,-1,-1,-1,-1,-1],"loss_changes":[4.3038754E0,3.574274E0,6.206276E0,1.9383135E0,3.2985668E0,7.407073E0,5.4624734E0,0E0,0E0,0E0,0E0,0E0,0E0,0E0,0E0],"parents":[2147483647,0,0,1,1,2,2,3,3,4,4,5,5,6,6],"right_children":[2,4,6,8,10,12,14,-1,-1,-1,-1,-1,-1,-1,-1],"split_conditions":[2.69E-4,2.2E1,3.37E-4,-1.3831742E0,2.3E1,3E0,3.59E-4,8.826297E-4,-1.08422436E-1,7.323739E-2,-5.2832346E-2,3.8280242E-4,5.1973965E-2,-2.9127965E-2,1.5725502E-5],"split_indices":[1,2,1,0,2,3,1,0,0,0,0,0,0,0,0],"split_type":[0,0,0,0,0,0,0,0,0,0,0,0,0,0,0],"sum_hessian":[4.109282E3,1.56459E1,4.0936365E3,9.301418E0,6.344481E0,1.11718025E2,3.9819185E3,1.9962313E0,7.3051867E0,2.9164665E0,3.4280148E0,6.258548E1,4.9132545E1,6.438664E1,3.9175317E3],"tree_param":{"num_deleted":"0","num_feature":"4","num_nodes":"15","size_leaf_vector":"1"}},{"base_weights":[-1.4356858E-4,-5.350174E-2,1.9469924E-2,1.636449E-1,-7.93756E-2,-5.696E-1,2.3976574E-2,-7.994844E-3,4.4065025E-2,-2.3334982E-2,-3.6349637E-3,-3.7996504E-2,-1.2920886E-1,4.0162228E-2,1.7421903E-3],"categories":[],"categories_nodes":[],"categories_segments":[],"categories_sizes":[],"default_left":[0,0,0,0,0,0,0,0,0,0,0,0,0,0,0],"id":20,"left_children":[1,3,5,7,9,11,13,-1,-1,-1,-1,-1,-1,-1,-1],"loss_changes":[4.3023596E0,6.2211876E0,7.993951E0,7.9954877E0,6.536917E0,2.641563E0,7.3799257E0,0E0,0E0,0E0,0E0,0E0,0E0,0E0,0E0],"parents":[2147483647,0,0,1,1,2,2,3,3,4,4,5,5,6,6],"right_children":[2,4,6,8,10,12,14,-1,-1,-1,-1,-1,-1,-1,-1],"split_conditions":[-9.568535E-1,4.155E-4,2.935E-4,3.69E-4,6E0,2.1910195E0,3.245E-4,-7.994844E-3,4.4065025E-2,-2.3334982E-2,-3.6349637E-3,-3.7996504E-2,-1.2920886E-1,4.0162228E-2,1.7421903E-3],"split_indices":[0,1,1,1,2,0,1,0,0,0,0,0,0,0,0],"split_type":[0,0,0,0,0,0,0,0,0,0,0,0,0,0,0],"sum_hessian":[4.109036E3,1.1039719E3,3.0050642E3,1.16970566E2,9.8700134E2,2.186353E1,2.9832007E3,6.2617386E1,5.435318E1,2.1460063E2,7.724007E2,1.852666E1,3.3368673E0,4.986678E1,2.933334E3],"tree_param":{"num_deleted":"0","num_feature":"4","num_nodes":"15","size_leaf_vector":"1"}},{"base_weights":[-1.589602E-4,6.57908E-2,-1.6432755E-2,-3.5204685E-1,9.736697E-2,-4.9299657E-2,4.7977883E-2,-6.643096E-2,1.3155674E-2,1.6625732E-2,-1.3580494E-2,1.8559023E-3,-1.5969511E-2,1.786618E-5,2.0974537E-2],"categories":[],"categories_nodes":[],"categories_segments":[],"categories_sizes":[],"default_left":[0,0,0,0,0,0,0,0,0,0,0,0,0,0,0],"id":21,"left_children":[1,3,5,7,9,11,13,-1,-1,-1,-1,-1,-1,-1,-1],"loss_changes":[4.4111633E0,1.0767025E1,6.981208E0,8.751221E0,1.2184137E1,1.6358572E1,8.6163025E0,0E0,0E0,0E0,0E0,0E0,0E0,0E0,0E0],"parents":[2147483647,0,0,1,1,2,2,3,3,4,4,5,5,6,6],"right_children":[2,4,6,8,10,12,14,-1,-1,-1,-1,-1,-1,-1,-1],"split_conditions":[1E0,4.28E-4,8.96E-4,2.2E1,1.068E-3,1.2E1,4E0,-6.643096E-2,1.3155674E-2,1.6625732E-2,-1.3580494E-2,1.8559023E-3,-1.5969511E-2,1.786618E-5,2.0974537E-2],"split_indices":[3,1,1,2,1,2,3,0,0,0,0,0,0,0,0],"split_type":[0,0,0,0,0,0,0,0,0,0,0,0,0,0,0],"sum_hessian":[4.10808E3,8.124744E2,3.2956057E3,5.6371998E1,7.561024E2,2.1822837E3,1.1133221E3,3.402706E1,2.2344936E1,5.8388214E2,1.7222028E2,1.352036E3,8.3024756E2,8.6016174E2,2.5316039E2],"tree_param":{"num_deleted":"0","num_feature":"4","num_nodes":"15","size_leaf_vector":"1"}},{"base_weights":[-1.5665546E-4,6.810734E-3,-1.4057389E-1,1.3110043E-3,2.6657078E-1,-2.0448191E-1,1.7984262E-1,7.7092717E-3,-1.3679735E-3,7.4226703E-3,7.6731786E-2,-3.217052E-3,-3.9436933E-2,1.2317467E-1,-1.877433E-3],"categories":[],"categories_nodes":[],"categories_segments":[],"categories_sizes":[],"default_left":[0,0,0,0,0,0,0,0,0,0,0,0,0,0,0],"id":22,"left_children":[1,3,5,7,9,11,13,-1,-1,-1,-1,-1,-1,-1,-1],"loss_changes":[4.0200057E0,5.592337E0,4.0144033E0,4.3572664E0,7.760178E0,5.3014655E0,6.882731E0,0E0,0E0,0E0,0E0,0E0,0E0,0E0,0E0],"parents":[2147483647,0,0,1,1,2,2,3,3,4,4,5,5,6,6],"right_children":[2,4,6,8,10,12,14,-1,-1,-1,-1,-1,-1,-1,-1],"split_conditions":[2.593289E0,2.316914E0,1.0505E-3,4E0,9.55E-4,6.6E-4,2.7505286E0,7.7092717E-3,-1.3679735E-3,7.4226703E-3,7.6731786E-2,-3.217052E-3,-3.9436933E-2,1.2317467E-1,-1.877433E-3],"split_indices":[0,0,1,2,1,1,0,0,0,0,0,0,0,0,0],"split_type":[0,0,0,0,0,0,0,0,0,0,0,0,0,0,0],"sum_hessian":[4.1070215E3,3.913775E3,1.9324684E2,3.8336133E3,8.0161545E1,1.6141414E2,3.1832708E1,6.324231E2,3.2011902E3,5.8744987E1,2.1416553E1,8.5236534E1,7.6177605E1,4.229746E0,2.7602962E1],"tree_param":{"num_deleted":"0","num_feature":"4","num_nodes":"15","size_leaf_vector":"1"}},{"base_weights":[-9.975361E-5,-1.3180164E-1,6.9524636E-3,-1.6306989E-1,7.6134497E-1,8.8139094E-2,-8.94085E-3,-6.336087E-2,-1.1763881E-2,1.4803255E-2,1.00805104E-1,2.1044515E-2,-6.266492E-3,-1.4180988E-2,2.35175E-3],"categories":[],"categories_nodes":[],"categories_segments":[],"categories_sizes":[],"default_left":[0,0,0,0,0,0,0,0,0,0,0,0,0,0,0],"id":23,"left_children":[1,3,5,7,9,11,13,-1,-1,-1,-1,-1,-1,-1,-1],"loss_changes":[3.816022E0,5.9559116E0,5.032779E0,4.256048E0,9.462056E-1,1.1790583E1,1.4072455E1,0E0,0E0,0E0,0E0,0E0,0E0,0E0,0E0],"parents":[2147483647,0,0,1,1,2,2,3,3,4,4,5,5,6,6],"right_children":[2,4,6,8,10,12,14,-1,-1,-1,-1,-1,-1,-1,-1],"split_conditions":[-2.4131672E0,2.3E1,4E0,1E0,-4.0265803E0,5.635E-4,8E0,-6.336087E-2,-1.1763881E-2,1.4803255E-2,1.00805104E-1,2.1044515E-2,-6.266492E-3,-1.4180988E-2,2.35175E-3],"split_indices":[0,2,2,2,0,1,2,0,0,0,0,0,0,0,0],"split_type":[0,0,0,0,0,0,0,0,0,0,0,0,0,0,0],"sum_hessian":[4.1066074E3,2.0782043E2,3.8987869E3,2.015807E2,6.239739E0,6.3754047E2,3.2612463E3,1.6609207E1,1.849715E2,2.2489285E0,3.9908104E0,3.518143E2,2.857262E2,6.396117E2,2.6216348E3],"tree_param":{"num_deleted":"0","num_feature":"4","num_nodes":"15","size_leaf_vector":"1"}},{"base_weights":[-7.9628655E-5,5.9998933E-2,-1.4913993E-2,-3.2047212E-1,8.8703565E-2,-4.436258E-2,4.2756345E-2,-6.0208615E-2,1.14682615E-2,1.5152878E-2,-1.2404571E-2,1.6845342E-3,-1.4401141E-2,-4.1399515E-5,1.8889228E-2],"categories":[],"categories_nodes":[],"categories_segments":[],"categories_sizes":[],"default_left":[0,0,0,0,0,0,0,0,0,0,0,0,0,0,0],"id":24,"left_children":[1,3,5,7,9,11,13,-1,-1,-1,-1,-1,-1,-1,-1],"loss_changes":[3.6610081E0,8.912213E0,5.596783E0,7.0886326E0,1.0138966E1,1.3306725E1,7.028655E0,0E0,0E0,0E0,0E0,0E0,0E0,0E0,0E0],"parents":[2147483647,0,0,1,1,2,2,3,3,4,4,5,5,6,6],"right_children":[2,4,6,8,10,12,14,-1,-1,-1,-1,-1,-1,-1,-1],"split_conditions":[1E0,4.28E-4,8.96E-4,2.2E1,1.068E-3,1.2E1,4E0,-6.0208615E-2,1.14682615E-2,1.5152878E-2,-1.2404571E-2,1.6845342E-3,-1.4401141E-2,-4.1399515E-5,1.8889228E-2],"split_indices":[3,1,1,2,1,2,3,0,0,0,0,0,0,0,0],"split_type":[0,0,0,0,0,0,0,0,0,0,0,0,0,0,0],"sum_hessian":[4.105823E3,8.1243805E2,3.2933853E3,5.6281364E1,7.561567E2,2.1802834E3,1.1131018E3,3.393587E1,2.2345495E1,5.8399097E2,1.7216573E2,1.3511742E3,8.291092E2,8.600343E2,2.5306747E2],"tree_param":{"num_deleted":"0","num_feature":"4","num_nodes":"15","size_leaf_vector":"1"}},{"base_weights":[-8.425511E-5,-4.8113607E-2,1.7566456E-2,5.629255E-2,-9.518532E-2,-5.209486E-1,2.1636985E-2,-1.0736901E-2,1.3742189E-2,-2.0558694E-2,3.1566338E-3,-3.4482848E-2,-1.2095316E-1,3.5578664E-2,1.5871016E-3],"categories":[],"categories_nodes":[],"categories_segments":[],"categories_sizes":[],"default_left":[0,0,0,0,0,0,0,0,0,0,0,0,0,0,0],"id":25,"left_children":[1,3,5,7,9,11,13,-1,-1,-1,-1,-1,-1,-1,-1],"loss_changes":[3.4813728E0,5.4290643E0,6.593973E0,4.5766006E0,1.0655965E1,2.3198981E0,5.7386665E0,0E0,0E0,0E0,0E0,0E0,0E0,0E0,0E0],"parents":[2147483647,0,0,1,1,2,2,3,3,4,4,5,5,6,6],"right_children":[2,4,6,8,10,12,14,-1,-1,-1,-1,-1,-1,-1,-1],"split_conditions":[-9.568535E-1,5.78E-4,2.935E-4,2E0,1.4E1,2.1910195E0,3.245E-4,-1.0736901E-2,1.3742189E-2,-2.0558694E-2,3.1566338E-3,-3.4482848E-2,-1.2095316E-1,3.5578664E-2,1.5871016E-3],"split_indices":[0,1,1,3,2,0,1,0,0,0,0,0,0,0,0],"split_type":[0,0,0,0,0,0,0,0,0,0,0,0,0,0,0],"sum_hessian":[4.1045957E3,1.102596E3,3.002E3,3.4257056E2,7.600254E2,2.1568678E1,2.9804312E3,1.1342858E2,2.2914197E2,4.0587946E2,3.5414594E2,1.8370739E1,3.197938E0,4.9527153E1,2.930904E3],"tree_param":{"num_deleted":"0","num_feature":"4","num_nodes":"15","size_leaf_vector":"1"}},{"base_weights":[-1.10883426E-4,6.2305885E-3,-1.2805288E-1,1.2954E-3,2.3951024E-1,-1.9978982E-1,1.1007831E-1,2.4158189E-3,-4.249386E-3,6.5788426E-3,6.9285214E-2,-3.1349414E-3,-4.2224362E-2,-1.146448E-1,2.0952674E-2],"categories":[],"categories_nodes":[],"categories_segments":[],"categories_sizes":[],"default_left":[0,0,0,0,0,0,0,0,0,0,0,0,0,0,0],"id":26,"left_children":[1,3,5,7,9,11,13,-1,-1,-1,-1,-1,-1,-1,-1],"loss_changes":[3.3311114E0,4.5032816E0,3.3341625E0,3.8371913E0,6.3365316E0,5.5832195E0,5.9298253E0,0E0,0E0,0E0,0E0,0E0,0E0,0E0,0E0],"parents":[2147483647,0,0,1,1,2,2,3,3,4,4,5,5,6,6],"right_children":[2,4,6,8,10,12,14,-1,-1,-1,-1,-1,-1,-1,-1],"split_conditions":[2.593289E0,2.316914E0,9.46E-4,1.6E1,9.55E-4,6.6E-4,1E0,2.4158189E-3,-4.249386E-3,6.5788426E-3,6.9285214E-2,-3.1349414E-3,-4.2224362E-2,-1.146448E-1,2.0952674E-2],"split_indices":[0,0,1,2,1,1,2,0,0,0,0,0,0,0,0],"split_type":[0,0,0,0,0,0,0,0,0,0,0,0,0,0,0],"sum_hessian":[4.103705E3,3.9108162E3,1.9288913E2,3.830779E3,8.003716E1,1.483575E2,4.4531643E1,2.517051E3,1.3137279E3,5.8691536E1,2.134563E1,8.507798E1,6.327951E1,2.493853E0,4.203779E1],"tree_param":{"num_deleted":"0","num_feature":"4","num_nodes":"15","size_leaf_vector":"1"}},{"base_weights":[-1.1603432E-4,5.5985305E-2,-1.3971968E-2,-2.8369346E-1,8.150185E-2,-4.040986E-2,3.8606722E-2,8.743674E-2,-3.754556E-2,1.3889057E-2,-1.1294318E-2,1.0839134E-3,-1.4335378E-2,6.4970846E-3,-1.8856728E-2],"categories":[],"categories_nodes":[],"categories_segments":[],"categories_sizes":[],"default_left":[0,0,0,0,0,0,0,0,0,0,0,0,0,0,0],"id":27,"left_children":[1,3,5,7,9,11,13,-1,-1,-1,-1,-1,-1,-1,-1],"loss_changes":[3.1909733E0,7.0701756E0,4.5776043E0,6.3888335E0,8.463215E0,1.156076E1,6.6121254E0,0E0,0E0,0E0,0E0,0E0,0E0,0E0,0E0],"parents":[2147483647,0,0,1,1,2,2,3,3,4,4,5,5,6,6],"right_children":[2,4,6,8,10,12,14,-1,-1,-1,-1,-1,-1,-1,-1],"split_conditions":[1E0,4.28E-4,8.995E-4,-1.835932E0,1.068E-3,6.965E-4,2E1,8.743674E-2,-3.754556E-2,1.3889057E-2,-1.1294318E-2,1.0839134E-3,-1.4335378E-2,6.4970846E-3,-1.8856728E-2],"split_indices":[3,1,1,0,1,1,2,0,0,0,0,0,0,0,0],"split_type":[0,0,0,0,0,0,0,0,0,0,0,0,0,0,0],"sum_hessian":[4.103003E3,8.120501E2,3.290953E3,5.603177E1,7.560183E2,2.189998E3,1.1009548E3,3.4876862E0,5.254408E1,5.8395496E2,1.7206335E2,1.4627072E3,7.272909E2,9.87112E2,1.1384286E2],"tree_param":{"num_deleted":"0","num_feature":"4","num_nodes":"15","size_leaf_vector":"1"}},{"base_weights":[-1.007976E-4,-3.987863E-2,1.9821988E-2,-1.1635314E-3,-2.5158358E-1,1.6090387E-1,-1.2939447E-2,7.27364E-3,-1.2452125E-2,-5.5414695E-2,-8.0432175E-3,-5.5336136E-2,1.9189818E-2,-7.0334226E-3,4.8941826E-3],"categories":[],"categories_nodes":[],"categories_segments":[],"categories_sizes":[],"default_left":[0,0,0,0,0,0,0,0,0,0,0,0,0,0,0],"id":28,"left_children":[1,3,5,7,9,11,13,-1,-1,-1,-1,-1,-1,-1,-1],"loss_changes":[3.2521408E0,1.1224038E1,1.2639989E1,1.057232E1,1.0918892E1,1.1515256E1,7.887812E0,0E0,0E0,0E0,0E0,0E0,0E0,0E0,0E0],"parents":[2147483647,0,0,1,1,2,2,3,3,4,4,5,5,6,6],"right_children":[2,4,6,8,10,12,14,-1,-1,-1,-1,-1,-1,-1,-1],"split_conditions":[8E0,8.4E-4,1.1E1,5E0,9.315E-4,-2.4758968E0,8.96E-4,7.27364E-3,-1.2452125E-2,-5.5414695E-2,-8.0432175E-3,-5.5336136E-2,1.9189818E-2,-7.0334226E-3,4.8941826E-3],"split_indices":[2,1,2,2,1,0,1,0,0,0,0,0,0,0,0],"split_type":[0,0,0,0,0,0,0,0,0,0,0,0,0,0,0],"sum_hessian":[4.1017266E3,1.3684594E3,2.7332673E3,1.1577446E3,2.1071465E2,5.1435754E2,2.21891E3,7.242678E2,4.3347687E2,7.532192E1,1.3539273E2,2.0690496E1,4.9366705E2,1.1511155E3,1.0677943E3],"tree_param":{"num_deleted":"0","num_feature":"4","num_nodes":"15","size_leaf_vector":"1"}},{"base_weights":[-1.1939573E-4,-3.0950462E-2,2.3398627E-2,3.7799384E-2,-8.3215296E-2,-4.632221E-2,5.8841456E-2,5.347046E-3,-4.4927992E-2,-1.8897621E-2,1.6462384E-3,3.855175E-3,-1.9669725E-2,4.3717008E-2,3.223427E-3],"categories":[],"categories_nodes":[],"categories_segments":[],"categories_sizes":[],"default_left":[0,0,0,0,0,0,0,0,0,0,0,0,0,0,0],"id":29,"left_children":[1,3,5,7,9,11,13,-1,-1,-1,-1,-1,-1,-1,-1],"loss_changes":[2.9744117E0,6.3813896E0,5.753145E0,5.881076E0,1.0637466E1,1.0024432E1,1.552042E1,0E0,0E0,0E0,0E0,0E0,0E0,0E0,0E0],"parents":[2147483647,0,0,1,1,2,2,3,3,4,4,5,5,6,6],"right_children":[2,4,6,8,10,12,14,-1,-1,-1,-1,-1,-1,-1,-1],"split_conditions":[-2.3868981E-1,6.925E-4,6.085E-4,6E0,1.4E1,5.16E-4,6.455E-4,5.347046E-3,-4.4927992E-2,-1.8897621E-2,1.6462384E-3,3.855175E-3,-1.9669725E-2,4.3717008E-2,3.223427E-3],"split_indices":[0,1,1,3,2,1,1,0,0,0,0,0,0,0,0],"split_type":[0,0,0,0,0,0,0,0,0,0,0,0,0,0,0],"sum_hessian":[4.1001533E3,1.7740879E3,2.3260652E3,7.6632745E2,1.00776044E3,7.838397E2,1.5422256E3,7.433029E2,2.3024479E1,4.8852518E2,5.192352E2,5.015186E2,2.823211E2,1.0032138E2,1.4419042E3],"tree_param":{"num_deleted":"0","num_feature":"4","num_nodes":"15","size_leaf_vector":"1"}},{"base_weights":[-1.1622488E-4,-1.8421076E-3,4.098127E-1,4.0732455E-3,-1.2098308E-1,7.098016E-1,-3.3957157E-1,5.8319823E-5,2.759171E-2,-1.0415236E-1,-1.0577495E-2,-2.8491179E-2,1.1035357E-1,1.9170593E-2,-6.785107E-2],"categories":[],"categories_nodes":[],"categories_segments":[],"categories_sizes":[],"default_left":[0,0,0,0,0,0,0,0,0,0,0,0,0,0,0],"id":30,"left_children":[1,3,5,7,9,11,13,-1,-1,-1,-1,-1,-1,-1,-1],"loss_changes":[2.9018133E0,2.8789492E0,4.1068115E0,3.6924381E0,2.5949428E0,5.250684E0,1.1370847E0,0E0,0E0,0E0,0E0,0E0,0E0,0E0,0E0],"parents":[2147483647,0,0,1,1,2,2,3,3,4,4,5,5,6,6],"right_children":[2,4,6,8,10,12,14,-1,-1,-1,-1,-1,-1,-1,-1],"split_conditions":[2.919E-3,2.593289E0,1.7E1,2.409014E0,2.935E-4,1.2E1,-1.1935204E0,5.8319823E-5,2.759171E-2,-1.0415236E-1,-1.0577495E-2,-2.8491179E-2,1.1035357E-1,1.9170593E-2,-6.785107E-2],"split_indices":[1,0,2,0,1,2,0,0,0,0,0,0,0,0,0],"split_type":[0,0,0,0,0,0,0,0,0,0,0,0,0,0,0],"sum_hessian":[4.099498E3,4.083302E3,1.6196012E1,3.891076E3,1.9222624E2,1.1603707E1,4.5923047E0,3.8427432E3,4.833263E1,2.0273464E0,1.901989E2,3.3689404E0,8.234767E0,1.9578398E0,2.6344647E0],"tree_param":{"num_deleted":"0","num_feature":"4","num_nodes":"15","size_leaf_vector":"1"}},{"base_weights":[-1.1657712E-4,-8.193175E-2,7.934364E-3,-1.0443498E-1,6.7786425E-1,3.1495832E-3,2.031458E-1,-8.105344E-3,-6.0210504E-2,8.7860875E-2,1.63706E-2,8.784697E-4,-2.1698603E-2,4.2026732E-2,-1.8235149E-2],"categories":[],"categories_nodes":[],"categories_segments":[],"categories_sizes":[],"default_left":[0,0,0,0,0,0,0,0,0,0,0,0,0,0,0],"id":31,"left_children":[1,3,5,7,9,11,13,-1,-1,-1,-1,-1,-1,-1,-1],"loss_changes":[2.701384E0,6.3528004E0,3.4868474E0,4.1136427E0,9.6080494E-1,4.524034E0,7.552015E0,0E0,0E0,0E0,0E0,0E0,0E0,0E0,0E0],"parents":[2147483647,0,0,1,1,2,2,3,3,4,4,5,5,6,6],"right_children":[2,4,6,8,10,12,14,-1,-1,-1,-1,-1,-1,-1,-1],"split_conditions":[-1.98151E0,2.3E1,1.9995E-3,2.1E1,4.89E-4,1.6505E-3,1.7E1,-8.105344E-3,-6.0210504E-2,8.7860875E-2,1.63706E-2,8.784697E-4,-2.1698603E-2,4.2026732E-2,-1.8235149E-2],"split_indices":[0,2,1,2,1,1,2,0,0,0,0,0,0,0,0],"split_type":[0,0,0,0,0,0,0,0,0,0,0,0,0,0,0],"sum_hessian":[4.099165E3,3.664146E2,3.7327505E3,3.5671225E2,9.702367E0,3.6444387E3,8.831183E1,3.4181592E2,1.4896337E1,6.4681544E0,3.2342124E0,3.5544116E3,9.002707E1,5.6435677E1,3.1876152E1],"tree_param":{"num_deleted":"0","num_feature":"4","num_nodes":"15","size_leaf_vector":"1"}},{"base_weights":[-9.536034E-5,-3.6287636E-2,1.803014E-2,-2.0767443E-3,-2.238258E-1,1.4762585E-1,-1.2057674E-2,6.456961E-3,-1.133361E-2,-5.1285278E-2,-7.7661923E-3,2.2263957E-2,-1.4594187E-2,-6.3671744E-3,4.357116E-3],"categories":[],"categories_nodes":[],"categories_segments":[],"categories_sizes":[],"default_left":[0,0,0,0,0,0,0,0,0,0,0,0,0,0,0],"id":32,"left_children":[1,3,5,7,9,11,13,-1,-1,-1,-1,-1,-1,-1,-1],"loss_changes":[2.6898913E0,8.778245E0,1.065509E1,8.595397E0,8.877573E0,1.1370756E1,6.3719444E0,0E0,0E0,0E0,0E0,0E0,0E0,0E0,0E0],"parents":[2147483647,0,0,1,1,2,2,3,3,4,4,5,5,6,6],"right_children":[2,4,6,8,10,12,14,-1,-1,-1,-1,-1,-1,-1,-1],"split_conditions":[8E0,8.4E-4,1.1E1,5E0,9.205E-4,4E0,8.96E-4,6.456961E-3,-1.133361E-2,-5.1285278E-2,-7.7661923E-3,2.2263957E-2,-1.4594187E-2,-6.3671744E-3,4.357116E-3],"split_indices":[2,1,2,2,1,3,1,0,0,0,0,0,0,0,0],"split_type":[0,0,0,0,0,0,0,0,0,0,0,0,0,0,0],"sum_hessian":[4.0984272E3,1.367285E3,2.731142E3,1.1571989E3,2.1008624E2,5.1386993E2,2.2172722E3,7.239559E2,4.3324292E2,6.971729E1,1.4036896E2,4.0947952E2,1.04390434E2,1.1500642E3,1.0672081E3],"tree_param":{"num_deleted":"0","num_feature":"4","num_nodes":"15","size_leaf_vector":"1"}},{"base_weights":[-1.0219002E-4,5.0670654E-2,-1.2650629E-2,-2.637995E-1,7.2243325E-2,8.4923424E-2,-2.460208E-2,-5.7534363E-2,1.7558012E-2,1.2500929E-2,-1.0788119E-2,-3.6018737E-2,2.2149157E-2,-1.0765916E-2,7.4532203E-4],"categories":[],"categories_nodes":[],"categories_segments":[],"categories_sizes":[],"default_left":[0,0,0,0,0,0,0,0,0,0,0,0,0,0,0],"id":33,"left_children":[1,3,5,7,9,11,13,-1,-1,-1,-1,-1,-1,-1,-1],"loss_changes":[2.6114066E0,5.529378E0,3.8346522E0,7.2682123E0,7.2454004E0,2.1893461E1,7.798112E0,0E0,0E0,0E0,0E0,0E0,0E0,0E0,0E0],"parents":[2147483647,0,0,1,1,2,2,3,3,4,4,5,5,6,6],"right_children":[2,4,6,8,10,12,14,-1,-1,-1,-1,-1,-1,-1,-1],"split_conditions":[1E0,4.25E-4,4.155E-4,2.2E1,1.068E-3,2E0,8E0,-5.7534363E-2,1.7558012E-2,1.2500929E-2,-1.0788119E-2,-3.6018737E-2,2.2149157E-2,-1.0765916E-2,7.4532203E-4],"split_indices":[3,1,1,2,1,3,2,0,0,0,0,0,0,0,0],"split_type":[0,0,0,0,0,0,0,0,0,0,0,0,0,0,0],"sum_hessian":[4.096761E3,8.112571E2,3.2855044E3,5.1358803E1,7.5989825E2,3.5784882E2,2.9276555E3,2.986994E1,2.1488863E1,5.8796484E2,1.7193338E2,8.363227E1,2.7421655E2,8.146064E2,2.113049E3],"tree_param":{"num_deleted":"0","num_feature":"4","num_nodes":"15","size_leaf_vector":"1"}},{"base_weights":[-1.08279375E-4,-4.0691786E-2,1.479545E-2,-3.0900057E-2,-4.6479362E-1,-4.6757895E-1,1.8384969E-2,-8.194372E-3,6.240321E-3,-6.877196E-2,9.592753E-2,6.4956634E-3,-6.448283E-2,3.0867312E-2,1.3410216E-3],"categories":[],"categories_nodes":[],"categories_segments":[],"categories_sizes":[],"default_left":[0,0,0,0,0,0,0,0,0,0,0,0,0,0,0],"id":34,"left_children":[1,3,5,7,9,11,13,-1,-1,-1,-1,-1,-1,-1,-1],"loss_changes":[2.4786975E0,4.5566254E0,5.198468E0,5.1341796E0,8.522949E0,2.135243E0,4.293773E0,0E0,0E0,0E0,0E0,0E0,0E0,0E0,0E0],"parents":[2147483647,0,0,1,1,2,2,3,3,4,4,5,5,6,6],"right_children":[2,4,6,8,10,12,14,-1,-1,-1,-1,-1,-1,-1,-1],"split_conditions":[-9.568535E-1,6E0,2.935E-4,1.4E1,1.021E-3,-2.0346122E-3,3.245E-4,-8.194372E-3,6.240321E-3,-6.877196E-2,9.592753E-2,6.4956634E-3,-6.448283E-2,3.0867312E-2,1.3410216E-3],"split_indices":[0,3,1,2,1,0,1,0,0,0,0,0,0,0,0],"split_type":[0,0,0,0,0,0,0,0,0,0,0,0,0,0,0],"sum_hessian":[4.096071E3,1.0997292E3,2.9963413E3,1.0759602E3,2.3769073E1,2.1177364E1,2.975164E3,6.955601E2,3.8040015E2,2.0998941E1,2.7701325E0,5.446674E0,1.573069E1,4.909863E1,2.9260654E3],"tree_param":{"num_deleted":"0","num_feature":"4","num_nodes":"15","size_leaf_vector":"1"}},{"base_weights":[-1.0203191E-4,5.257393E-3,-1.0843631E-1,2.6629422E-2,-3.610831E-2,-1.4175002E-1,3.2604086E-1,5.659945E-3,-9.318328E-3,-7.4850745E-3,8.234937E-3,1.8336168E-2,-1.9714845E-2,7.3258184E-2,-2.7249444E-2],"categories":[],"categories_nodes":[],"categories_segments":[],"categories_sizes":[],"default_left":[0,0,0,0,0,0,0,0,0,0,0,0,0,0,0],"id":35,"left_children":[1,3,5,7,9,11,13,-1,-1,-1,-1,-1,-1,-1,-1],"loss_changes":[2.3789532E0,3.4525542E0,2.841807E0,9.250809E0,6.1119137E0,3.2796412E0,3.620306E0,0E0,0E0,0E0,0E0,0E0,0E0,0E0,0E0],"parents":[2147483647,0,0,1,1,2,2,3,3,4,4,5,5,6,6],"right_children":[2,4,6,8,10,12,14,-1,-1,-1,-1,-1,-1,-1,-1],"split_conditions":[2.593289E0,1.6E1,1.2875E-3,4E0,2.2E1,2E0,3E0,5.659945E-3,-9.318328E-3,-7.4850745E-3,8.234937E-3,1.8336168E-2,-1.9714845E-2,7.3258184E-2,-2.7249444E-2],"split_indices":[0,2,1,3,2,2,3,0,0,0,0,0,0,0,0],"split_type":[0,0,0,0,0,0,0,0,0,0,0,0,0,0,0],"sum_hessian":[4.0953567E3,3.9032117E3,1.9214503E2,2.5737915E3,1.3294203E3,1.7908719E2,1.30578375E1,2.0592236E3,5.145679E2,1.0020581E3,3.2736218E2,2.5736996E1,1.533502E2,7.642733E0,5.4151044E0],"tree_param":{"num_deleted":"0","num_feature":"4","num_nodes":"15","size_leaf_vector":"1"}},{"base_weights":[-8.2371764E-5,-1.5635224E-3,3.5728398E-1,2.5510957E-2,-2.3491634E-2,7.1501297E-1,-1.8921138E-1,-1.9700907E-3,1.5680548E-2,-8.993707E-3,1.8882413E-3,-1.4590651E-2,1.3422164E-1,-8.040612E-2,9.42692E-3],"categories":[],"categories_nodes":[],"categories_segments":[],"categories_sizes":[],"default_left":[0,0,0,0,0,0,0,0,0,0,0,0,0,0,0],"id":36,"left_children":[1,3,5,7,9,11,13,-1,-1,-1,-1,-1,-1,-1,-1],"loss_changes":[2.1683915E0,2.4226546E0,3.4409227E0,1.0842803E1,6.3495836E0,5.827002E0,1.379586E0,0E0,0E0,0E0,0E0,0E0,0E0,0E0,0E0],"parents":[2147483647,0,0,1,1,2,2,3,3,4,4,5,5,6,6],"right_children":[2,4,6,8,10,12,14,-1,-1,-1,-1,-1,-1,-1,-1],"split_conditions":[2.919E-3,7.035E-4,1.6E1,6.085E-4,8.96E-4,1.3E1,-1.6196307E0,-1.9700907E-3,1.5680548E-2,-8.993707E-3,1.8882413E-3,-1.4590651E-2,1.3422164E-1,-8.040612E-2,9.42692E-3],"split_indices":[1,1,2,1,1,2,0,0,0,0,0,0,0,0,0],"split_type":[0,0,0,0,0,0,0,0,0,0,0,0,0,0,0],"sum_hessian":[4.0945566E3,4.078648E3,1.5908854E1,1.8250762E3,2.2535715E3,9.42863E0,6.480223E0,1.3582177E3,4.6685852E2,8.770984E2,1.3764733E3,4.297337E0,5.1312933E0,1.4654261E0,5.0147967E0],"tree_param":{"num_deleted":"0","num_feature":"4","num_nodes":"15","size_leaf_vector":"1"}},{"base_weights":[-5.873594E-5,-2.6432667E-2,2.0051433E-2,3.5224956E-2,-7.335142E-2,-4.80949E-1,2.393923E-2,4.820385E-3,-3.7376057E-2,-1.6613519E-2,1.3914652E-3,4.6490762E-2,-5.935179E-2,8.9907935E-3,-3.8992846E-4],"categories":[],"categories_nodes":[],"categories_segments":[],"categories_sizes":[],"default_left":[0,0,0,0,0,0,0,0,0,0,0,0,0,0,0],"id":37,"left_children":[1,3,5,7,9,11,13,-1,-1,-1,-1,-1,-1,-1,-1],"loss_changes":[2.1723983E0,5.1287556E0,4.538001E0,4.0861907E0,8.152521E0,2.186315E0,4.2370324E0,0E0,0E0,0E0,0E0,0E0,0E0,0E0,0E0],"parents":[2147483647,0,0,1,1,2,2,3,3,4,4,5,5,6,6],"right_children":[2,4,6,8,10,12,14,-1,-1,-1,-1,-1,-1,-1,-1],"split_conditions":[-2.3868981E-1,6.925E-4,2.935E-4,6E0,1.4E1,-2.0346122E-3,5.443309E-1,4.820385E-3,-3.7376057E-2,-1.6613519E-2,1.3914652E-3,4.6490762E-2,-5.935179E-2,8.9907935E-3,-3.8992846E-4],"split_indices":[0,1,1,3,2,0,0,0,0,0,0,0,0,0,0],"split_type":[0,0,0,0,0,0,0,0,0,0,0,0,0,0,0],"sum_hessian":[4.093896E3,1.7709844E3,2.3229116E3,7.6539734E2,1.005587E3,1.6942259E1,2.3059692E3,7.427101E2,2.2687286E1,4.869472E2,5.1863983E2,1.4690051E0,1.5473254E1,6.8366473E2,1.6223046E3],"tree_param":{"num_deleted":"0","num_feature":"4","num_nodes":"15","size_leaf_vector":"1"}},{"base_weights":[-6.946117E-5,-2.0663267E-1,2.4386242E-3,3.7660513E-2,-4.1687968E-1,1.8730512E-2,-3.0012498E-2,-3.392188E-2,7.228087E-2,-9.2827275E-2,1.0727795E-2,4.1773132E-4,1.7936977E-2,-6.276277E-3,9.881649E-3],"categories":[],"categories_nodes":[],"categories_segments":[],"categories_sizes":[],"default_left":[0,0,0,0,0,0,0,0,0,0,0,0,0,0,0],"id":38,"left_children":[1,3,5,7,9,11,13,-1,-1,-1,-1,-1,-1,-1,-1],"loss_changes":[2.1215289E0,2.5388477E0,2.139589E0,6.349415E0,7.198924E0,6.29782E0,5.713442E0,0E0,0E0,0E0,0E0,0E0,0E0,0E0,0E0],"parents":[2147483647,0,0,1,1,2,2,3,3,4,4,5,5,6,6],"right_children":[2,4,6,8,10,12,14,-1,-1,-1,-1,-1,-1,-1,-1],"split_conditions":[-3.6057844E0,5.33E-4,1.6E1,7E0,1.3E1,1.335E-3,4E0,-3.392188E-2,7.228087E-2,-9.2827275E-2,1.0727795E-2,4.1773132E-4,1.7936977E-2,-6.276277E-3,9.881649E-3],"split_indices":[0,1,2,2,2,1,3,0,0,0,0,0,0,0,0],"split_type":[0,0,0,0,0,0,0,0,0,0,0,0,0,0,0],"sum_hessian":[4.093025E3,4.812488E1,4.0449E3,2.2639801E1,2.5485083E1,2.6932122E3,1.3516879E3,1.4931391E1,7.70841E0,1.2509369E1,1.2975714E1,2.4704285E3,2.2278375E2,1.0781251E3,2.7356284E2],"tree_param":{"num_deleted":"0","num_feature":"4","num_nodes":"15","size_leaf_vector":"1"}},{"base_weights":[-6.9711175E-5,-4.7982302E-3,1.07430324E-1,7.7658836E-3,-8.9073226E-2,1.4925617E-1,-6.6830117E-1,-6.519453E-2,9.276622E-4,6.453314E-3,-1.8956674E-2,2.2356136E-2,-2.5353855E-2,-1.4295562E-1,6.6544525E-2],"categories":[],"categories_nodes":[],"categories_segments":[],"categories_sizes":[],"default_left":[0,0,0,0,0,0,0,0,0,0,0,0,0,0,0],"id":39,"left_children":[1,3,5,7,9,11,13,-1,-1,-1,-1,-1,-1,-1,-1],"loss_changes":[2.081199E0,4.153235E0,5.6967807E0,3.4084973E0,7.867849E0,4.9800377E0,1.0097137E1,0E0,0E0,0E0,0E0,0E0,0E0,0E0,0E0],"parents":[2147483647,0,0,1,1,2,2,3,3,4,4,5,5,6,6],"right_children":[2,4,6,8,10,12,14,-1,-1,-1,-1,-1,-1,-1,-1],"split_conditions":[2.3E1,2E1,1.156E-3,2.69E-4,2E0,1.7998486E0,4E0,-6.519453E-2,9.276622E-4,6.453314E-3,-1.8956674E-2,2.2356136E-2,-2.5353855E-2,-1.4295562E-1,6.6544525E-2],"split_indices":[2,2,1,1,3,0,3,0,0,0,0,0,0,0,0],"split_type":[0,0,0,0,0,0,0,0,0,0,0,0,0,0,0],"sum_hessian":[4.0922876E3,3.9207827E3,1.71505E2,3.412882E3,5.079007E2,1.6349716E2,8.007837E0,6.813957E0,3.406068E3,2.0101025E2,3.0689044E2,1.3840923E2,2.5087938E1,5.0523186E0,2.9555182E0],"tree_param":{"num_deleted":"0","num_feature":"4","num_nodes":"15","size_leaf_vector":"1"}},{"base_weights":[-1.0634995E-4,-3.1330377E-2,1.5525006E-2,4.0510584E-2,-1.02951705E-1,1.296568E-1,-1.0969218E-2,-6.1489083E-3,1.8920429E-2,1.2643862E-2,-1.5984623E-2,-5.0569613E-2,1.5722455E-2,-5.54819E-3,3.6935636E-3],"categories":[],"categories_nodes":[],"categories_segments":[],"categories_sizes":[],"default_left":[0,0,0,0,0,0,0,0,0,0,0,0,0,0,0],"id":40,"left_children":[1,3,5,7,9,11,13,-1,-1,-1,-1,-1,-1,-1,-1],"loss_changes":[1.9979025E0,7.030686E0,8.249956E0,1.036254E1,8.948838E0,9.082494E0,4.7248964E0,0E0,0E0,0E0,0E0,0E0,0E0,0E0,0E0],"parents":[2147483647,0,0,1,1,2,2,3,3,4,4,5,5,6,6],"right_children":[2,4,6,8,10,12,14,-1,-1,-1,-1,-1,-1,-1,-1],"split_conditions":[8E0,4E0,1.1E1,3E0,1E0,-2.4758968E0,8.96E-4,-6.1489083E-3,1.8920429E-2,1.2643862E-2,-1.5984623E-2,-5.0569613E-2,1.5722455E-2,-5.54819E-3,3.6935636E-3],"split_indices":[2,2,2,3,3,0,1,0,0,0,0,0,0,0,0],"split_type":[0,0,0,0,0,0,0,0,0,0,0,0,0,0,0],"sum_hessian":[4.091446E3,1.3646062E3,2.7268398E3,6.814754E2,6.831308E2,5.130085E2,2.2138313E3,4.045512E2,2.769242E2,1.3551839E2,5.476124E2,2.061236E1,4.9239612E2,1.1474629E3,1.0663685E3],"tree_param":{"num_deleted":"0","num_feature":"4","num_nodes":"15","size_leaf_vector":"1"}},{"base_weights":[-1.0310063E-4,4.644079E-3,-9.61949E-2,6.3285313E-4,1.946381E-1,-1.5446685E-1,1.0324276E-1,-4.647249E-4,1.2146173E-2,4.34849E-3,5.930155E-2,1.0059435E-2,-2.8489405E-2,8.7225206E-2,-9.181328E-3],"categories":[],"categories_nodes":[],"categories_segments":[],"categories_sizes":[],"default_left":[0,0,0,0,0,0,0,0,0,0,0,0,0,0,0],"id":41,"left_children":[1,3,5,7,9,11,13,-1,-1,-1,-1,-1,-1,-1,-1],"loss_changes":[1.8665708E0,2.971541E0,2.25465E0,2.4374564E0,4.828671E0,5.0012674E0,6.7035465E0,0E0,0E0,0E0,0E0,0E0,0E0,0E0,0E0],"parents":[2147483647,0,0,1,1,2,2,3,3,4,4,5,5,6,6],"right_children":[2,4,6,8,10,12,14,-1,-1,-1,-1,-1,-1,-1,-1],"split_conditions":[2.593289E0,2.316914E0,1.5E1,2.3E1,9.55E-4,5.58E-4,1E0,-4.647249E-4,1.2146173E-2,4.34849E-3,5.930155E-2,1.0059435E-2,-2.8489405E-2,8.7225206E-2,-9.181328E-3],"split_indices":[0,0,2,2,1,1,3,0,0,0,0,0,0,0,0],"split_type":[0,0,0,0,0,0,0,0,0,0,0,0,0,0,0],"sum_hessian":[4.0898967E3,3.8982642E3,1.9163252E2,3.8186467E3,7.961739E1,1.4847607E2,4.315644E1,3.6596836E3,1.58963E2,5.8522003E1,2.109539E1,5.031319E1,9.816288E1,8.029258E0,3.5127186E1],"tree_param":{"num_deleted":"0","num_feature":"4","num_nodes":"15","size_leaf_vector":"1"}},{"base_weights":[-5.9672446E-5,-3.414446E-2,1.2455214E-2,5.0840244E-2,-7.2574645E-2,3.0568004E-1,7.4349907E-3,3.5813467E-3,8.910089E-2,-3.0772692E-2,-3.057328E-3,2.0738354E-2,8.475445E-2,-3.8721696E-2,1.0353151E-3],"categories":[],"categories_nodes":[],"categories_segments":[],"categories_sizes":[],"default_left":[0,0,0,0,0,0,0,0,0,0,0,0,0,0,0],"id":42,"left_children":[1,3,5,7,9,11,13,-1,-1,-1,-1,-1,-1,-1,-1],"loss_changes":[1.7453483E0,3.5925093E0,4.4032407E0,4.2954335E0,7.4681625E0,2.506095E0,3.393815E0,0E0,0E0,0E0,0E0,0E0,0E0,0E0,0E0],"parents":[2147483647,0,0,1,1,2,2,3,3,4,4,5,5,6,6],"right_children":[2,4,6,8,10,12,14,-1,-1,-1,-1,-1,-1,-1,-1],"split_conditions":[-9.568535E-1,5.78E-4,-9.025289E-1,5.75E-4,7E0,2.1E1,2.935E-4,3.5813467E-3,8.910089E-2,-3.0772692E-2,-3.057328E-3,2.0738354E-2,8.475445E-2,-3.8721696E-2,1.0353151E-3],"split_indices":[0,1,0,1,2,2,1,0,0,0,0,0,0,0,0],"split_type":[0,0,0,0,0,0,0,0,0,0,0,0,0,0,0],"sum_hessian":[4.0896165E3,1.09785E3,2.9917664E3,3.4175916E2,7.560909E2,4.9350945E1,2.9424153E3,3.3677835E2,4.9807997E0,1.13623344E2,6.424675E2,4.2943527E1,6.407415E0,2.0630676E1,2.9217847E3],"tree_param":{"num_deleted":"0","num_feature":"4","num_nodes":"15","size_leaf_vector":"1"}},{"base_weights":[-2.639132E-5,-1.3260054E-3,3.1778038E-1,2.2223528E-2,-2.040905E-2,6.502213E-1,-1.7855048E-1,-1.983881E-3,1.4433808E-2,-1.3864565E-2,-2.669843E-4,-2.9178593E-2,1.1566003E-1,-7.616772E-2,9.019129E-3],"categories":[],"categories_nodes":[],"categories_segments":[],"categories_sizes":[],"default_left":[0,0,0,0,0,0,0,0,0,0,0,0,0,0,0],"id":43,"left_children":[1,3,5,7,9,11,13,-1,-1,-1,-1,-1,-1,-1,-1],"loss_changes":[1.6896118E0,1.8313544E0,2.8650928E0,9.372348E0,4.7209373E0,5.1996727E0,1.2389328E0,0E0,0E0,0E0,0E0,0E0,0E0,0E0,0E0],"parents":[2147483647,0,0,1,1,2,2,3,3,4,4,5,5,6,6],"right_children":[2,4,6,8,10,12,14,-1,-1,-1,-1,-1,-1,-1,-1],"split_conditions":[2.919E-3,7.035E-4,1.6E1,6.085E-4,6E0,1.2E1,-1.6196307E0,-1.983881E-3,1.4433808E-2,-1.3864565E-2,-2.669843E-4,-2.9178593E-2,1.1566003E-1,-7.616772E-2,9.019129E-3],"split_indices":[1,1,2,1,2,2,0,0,0,0,0,0,0,0,0],"split_type":[0,0,0,0,0,0,0,0,0,0,0,0,0,0,0],"sum_hessian":[4.0887903E3,4.07313E3,1.566051E1,1.8231263E3,2.2500034E3,9.1930065E0,6.467504E0,1.3566619E3,4.6646448E2,2.92643E2,1.9573605E3,3.362182E0,5.8308244E0,1.4616731E0,5.0058312E0],"tree_param":{"num_deleted":"0","num_feature":"4","num_nodes":"15","size_leaf_vector":"1"}},{"base_weights":[-1.7077084E-5,1.438866E-2,-2.8904365E-2,-4.5649E-3,1.4655434E-1,-5.709128E-2,8.139862E-2,2.9684363E-3,-1.3886124E-2,4.4910897E-2,1.7192679E-3,-9.7108306E-4,-2.1658503E-2,-1.15445636E-1,1.0654923E-2],"categories":[],"categories_nodes":[],"categories_segments":[],"categories_sizes":[],"default_left":[0,0,0,0,0,0,0,0,0,0,0,0,0,0,0],"id":44,"left_children":[1,3,5,7,9,11,13,-1,-1,-1,-1,-1,-1,-1,-1],"loss_changes":[1.7021669E0,6.8375545E0,4.2363205E0,1.0987592E1,1.33911295E1,8.194327E0,8.746208E0,0E0,0E0,0E0,0E0,0E0,0E0,0E0,0E0],"parents":[2147483647,0,0,1,1,2,2,3,3,4,4,5,5,6,6],"right_children":[2,4,6,8,10,12,14,-1,-1,-1,-1,-1,-1,-1,-1],"split_conditions":[1.6E1,1.4E1,4E0,4E0,-8.6831874E-1,1.149E-3,3.855E-4,2.9684363E-3,-1.3886124E-2,4.4910897E-2,1.7192679E-3,-9.7108306E-4,-2.1658503E-2,-1.15445636E-1,1.0654923E-2],"split_indices":[2,2,3,3,0,1,1,0,0,0,0,0,0,0,0],"split_type":[0,0,0,0,0,0,0,0,0,0,0,0,0,0,0],"sum_hessian":[4.0883447E3,2.7282844E3,1.3600602E3,2.386944E3,3.4134042E2,1.0836307E3,2.7642944E2,1.9025265E3,4.8441763E2,1.0149332E2,2.3984712E2,8.362644E2,2.473663E2,4.617792E0,2.7181165E2],"tree_param":{"num_deleted":"0","num_feature":"4","num_nodes":"15","size_leaf_vector":"1"}},{"base_weights":[-4.092683E-5,6.4068645E-2,-6.9625224E-3,-2.4232225E-1,2.0401473E-1,-3.9168048E-1,-2.0351054E-3,-4.6840973E-2,2.2853319E-2,-2.3271173E-2,2.5337651E-2,-3.958129E-3,-6.1349977E-2,3.6140631E-3,-2.804873E-3],"categories":[],"categories_nodes":[],"categories_segments":[],"categories_sizes":[],"default_left":[0,0,0,0,0,0,0,0,0,0,0,0,0,0,0],"id":45,"left_children":[1,3,5,7,9,11,13,-1,-1,-1,-1,-1,-1,-1,-1],"loss_changes":[1.8148383E0,1.7137894E1,6.9967194E0,1.3458048E1,5.968322E0,3.6211376E0,3.6214685E0,0E0,0E0,0E0,0E0,0E0,0E0,0E0,0E0],"parents":[2147483647,0,0,1,1,2,2,3,3,4,4,5,5,6,6],"right_children":[2,4,6,8,10,12,14,-1,-1,-1,-1,-1,-1,-1,-1],"split_conditions":[4.155E-4,2E0,4.25E-4,2.2E1,-2.0772398E0,-4.9594912E-1,2E0,-4.6840973E-2,2.2853319E-2,-2.3271173E-2,2.5337651E-2,-3.958129E-3,-6.1349977E-2,3.6140631E-3,-2.804873E-3],"split_indices":[1,3,1,2,0,0,3,0,0,0,0,0,0,0,0],"split_type":[0,0,0,0,0,0,0,0,0,0,0,0,0,0,0],"sum_hessian":[4.0878584E3,3.9753476E2,3.6903237E3,1.2441509E2,2.7311966E2,4.5674892E1,3.6446487E3,8.4058495E1,4.03566E1,2.7357832E1,2.4576183E2,1.8108797E1,2.7566097E1,1.4768865E3,2.1677622E3],"tree_param":{"num_deleted":"0","num_feature":"4","num_nodes":"15","size_leaf_vector":"1"}},{"base_weights":[-5.8499358E-5,-2.2362836E-2,1.955796E-2,2.439684E-2,-8.266934E-2,1.2325709E-2,3.6827436E-1,8.871406E-3,-1.0621593E-2,-2.4865648E-2,8.084262E-4,2.8881691E-3,-1.2445229E-2,-3.4606624E-2,4.7290754E-2],"categories":[],"categories_nodes":[],"categories_segments":[],"categories_sizes":[],"default_left":[0,0,0,0,0,0,0,0,0,0,0,0,0,0,0],"id":46,"left_children":[1,3,5,7,9,11,13,-1,-1,-1,-1,-1,-1,-1,-1],"loss_changes":[1.7891506E0,5.3979106E0,5.4825616E0,9.07016E0,1.2594271E1,4.8326697E0,3.4652033E0,0E0,0E0,0E0,0E0,0E0,0E0,0E0,0E0],"parents":[2147483647,0,0,1,1,2,2,3,3,4,4,5,5,6,6],"right_children":[2,4,6,8,10,12,14,-1,-1,-1,-1,-1,-1,-1,-1],"split_conditions":[-7.125631E-2,8.025E-4,1.9995E-3,1.2E1,1.3E1,1.213E-3,2E0,8.871406E-3,-1.0621593E-2,-2.4865648E-2,8.084262E-4,2.8881691E-3,-1.2445229E-2,-3.4606624E-2,4.7290754E-2],"split_indices":[0,1,1,2,2,1,2,0,0,0,0,0,0,0,0],"split_type":[0,0,0,0,0,0,0,0,0,0,0,0,0,0,0],"sum_hessian":[4.0871868E3,1.9124968E3,2.17469E3,1.0775757E3,8.349212E2,2.1315186E3,4.3171574E1,7.2224414E2,3.553315E2,2.9451578E2,5.404054E2,1.902075E3,2.2944353E2,5.220856E0,3.7950718E1],"tree_param":{"num_deleted":"0","num_feature":"4","num_nodes":"15","size_leaf_vector":"1"}},{"base_weights":[-5.871272E-5,-8.662451E-2,4.56103E-3,-2.7767459E-2,-4.3087193E-1,6.485989E-2,-7.2205537E-3,-1.6601993E-2,2.0056663E-2,-8.727979E-2,-9.272117E-3,-2.225171E-3,1.9363746E-2,-1.0097309E-2,1.5655741E-3],"categories":[],"categories_nodes":[],"categories_segments":[],"categories_sizes":[],"default_left":[0,0,0,0,0,0,0,0,0,0,0,0,0,0,0],"id":47,"left_children":[1,3,5,7,9,11,13,-1,-1,-1,-1,-1,-1,-1,-1],"loss_changes":[1.6349481E0,4.1846666E0,2.7577069E0,5.65082E0,4.4280915E0,7.1218925E0,6.96692E0,0E0,0E0,0E0,0E0,0E0,0E0,0E0,0E0],"parents":[2147483647,0,0,1,1,2,2,3,3,4,4,5,5,6,6],"right_children":[2,4,6,8,10,12,14,-1,-1,-1,-1,-1,-1,-1,-1],"split_conditions":[-2.4131672E0,1.068E-3,4E0,1.1E1,1.5E1,3E0,8E0,-1.6601993E-2,2.0056663E-2,-8.727979E-2,-9.272117E-3,-2.225171E-3,1.9363746E-2,-1.0097309E-2,1.5655741E-3],"split_indices":[0,1,2,2,2,3,2,0,0,0,0,0,0,0,0],"split_type":[0,0,0,0,0,0,0,0,0,0,0,0,0,0,0],"sum_hessian":[4.086285E3,2.0612456E2,3.8801602E3,1.7695131E2,2.9173252E1,6.334777E2,3.2466826E3,1.10386826E2,6.6564476E1,1.196076E1,1.7212492E1,3.7836194E2,2.5511575E2,6.3615466E2,2.6105278E3],"tree_param":{"num_deleted":"0","num_feature":"4","num_nodes":"15","size_leaf_vector":"1"}},{"base_weights":[-7.568262E-5,4.5267562E-3,-8.55012E-2,1.3710391E-3,3.7795714E-1,-1.4687099E-1,1.13663964E-1,1.9098489E-3,-3.2692638E-3,-1.7974032E-2,5.57352E-2,6.3229436E-3,-3.0695722E-2,-1.0431707E-1,1.964183E-2],"categories":[],"categories_nodes":[],"categories_segments":[],"categories_sizes":[],"default_left":[0,0,0,0,0,0,0,0,0,0,0,0,0,0,0],"id":48,"left_children":[1,3,5,7,9,11,13,-1,-1,-1,-1,-1,-1,-1,-1],"loss_changes":[1.6071382E0,4.570334E0,2.5709004E0,2.323821E0,3.3516755E0,5.407076E0,4.9712276E0,0E0,0E0,0E0,0E0,0E0,0E0,0E0,0E0],"parents":[2147483647,0,0,1,1,2,2,3,3,4,4,5,5,6,6],"right_children":[2,4,6,8,10,12,14,-1,-1,-1,-1,-1,-1,-1,-1],"split_conditions":[2.518623E0,2.409014E0,9.46E-4,1.6E1,6E0,5.58E-4,1E0,1.9098489E-3,-3.2692638E-3,-1.7974032E-2,5.57352E-2,6.3229436E-3,-3.0695722E-2,-1.0431707E-1,1.964183E-2],"split_indices":[0,0,1,2,2,1,2,0,0,0,0,0,0,0,0],"split_type":[0,0,0,0,0,0,0,0,0,0,0,0,0,0,0],"sum_hessian":[4.0857014E3,3.8777295E3,2.0797197E2,3.84623E3,3.1499348E1,1.5918428E2,4.8787697E1,2.530003E3,1.316227E3,7.6659007E0,2.3833447E1,6.910046E1,9.008382E1,2.4822557E0,4.6305443E1],"tree_param":{"num_deleted":"0","num_feature":"4","num_nodes":"15","size_leaf_vector":"1"}},{"base_weights":[-8.674093E-5,3.9780796E-2,-9.945543E-3,9.3298376E-2,-6.7848615E-2,-5.8811862E-2,6.925179E-3,4.429285E-3,4.350309E-2,1.1161541E-2,-5.6331057E-2,-2.770529E-3,-3.8661268E-2,-4.2600524E-2,9.805646E-4],"categories":[],"categories_nodes":[],"categories_segments":[],"categories_sizes":[],"default_left":[0,0,0,0,0,0,0,0,0,0,0,0,0,0,0],"id":49,"left_children":[1,3,5,7,9,11,13,-1,-1,-1,-1,-1,-1,-1,-1],"loss_changes":[1.6063966E0,4.673725E0,2.7017798E0,9.051102E0,2.4042503E1,8.565222E0,3.0428302E0,0E0,0E0,0E0,0E0,0E0,0E0,0E0,0E0],"parents":[2147483647,0,0,1,1,2,2,3,3,4,4,5,5,6,6],"right_children":[2,4,6,8,10,12,14,-1,-1,-1,-1,-1,-1,-1,-1],"split_conditions":[1E0,1.6E1,-1.0317287E0,1.317E-3,1.033E-3,2.1E1,2.935E-4,4.429285E-3,4.350309E-2,1.1161541E-2,-5.6331057E-2,-2.770529E-3,-3.8661268E-2,-4.2600524E-2,9.805646E-4],"split_indices":[3,2,0,1,1,2,1,0,0,0,0,0,0,0,0],"split_type":[0,0,0,0,0,0,0,0,0,0,0,0,0,0,0],"sum_hessian":[4.0850366E3,8.0930237E2,3.2757341E3,5.4061865E2,2.6868375E2,8.400448E2,2.4356895E3,4.7380334E2,6.681529E1,1.9780899E2,7.087476E1,7.6822845E2,7.181632E1,1.5127657E1,2.4205618E3],"tree_param":{"num_deleted":"0","num_feature":"4","num_nodes":"15","size_leaf_vector":"1"}},{"base_weights":[-1.0264872E-4,-1.6744228E-1,1.918941E-3,-6.4629324E-2,-6.2088305E-1,6.2291265E-2,-4.169985E-3,-3.5384174E-2,1.9466786E-2,-1.2815127E-1,-4.0759915E-3,-1.1283685E-2,2.8870536E-2,-2.675865E-2,4.6519723E-5],"categories":[],"categories_nodes":[],"categories_segments":[],"categories_sizes":[],"default_left":[0,0,0,0,0,0,0,0,0,0,0,0,0,0,0],"id":50,"left_children":[1,3,5,7,9,11,13,-1,-1,-1,-1,-1,-1,-1,-1],"loss_changes":[1.3822466E0,2.2336144E0,1.4843577E0,3.134089E0,3.3580601E0,1.4701192E1,4.479053E0,0E0,0E0,0E0,0E0,0E0,0E0,0E0,0E0],"parents":[2147483647,0,0,1,1,2,2,3,3,4,4,5,5,6,6],"right_children":[2,4,6,8,10,12,14,-1,-1,-1,-1,-1,-1,-1,-1],"split_conditions":[-3.6057844E0,1E-3,4.115E-4,7E0,1.4E1,3E0,4.25E-4,-3.5384174E-2,1.9466786E-2,-1.2815127E-1,-4.0759915E-3,-1.1283685E-2,2.8870536E-2,-2.675865E-2,4.6519723E-5],"split_indices":[0,1,1,2,2,3,1,0,0,0,0,0,0,0,0],"split_type":[0,0,0,0,0,0,0,0,0,0,0,0,0,0,0],"sum_hessian":[4.0840066E3,4.7772243E1,4.0362344E3,3.9873806E1,7.898437E0,3.6893875E2,3.6672957E3,1.8677195E1,2.119661E1,3.1276796E0,4.7707577E0,2.0831311E2,1.6062564E2,6.243434E1,3.6048613E3],"tree_param":{"num_deleted":"0","num_feature":"4","num_nodes":"15","size_leaf_vector":"1"}},{"base_weights":[-1.3194264E-4,-4.0007774E-3,8.7778375E-2,-6.448701E-4,-2.1995917E-1,7.294122E-1,3.793245E-2,-8.560858E-3,3.925176E-4,5.9151035E-2,-5.2904524E-2,-8.800342E-4,8.9113705E-2,-6.2000215E-2,1.0880022E-2],"categories":[],"categories_nodes":[],"categories_segments":[],"categories_sizes":[],"default_left":[0,0,0,0,0,0,0,0,0,0,0,0,0,0,0],"id":51,"left_children":[1,3,5,7,9,11,13,-1,-1,-1,-1,-1,-1,-1,-1],"loss_changes":[1.3895513E0,2.8359923E0,5.480507E0,1.4969745E0,1.533121E1,1.4834671E0,7.567907E0,0E0,0E0,0E0,0E0,0E0,0E0,0E0,0E0],"parents":[2147483647,0,0,1,1,2,2,3,3,4,4,5,5,6,6],"right_children":[2,4,6,8,10,12,14,-1,-1,-1,-1,-1,-1,-1,-1],"split_conditions":[2.3E1,6E0,-1.835932E0,-2.4131672E0,5.195E-4,-4.0265803E0,-1.1935204E0,-8.560858E-3,3.925176E-4,5.9151035E-2,-5.2904524E-2,-8.800342E-4,8.9113705E-2,-6.2000215E-2,1.0880022E-2],"split_indices":[2,3,0,0,1,0,0,0,0,0,0,0,0,0,0],"split_type":[0,0,0,0,0,0,0,0,0,0,0,0,0,0,0],"sum_hessian":[4.0835552E3,3.9123323E3,1.7122287E2,3.853454E3,5.8878155E1,1.1359981E1,1.5986288E2,1.9578564E2,3.6576685E3,1.5988491E1,4.2889664E1,2.2113938E0,9.148586E0,1.4791379E1,1.450715E2],"tree_param":{"num_deleted":"0","num_feature":"4","num_nodes":"15","size_leaf_vector":"1"}},{"base_weights":[-1.1409049E-4,4.230489E-3,-8.082642E-2,1.4016042E-3,3.394153E-1,-1.2499532E-1,1.4141993E-1,-5.162953E-4,7.2818445E-3,-1.664815E-2,5.028853E-2,5.150533E-3,-2.4111582E-2,1.20915845E-1,-4.4336906E-3],"categories":[],"categories_nodes":[],"categories_segments":[],"categories_sizes":[],"default_left":[0,0,0,0,0,0,0,0,0,0,0,0,0,0,0],"id":52,"left_children":[1,3,5,7,9,11,13,-1,-1,-1,-1,-1,-1,-1,-1],"loss_changes":[1.432469E0,3.6751413E0,2.0659456E0,1.8029795E0,2.7663224E0,3.5908182E0,7.007911E0,0E0,0E0,0E0,0E0,0E0,0E0,0E0,0E0],"parents":[2147483647,0,0,1,1,2,2,3,3,4,4,5,5,6,6],"right_children":[2,4,6,8,10,12,14,-1,-1,-1,-1,-1,-1,-1,-1],"split_conditions":[2.518623E0,2.409014E0,1.0505E-3,2.2E1,6E0,5.58E-4,1.0735E-3,-5.162953E-4,7.2818445E-3,-1.664815E-2,5.028853E-2,5.150533E-3,-2.4111582E-2,1.20915845E-1,-4.4336906E-3],"split_indices":[0,0,1,2,2,1,1,0,0,0,0,0,0,0,0],"split_type":[0,0,0,0,0,0,0,0,0,0,0,0,0,0,0],"sum_hessian":[4.083077E3,3.8754187E3,2.0765828E2,3.8439805E3,3.1438154E1,1.735957E2,3.406257E1,3.5212397E3,3.2274075E2,7.6731977E0,2.3764957E1,6.91086E1,1.04487114E2,4.2313304E0,2.9831238E1],"tree_param":{"num_deleted":"0","num_feature":"4","num_nodes":"15","size_leaf_vector":"1"}},{"base_weights":[-6.879995E-5,3.690553E-2,-9.210289E-3,4.4397134E-2,-6.816028E-1,-4.8499456E-1,-7.6859253E-3,9.855575E-3,-6.3714995E-3,-9.86438E-2,4.62486E-2,2.7842482E-3,-1.0289965E-1,7.559329E-3,-1.7999102E-3],"categories":[],"categories_nodes":[],"categories_segments":[],"categories_sizes":[],"default_left":[0,0,0,0,0,0,0,0,0,0,0,0,0,0,0],"id":53,"left_children":[1,3,5,7,9,11,13,-1,-1,-1,-1,-1,-1,-1,-1],"loss_changes":[1.3806801E0,4.3888874E0,2.3716037E0,4.704017E0,3.3916514E0,2.9422204E0,2.8061507E0,0E0,0E0,0E0,0E0,0E0,0E0,0E0,0E0],"parents":[2147483647,0,0,1,1,2,2,3,3,4,4,5,5,6,6],"right_children":[2,4,6,8,10,12,14,-1,-1,-1,-1,-1,-1,-1,-1],"split_conditions":[1E0,4.0840454E0,2.69E-4,1.6E1,1.5E1,3E0,4.195E-4,9.855575E-3,-6.3714995E-3,-9.86438E-2,4.62486E-2,2.7842482E-3,-1.0289965E-1,7.559329E-3,-1.7999102E-3],"split_indices":[3,0,1,2,2,3,1,0,0,0,0,0,0,0,0],"split_type":[0,0,0,0,0,0,0,0,0,0,0,0,0,0,0],"sum_hessian":[4.0828413E3,8.087352E2,3.2741062E3,8.013184E2,7.4168215E0,9.443492E0,3.2646626E3,5.3393353E2,2.6738486E2,5.9652224E0,1.4515994E0,5.349384E0,4.094108E0,3.5904376E2,2.905619E3],"tree_param":{"num_deleted":"0","num_feature":"4","num_nodes":"15","size_leaf_vector":"1"}},{"base_weights":[-9.7951815E-5,-2.6665073E-2,1.3184414E-2,-9.376206E-3,-2.8824428E-1,1.1405393E-1,-1.0221238E-2,-2.286273E-3,4.4108298E-2,-4.4615485E-2,2.4591094E-2,1.7521923E-2,-1.2461525E-2,-6.428297E-3,3.0448788E-3],"categories":[],"categories_nodes":[],"categories_segments":[],"categories_sizes":[],"default_left":[0,0,0,0,0,0,0,0,0,0,0,0,0,0,0],"id":54,"left_children":[1,3,5,7,9,11,13,-1,-1,-1,-1,-1,-1,-1,-1],"loss_changes":[1.4411999E0,6.1536903E0,6.4296336E0,7.7737684E0,7.2256145E0,7.509291E0,4.863198E0,0E0,0E0,0E0,0E0,0E0,0E0,0E0,0E0],"parents":[2147483647,0,0,1,1,2,2,3,3,4,4,5,5,6,6],"right_children":[2,4,6,8,10,12,14,-1,-1,-1,-1,-1,-1,-1,-1],"split_conditions":[8E0,1.149E-3,1.1E1,9.65E-4,6E0,4E0,8.185E-4,-2.286273E-3,4.4108298E-2,-4.4615485E-2,2.4591094E-2,1.7521923E-2,-1.2461525E-2,-6.428297E-3,3.0448788E-3],"split_indices":[2,1,2,1,2,3,1,0,0,0,0,0,0,0,0],"split_type":[0,0,0,0,0,0,0,0,0,0,0,0,0,0,0],"sum_hessian":[4.082178E3,1.3603085E3,2.7218694E3,1.2769457E3,8.3362854E1,5.1190018E2,2.2099692E3,1.2407476E3,3.619812E1,6.446888E1,1.8893974E1,4.0768576E2,1.04214424E2,9.485298E2,1.2614395E3],"tree_param":{"num_deleted":"0","num_feature":"4","num_nodes":"15","size_leaf_vector":"1"}},{"base_weights":[-8.35654E-5,-1.2506666E-3,2.899953E-1,1.0406704E-4,-3.3612487E-1,2.7448112E-2,8.5384026E-2,-1.2910632E-4,3.5133634E-2,-9.971588E-2,2.5426958E-2,-1.2274333E-1,2.8069327E-2],"categories":[],"categories_nodes":[],"categories_segments":[],"categories_sizes":[],"default_left":[0,0,0,0,0,0,0,0,0,0,0,0,0],"id":55,"left_children":[1,3,5,7,9,11,-1,-1,-1,-1,-1,-1,-1],"loss_changes":[1.3824065E0,1.8450304E0,2.3988576E0,1.9857378E0,6.6487265E0,4.220827E0,0E0,0E0,0E0,0E0,0E0,0E0,0E0],"parents":[2147483647,0,0,1,1,2,2,3,3,4,4,5,5],"right_children":[2,4,6,8,10,12,-1,-1,-1,-1,-1,-1,-1],"split_conditions":[2.919E-3,2.539E-3,-1.4716043E-1,2.324E-3,4E0,1.2E1,8.5384026E-2,-1.2910632E-4,3.5133634E-2,-9.971588E-2,2.5426958E-2,-1.2274333E-1,2.8069327E-2],"split_indices":[1,1,0,1,3,2,0,0,0,0,0,0,0],"split_type":[0,0,0,0,0,0,0,0,0,0,0,0,0],"sum_hessian":[4.0812275E3,4.0658645E3,1.536288E1,4.050478E3,1.538652E1,1.1197559E1,4.1653204E0,4.0354453E3,1.5032875E1,6.933958E0,8.452562E0,1.2343389E0,9.963221E0],"tree_param":{"num_deleted":"0","num_feature":"4","num_nodes":"13","size_leaf_vector":"1"}},{"base_weights":[-8.4818E-5,9.89567E-4,-2.6619124E-1,1.054409E-1,-2.2842204E-3,-6.0565555E-1,2.7064896E-1,-4.6069082E-2,1.6120983E-2,-3.152537E-2,2.9280508E-4,1.2573788E-2,-7.188285E-2,-3.9330736E-2,8.996891E-2],"categories":[],"categories_nodes":[],"categories_segments":[],"categories_sizes":[],"default_left":[0,0,0,0,0,0,0,0,0,0,0,0,0,0,0],"id":56,"left_children":[1,3,5,7,9,11,13,-1,-1,-1,-1,-1,-1,-1,-1],"loss_changes":[1.1673349E0,1.3908436E0,3.1560054E0,3.97689E0,6.434795E0,9.48514E-1,3.2989054E0,0E0,0E0,0E0,0E0,0E0,0E0,0E0,0E0],"parents":[2147483647,0,0,1,1,2,2,3,3,4,4,5,5,6,6],"right_children":[2,4,6,8,10,12,14,-1,-1,-1,-1,-1,-1,-1,-1],"split_conditions":[4.8062506E0,3.37E-4,1.3E1,-2.3601687E0,3.59E-4,2E0,6.81E-4,-4.6069082E-2,1.6120983E-2,-3.152537E-2,2.9280508E-4,1.2573788E-2,-7.188285E-2,-3.9330736E-2,8.996891E-2],"split_indices":[0,1,2,0,1,2,1,0,0,0,0,0,0,0,0],"split_type":[0,0,0,0,0,0,0,0,0,0,0,0,0,0,0],"sum_hessian":[4.081086E3,4.0656672E3,1.5418551E1,1.22608025E2,3.9430593E3,9.367157E0,6.0513935E0,1.034377E1,1.1226425E2,6.361853E1,3.8794407E3,1.2403331E0,8.126824E0,3.1263058E0,2.925088E0],"tree_param":{"num_deleted":"0","num_feature":"4","num_nodes":"15","size_leaf_vector":"1"}},{"base_weights":[-9.38878E-5,-2.3590794E-2,1.1655114E-2,-7.946061E-3,-2.6082778E-1,1.0283395E-1,-9.486284E-3,-2.2597362E-3,3.372674E-2,-4.047131E-2,2.2407746E-2,-4.5156747E-2,1.2686147E-2,-5.020088E-3,3.4331928E-3],"categories":[],"categories_nodes":[],"categories_segments":[],"categories_sizes":[],"default_left":[0,0,0,0,0,0,0,0,0,0,0,0,0,0,0],"id":57,"left_children":[1,3,5,7,9,11,13,-1,-1,-1,-1,-1,-1,-1,-1],"loss_changes":[1.1271626E0,5.049392E0,5.2479086E0,6.470803E0,5.963266E0,6.8831615E0,3.9453754E0,0E0,0E0,0E0,0E0,0E0,0E0,0E0,0E0],"parents":[2147483647,0,0,1,1,2,2,3,3,4,4,5,5,6,6],"right_children":[2,4,6,8,10,12,14,-1,-1,-1,-1,-1,-1,-1,-1],"split_conditions":[8E0,1.149E-3,1.1E1,9.315E-4,6E0,-2.4758968E0,8.96E-4,-2.2597362E-3,3.372674E-2,-4.047131E-2,2.2407746E-2,-4.5156747E-2,1.2686147E-2,-5.020088E-3,3.4331928E-3],"split_indices":[2,1,2,1,2,0,1,0,0,0,0,0,0,0,0],"split_type":[0,0,0,0,0,0,0,0,0,0,0,0,0,0,0],"sum_hessian":[4.0809624E3,1.3600271E3,2.7209353E3,1.2768575E3,8.316963E1,5.1141882E2,2.2095164E3,1.2257688E3,5.1088657E1,6.4265564E1,1.8904068E1,2.0504827E1,4.90914E2,1.1452438E3,1.0642726E3],"tree_param":{"num_deleted":"0","num_feature":"4","num_nodes":"15","size_leaf_vector":"1"}},{"base_weights":[-9.1263144E-5,2.021324E-2,-1.6432876E-2,-1.8616533E-2,1.3290599E-1,-2.1064435E-1,-6.4400537E-3,-2.390242E-4,-4.702389E-2,5.681896E-2,8.250619E-3,1.7589685E-2,-3.442677E-2,1.0034654E-3,-1.4109993E-2],"categories":[],"categories_nodes":[],"categories_segments":[],"categories_sizes":[],"default_left":[0,0,0,0,0,0,0,0,0,0,0,0,0,0,0],"id":58,"left_children":[1,3,5,7,9,11,13,-1,-1,-1,-1,-1,-1,-1,-1],"loss_changes":[1.3544014E0,7.9675217E0,4.3878593E0,9.925974E0,1.0189129E1,5.7753625E0,4.775588E0,0E0,0E0,0E0,0E0,0E0,0E0,0E0,0E0],"parents":[2147483647,0,0,1,1,2,2,3,3,4,4,5,5,6,6],"right_children":[2,4,6,8,10,12,14,-1,-1,-1,-1,-1,-1,-1,-1],"split_conditions":[7.035E-4,6.085E-4,7.265E-4,6E-4,6.18E-4,-1.152667E0,2E1,-2.390242E-4,-4.702389E-2,5.681896E-2,8.250619E-3,1.7589685E-2,-3.442677E-2,1.0034654E-3,-1.4109993E-2],"split_indices":[1,1,1,1,1,0,2,0,0,0,0,0,0,0,0],"split_type":[0,0,0,0,0,0,0,0,0,0,0,0,0,0,0],"sum_hessian":[4.0798777E3,1.8192354E3,2.2606423E3,1.3536516E3,4.655837E2,1.09642876E2,2.1509995E3,1.3076736E3,4.597797E1,4.7247932E1,4.1833575E2,2.8084528E1,8.155835E1,1.9173503E3,2.3364911E2],"tree_param":{"num_deleted":"0","num_feature":"4","num_nodes":"15","size_leaf_vector":"1"}},{"base_weights":[-8.744093E-5,-5.6912694E-3,6.1124865E-2,4.4088135E-3,-1.0804353E-1,9.283666E-2,-5.809794E-1,-5.334056E-2,5.615661E-4,-1.2101814E-3,-2.7631922E-2,-2.204053E-2,1.5180247E-2,-1.429614E-1,7.997491E-2],"categories":[],"categories_nodes":[],"categories_segments":[],"categories_sizes":[],"default_left":[0,0,0,0,0,0,0,0,0,0,0,0,0,0,0],"id":59,"left_children":[1,3,5,7,9,11,13,-1,-1,-1,-1,-1,-1,-1,-1],"loss_changes":[1.3999586E0,3.8656564E0,7.023759E0,2.2124424E0,5.418953E0,6.0741415E0,2.0180508E1,0E0,0E0,0E0,0E0,0E0,0E0,0E0,0E0],"parents":[2147483647,0,0,1,1,2,2,3,3,4,4,5,5,6,6],"right_children":[2,4,6,8,10,12,14,-1,-1,-1,-1,-1,-1,-1,-1],"split_conditions":[2.2E1,2E1,1.2605E-3,2.69E-4,8E-4,-1.0127721E0,4E0,-5.334056E-2,5.615661E-4,-1.2101814E-3,-2.7631922E-2,-2.204053E-2,1.5180247E-2,-1.429614E-1,7.997491E-2],"split_indices":[2,2,1,1,1,0,3,0,0,0,0,0,0,0,0],"split_type":[0,0,0,0,0,0,0,0,0,0,0,0,0,0,0],"sum_hessian":[4.0792207E3,3.73793E3,3.412908E2,3.4030728E3,3.3485706E2,3.260438E2,1.5247009E1,6.6320033E0,3.396441E3,2.139476E2,1.20909454E2,5.1218693E1,2.748251E2,9.421119E0,5.82589E0],"tree_param":{"num_deleted":"0","num_feature":"4","num_nodes":"15","size_leaf_vector":"1"}},{"base_weights":[-1.2604454E-4,3.8672138E-2,-7.88465E-3,-4.206927E-2,1.5679249E-1,-1.0570458E-1,9.435193E-3,-6.946785E-3,9.896878E-2,-2.6274198E-3,3.3760086E-2,-3.0393947E-3,-3.9955433E-2,5.9506153E-3,-1.1526321E-3],"categories":[],"categories_nodes":[],"categories_segments":[],"categories_sizes":[],"default_left":[0,0,0,0,0,0,0,0,0,0,0,0,0,0,0],"id":60,"left_children":[1,3,5,7,9,11,13,-1,-1,-1,-1,-1,-1,-1,-1],"loss_changes":[1.2282557E0,6.491684E0,5.761916E0,1.1508612E1,9.154221E0,1.1308998E1,3.0336618E0,0E0,0E0,0E0,0E0,0E0,0E0,0E0,0E0],"parents":[2147483647,0,0,1,1,2,2,3,3,4,4,5,5,6,6],"right_children":[2,4,6,8,10,12,14,-1,-1,-1,-1,-1,-1,-1,-1],"split_conditions":[4E0,3E0,7E0,1.786E-3,2E0,4E0,1.2E1,-6.946785E-3,9.896878E-2,-2.6274198E-3,3.3760086E-2,-3.0393947E-3,-3.9955433E-2,5.9506153E-3,-1.1526321E-3],"split_indices":[2,3,2,1,2,3,2,0,0,0,0,0,0,0,0],"split_type":[0,0,0,0,0,0,0,0,0,0,0,0,0,0,0],"sum_hessian":[4.0783032E3,6.7897784E2,3.3993252E3,4.0368323E2,2.7529465E2,5.1057413E2,2.8887512E3,3.9414914E2,9.534065E0,1.3721774E2,1.380769E2,4.072927E2,1.0328145E2,8.519209E2,2.0368302E3],"tree_param":{"num_deleted":"0","num_feature":"4","num_nodes":"15","size_leaf_vector":"1"}},{"base_weights":[-9.4954084E-5,-5.2196984E-3,5.5911835E-2,3.7613546E-3,-9.638575E-2,1.6764455E-1,-9.9508874E-2,2.1508557E-4,3.9000627E-2,-9.753789E-4,-2.4900516E-2,8.096539E-2,1.2928153E-2,-3.150385E-2,1.1356471E-2],"categories":[],"categories_nodes":[],"categories_segments":[],"categories_sizes":[],"default_left":[0,0,0,0,0,0,0,0,0,0,0,0,0,0,0],"id":61,"left_children":[1,3,5,7,9,11,13,-1,-1,-1,-1,-1,-1,-1,-1],"loss_changes":[1.1709006E0,3.0605001E0,5.955546E0,2.1161633E0,4.429635E0,4.8047304E0,6.6331587E0,0E0,0E0,0E0,0E0,0E0,0E0,0E0,0E0],"parents":[2147483647,0,0,1,1,2,2,3,3,4,4,5,5,6,6],"right_children":[2,4,6,8,10,12,14,-1,-1,-1,-1,-1,-1,-1,-1],"split_conditions":[2.2E1,2E1,5.58E-4,2.919E-3,8E-4,-1.835932E0,4.6921566E-1,2.1508557E-4,3.9000627E-2,-9.753789E-4,-2.4900516E-2,8.096539E-2,1.2928153E-2,-3.150385E-2,1.1356471E-2],"split_indices":[2,2,1,1,1,0,0,0,0,0,0,0,0,0,0],"split_type":[0,0,0,0,0,0,0,0,0,0,0,0,0,0,0],"sum_hessian":[4.0774849E3,3.7364941E3,3.4099063E2,3.4022834E3,3.3421085E2,1.9833093E2,1.4265971E2,3.3891575E3,1.3125967E1,2.1387312E2,1.2033773E2,1.0049319E1,1.882816E2,7.068322E1,7.19765E1],"tree_param":{"num_deleted":"0","num_feature":"4","num_nodes":"15","size_leaf_vector":"1"}},{"base_weights":[-6.6154185E-5,3.896198E-3,-7.372531E-2,1.3440335E-3,3.070865E-1,-9.2900224E-2,-6.1600048E-2,-4.8724972E-4,6.9012986E-3,-1.4136021E-2,4.881036E-2,8.966522E-3,-1.3537645E-2],"categories":[],"categories_nodes":[],"categories_segments":[],"categories_sizes":[],"default_left":[0,0,0,0,0,0,0,0,0,0,0,0,0],"id":62,"left_children":[1,3,5,7,9,-1,11,-1,-1,-1,-1,-1,-1],"loss_changes":[1.1903981E0,2.994491E0,2.1019158E0,1.6153253E0,2.6913023E0,0E0,2.3150969E0,0E0,0E0,0E0,0E0,0E0,0E0],"parents":[2147483647,0,0,1,1,2,2,3,3,4,4,6,6],"right_children":[2,4,6,8,10,-1,12,-1,-1,-1,-1,-1,-1],"split_conditions":[2.518623E0,2.409014E0,2.935E-4,2.2E1,5.75E-4,-9.2900224E-2,5.58E-4,-4.8724972E-4,6.9012986E-3,-1.4136021E-2,4.881036E-2,8.966522E-3,-1.3537645E-2],"split_indices":[0,0,1,2,1,0,1,0,0,0,0,0,0],"split_type":[0,0,0,0,0,0,0,0,0,0,0,0,0],"sum_hessian":[4.0766287E3,3.8694272E3,2.0720126E2,3.8381235E3,3.130373E1,1.8393924E0,2.0536186E2,3.5160437E3,3.2207974E2,9.065123E0,2.2238607E1,6.725408E1,1.3810779E2],"tree_param":{"num_deleted":"0","num_feature":"4","num_nodes":"13","size_leaf_vector":"1"}},{"base_weights":[-7.380821E-5,3.3418603E-2,-8.357351E-3,7.021529E-2,-1.0343168E-1,-1.1778992E-2,1.6726543E-1,4.169769E-3,3.9608173E-2,1.7604575E-2,-4.745399E-2,-4.8602777E-4,-2.8661221E-2,-1.283332E-1,2.6158273E-2],"categories":[],"categories_nodes":[],"categories_segments":[],"categories_sizes":[],"default_left":[0,0,0,0,0,0,0,0,0,0,0,0,0,0,0],"id":63,"left_children":[1,3,5,7,9,11,13,-1,-1,-1,-1,-1,-1,-1,-1],"loss_changes":[1.1314999E0,4.07953E0,1.9668063E0,5.9116273E0,1.7898886E1,6.0989213E0,8.893848E0,0E0,0E0,0E0,0E0,0E0,0E0,0E0,0E0],"parents":[2147483647,0,0,1,1,2,2,3,3,4,4,5,5,6,6],"right_children":[2,4,6,8,10,12,14,-1,-1,-1,-1,-1,-1,-1,-1],"split_conditions":[1E0,1.068E-3,2.105E-3,9.89E-4,1.5E1,1.6505E-3,2E0,4.169769E-3,3.9608173E-2,1.7604575E-2,-4.745399E-2,-4.8602777E-4,-2.8661221E-2,-1.283332E-1,2.6158273E-2],"split_indices":[3,1,1,1,2,1,2,0,0,0,0,0,0,0,0],"split_type":[0,0,0,0,0,0,0,0,0,0,0,0,0,0,0],"sum_hessian":[4.0764133E3,8.0768964E2,3.2687236E3,6.369198E2,1.7076985E2,3.2071716E3,6.1552074E1,5.867035E2,5.0216316E1,9.771066E1,7.305919E1,3.1294087E3,7.776276E1,2.9881334E0,5.8563942E1],"tree_param":{"num_deleted":"0","num_feature":"4","num_nodes":"15","size_leaf_vector":"1"}},{"base_weights":[-9.646039E-5,-2.6238874E-2,9.488947E-3,5.5261455E-2,-6.316104E-2,2.7431044E-1,4.9502957E-3,-9.723509E-3,1.3098622E-2,-1.5285715E-2,3.9477227E-3,1.809228E-2,7.886954E-2,-4.3142084E-3,2.8315166E-3],"categories":[],"categories_nodes":[],"categories_segments":[],"categories_sizes":[],"default_left":[0,0,0,0,0,0,0,0,0,0,0,0,0,0,0],"id":64,"left_children":[1,3,5,7,9,11,13,-1,-1,-1,-1,-1,-1,-1,-1],"loss_changes":[1.021834E0,3.295601E0,3.5849235E0,3.957829E0,6.941967E0,2.2715263E0,3.298644E0,0E0,0E0,0E0,0E0,0E0,0E0,0E0,0E0],"parents":[2147483647,0,0,1,1,2,2,3,3,4,4,5,5,6,6],"right_children":[2,4,6,8,10,12,14,-1,-1,-1,-1,-1,-1,-1,-1],"split_conditions":[-9.568535E-1,5.78E-4,-9.025289E-1,2E0,1.4E1,2.1E1,6.085E-4,-9.723509E-3,1.3098622E-2,-1.5285715E-2,3.9477227E-3,1.809228E-2,7.886954E-2,-4.3142084E-3,2.8315166E-3],"split_indices":[0,1,0,3,2,2,1,0,0,0,0,0,0,0,0],"split_type":[0,0,0,0,0,0,0,0,0,0,0,0,0,0,0],"sum_hessian":[4.0757896E3,1.0930264E3,2.9827632E3,3.406326E2,7.5239374E2,4.9257282E1,2.933506E3,1.1292904E2,2.2770357E2,4.0125003E2,3.5114374E2,4.2832653E1,6.424631E0,9.589119E2,1.9745941E3],"tree_param":{"num_deleted":"0","num_feature":"4","num_nodes":"15","size_leaf_vector":"1"}},{"base_weights":[-6.694933E-5,3.5979673E-2,-7.278507E-3,-3.2550755E-1,5.915466E-2,-9.5097706E-2,8.261436E-3,-5.1126506E-2,1.0695293E-2,8.511463E-3,-2.5152871E-2,7.2170096E-3,-2.0487351E-2,-5.585883E-3,2.5762666E-3],"categories":[],"categories_nodes":[],"categories_segments":[],"categories_sizes":[],"default_left":[0,0,0,0,0,0,0,0,0,0,0,0,0,0,0],"id":65,"left_children":[1,3,5,7,9,11,13,-1,-1,-1,-1,-1,-1,-1,-1],"loss_changes":[1.0599352E0,5.7138014E0,4.637602E0,3.3569112E0,5.1803102E0,9.396202E0,3.242027E0,0E0,0E0,0E0,0E0,0E0,0E0,0E0,0E0],"parents":[2147483647,0,0,1,1,2,2,3,3,4,4,5,5,6,6],"right_children":[2,4,6,8,10,12,14,-1,-1,-1,-1,-1,-1,-1,-1],"split_conditions":[4E0,-2.5299819E0,7E0,4E0,1.055E-3,2E0,6.085E-4,-5.1126506E-2,1.0695293E-2,8.511463E-3,-2.5152871E-2,7.2170096E-3,-2.0487351E-2,-5.585883E-3,2.5762666E-3],"split_indices":[2,0,2,3,1,3,1,0,0,0,0,0,0,0,0],"split_type":[0,0,0,0,0,0,0,0,0,0,0,0,0,0,0],"sum_hessian":[4.0754146E3,6.7874603E2,3.3966685E3,4.0106873E1,6.3863916E2,5.0991595E2,2.8867524E3,2.7928389E1,1.2178484E1,5.900611E2,4.857807E1,2.021849E2,3.0773105E2,6.1850574E2,2.2682468E3],"tree_param":{"num_deleted":"0","num_feature":"4","num_nodes":"15","size_leaf_vector":"1"}},{"base_weights":[-8.084996E-5,1.8102419E-2,-1.4724777E-2,-1.6189987E-2,1.1760226E-1,-1.8193483E-1,-4.9233334E-3,8.011194E-3,-7.8897895E-3,5.122253E-2,7.1968436E-3,-8.855603E-3,-5.8350142E-2,-5.0623678E-3,3.5328965E-3],"categories":[],"categories_nodes":[],"categories_segments":[],"categories_sizes":[],"default_left":[0,0,0,0,0,0,0,0,0,0,0,0,0,0,0],"id":66,"left_children":[1,3,5,7,9,11,13,-1,-1,-1,-1,-1,-1,-1,-1],"loss_changes":[1.0854777E0,6.206821E0,3.6997833E0,8.178662E0,8.358983E0,4.63567E0,3.9274175E0,0E0,0E0,0E0,0E0,0E0,0E0,0E0,0E0],"parents":[2147483647,0,0,1,1,2,2,3,3,4,4,5,5,6,6],"right_children":[2,4,6,8,10,12,14,-1,-1,-1,-1,-1,-1,-1,-1],"split_conditions":[7.035E-4,6.085E-4,7.3E-4,5E0,6.18E-4,1.3825687E0,-7.125631E-2,8.011194E-3,-7.8897895E-3,5.122253E-2,7.1968436E-3,-8.855603E-3,-5.8350142E-2,-5.0623678E-3,3.5328965E-3],"split_indices":[1,1,1,2,1,0,0,0,0,0,0,0,0,0,0],"split_type":[0,0,0,0,0,0,0,0,0,0,0,0,0,0,0],"sum_hessian":[4.0745356E3,1.8175096E3,2.2570261E3,1.3522849E3,4.652248E2,1.24003136E2,2.133023E3,5.331843E2,8.191005E2,4.7162003E1,4.1806277E2,1.0159836E2,2.2404781E1,9.987907E2,1.1342322E3],"tree_param":{"num_deleted":"0","num_feature":"4","num_nodes":"15","size_leaf_vector":"1"}},{"base_weights":[-7.604105E-5,3.574443E-3,-6.798162E-2,1.2575836E-3,2.797263E-1,-8.905675E-2,-5.662753E-2,-4.943297E-4,6.869516E-3,-5.6525942E-2,3.6145907E-2,8.758639E-3,-1.2697826E-2],"categories":[],"categories_nodes":[],"categories_segments":[],"categories_sizes":[],"default_left":[0,0,0,0,0,0,0,0,0,0,0,0,0],"id":67,"left_children":[1,3,5,7,9,-1,11,-1,-1,-1,-1,-1,-1],"loss_changes":[1.0102305E0,2.4740684E0,1.8913596E0,1.604569E0,2.4262648E0,0E0,2.1025662E0,0E0,0E0,0E0,0E0,0E0,0E0],"parents":[2147483647,0,0,1,1,2,2,3,3,4,4,6,6],"right_children":[2,4,6,8,10,-1,12,-1,-1,-1,-1,-1,-1],"split_conditions":[2.518623E0,2.409014E0,2.935E-4,2.2E1,1E0,-8.905675E-2,5.58E-4,-4.943297E-4,6.869516E-3,-5.6525942E-2,3.6145907E-2,8.758639E-3,-1.2697826E-2],"split_indices":[0,0,1,2,2,0,1,0,0,0,0,0,0],"split_type":[0,0,0,0,0,0,0,0,0,0,0,0,0],"sum_hessian":[4.0733665E3,3.86646E3,2.069067E2,3.835287E3,3.1172747E1,1.7627462E0,2.0514394E2,3.5131775E3,3.2210974E2,2.2275455E0,2.8945202E1,6.718157E1,1.3796237E2],"tree_param":{"num_deleted":"0","num_feature":"4","num_nodes":"13","size_leaf_vector":"1"}},{"base_weights":[-9.521457E-5,2.3868142E-3,-1.0519708E-1,6.2376442E-3,-7.752178E-2,4.1261792E-1,-3.3119267E-1,5.496904E-5,1.7310033E-2,1.026446E-2,-4.2639326E-2,-1.0876248E-1,5.4185923E-2,-5.6176145E-2,5.9174556E-2],"categories":[],"categories_nodes":[],"categories_segments":[],"categories_sizes":[],"default_left":[0,0,0,0,0,0,0,0,0,0,0,0,0,0,0],"id":68,"left_children":[1,3,5,7,9,11,13,-1,-1,-1,-1,-1,-1,-1,-1],"loss_changes":[1.0630583E0,1.2255367E0,1.1138714E1,3.6055913E0,1.1552927E1,6.21427E0,1.4378338E1,0E0,0E0,0E0,0E0,0E0,0E0,0E0,0E0],"parents":[2147483647,0,0,1,1,2,2,3,3,4,4,5,5,6,6],"right_children":[2,4,6,8,10,12,14,-1,-1,-1,-1,-1,-1,-1,-1],"split_conditions":[6E0,1.6505E-3,5.16E-4,1.434E-3,1.7E1,3.855E-4,9.79E-4,5.496904E-5,1.7310033E-2,1.026446E-2,-4.2639326E-2,-1.0876248E-1,5.4185923E-2,-5.6176145E-2,5.9174556E-2],"split_indices":[3,1,1,1,2,1,1,0,0,0,0,0,0,0,0],"split_type":[0,0,0,0,0,0,0,0,0,0,0,0,0,0,0],"sum_hessian":[4.0731523E3,3.9801367E3,9.3015465E1,3.79803E3,1.8210678E2,2.801044E1,6.500502E1,3.673802E3,1.2422793E2,1.2055487E2,6.1551918E1,1.6334755E0,2.6376965E1,5.2324604E1,1.2680418E1],"tree_param":{"num_deleted":"0","num_feature":"4","num_nodes":"15","size_leaf_vector":"1"}},{"base_weights":[-1.0843702E-4,4.584003E-2,-5.0594457E-3,-2.0890886E-1,1.6250996E-1,-3.3281437E-1,-8.6378085E-4,-4.074066E-2,2.0339832E-2,-6.3133086E-3,2.6269192E-2,-8.22635E-2,-1.7862381E-2,2.916825E-3,-2.134895E-3],"categories":[],"categories_nodes":[],"categories_segments":[],"categories_sizes":[],"default_left":[0,0,0,0,0,0,0,0,0,0,0,0,0,0,0],"id":69,"left_children":[1,3,5,7,9,11,13,-1,-1,-1,-1,-1,-1,-1,-1],"loss_changes":[9.268677E-1,1.1812856E1,5.0574756E0,1.0307056E1,6.1738973E0,3.3638606E0,2.2353694E0,0E0,0E0,0E0,0E0,0E0,0E0,0E0,0E0],"parents":[2147483647,0,0,1,1,2,2,3,3,4,4,5,5,6,6],"right_children":[2,4,6,8,10,12,14,-1,-1,-1,-1,-1,-1,-1,-1],"split_conditions":[4.155E-4,2E0,4.25E-4,2.2E1,2E0,1E0,2E0,-4.074066E-2,2.0339832E-2,-6.3133086E-3,2.6269192E-2,-8.22635E-2,-1.7862381E-2,2.916825E-3,-2.134895E-3],"split_indices":[1,3,1,2,2,3,3,0,0,0,0,0,0,0,0],"split_type":[0,0,0,0,0,0,0,0,0,0,0,0,0,0,0],"sum_hessian":[4.0722808E3,3.953088E2,3.6769722E3,1.239259E2,2.713829E2,4.5484856E1,3.6314873E3,8.366082E1,4.0265087E1,8.355626E1,1.8782664E2,9.852144E0,3.563271E1,1.4724281E3,2.159059E3],"tree_param":{"num_deleted":"0","num_feature":"4","num_nodes":"15","size_leaf_vector":"1"}},{"base_weights":[-1.2360848E-4,8.4412634E-2,-2.7737373E-3,1.1577541E-1,-8.88501E-1,-2.965396E-1,2.1449048E-3,-4.0327974E-2,1.674883E-2,-2.17045E-2,-1.09627105E-1,-6.1995335E-2,-6.477938E-3,1.7116303E-2,-2.8931096E-4],"categories":[],"categories_nodes":[],"categories_segments":[],"categories_sizes":[],"default_left":[0,0,0,0,0,0,0,0,0,0,0,0,0,0,0],"id":70,"left_children":[1,3,5,7,9,11,13,-1,-1,-1,-1,-1,-1,-1,-1],"loss_changes":[9.1264266E-1,3.88118E0,5.707884E0,3.311195E0,3.1761742E-1,4.835776E0,3.30931E0,0E0,0E0,0E0,0E0,0E0,0E0,0E0,0E0],"parents":[2147483647,0,0,1,1,2,2,3,3,4,4,5,5,6,6],"right_children":[2,4,6,8,10,12,14,-1,-1,-1,-1,-1,-1,-1,-1],"split_conditions":[3.37E-4,3.7137005E0,3.59E-4,-2.3601687E0,2E0,-4.602097E-1,3.93E-4,-4.0327974E-2,1.674883E-2,-2.17045E-2,-1.09627105E-1,-6.1995335E-2,-6.477938E-3,1.7116303E-2,-2.8931096E-4],"split_indices":[1,0,1,0,3,0,1,0,0,0,0,0,0,0,0],"split_type":[0,0,0,0,0,0,0,0,0,0,0,0,0,0,0],"sum_hessian":[4.0716716E3,1.2282529E2,3.9488464E3,1.1984304E2,2.9822495E0,6.4052E1,3.8847944E3,1.0242102E1,1.0960094E2,1.1879052E0,1.7943444E0,2.603961E1,3.801239E1,1.1149003E2,3.7733042E3],"tree_param":{"num_deleted":"0","num_feature":"4","num_nodes":"15","size_leaf_vector":"1"}},{"base_weights":[-1.6194054E-4,2.0835144E-3,-9.565783E-2,1.1562632E-2,-2.9115783E-2,-1.7149355E-1,1.1287826E-1,8.4971543E-4,5.711336E-2,-3.402623E-2,-4.5055658E-5,3.6402665E-2,-4.241088E-2],"categories":[],"categories_nodes":[],"categories_segments":[],"categories_sizes":[],"default_left":[0,0,0,0,0,0,0,0,0,0,0,0,0],"id":71,"left_children":[1,3,5,7,9,11,-1,-1,-1,-1,-1,-1,-1],"loss_changes":[8.7344646E-1,1.1773301E0,8.8828745E0,5.232325E0,8.273907E0,1.2192766E1,0E0,0E0,0E0,0E0,0E0,0E0,0E0],"parents":[2147483647,0,0,1,1,2,2,3,3,4,4,5,5],"right_children":[2,4,6,8,10,12,-1,-1,-1,-1,-1,-1,-1],"split_conditions":[6E0,1.033E-3,1.926E-3,1.0275E-3,6E0,5.16E-4,1.1287826E-1,8.4971543E-4,5.711336E-2,-3.402623E-2,-4.5055658E-5,3.6402665E-2,-4.241088E-2],"split_indices":[3,1,1,1,2,1,0,0,0,0,0,0,0],"split_type":[0,0,0,0,0,0,0,0,0,0,0,0,0],"sum_hessian":[4.0713784E3,3.9788005E3,9.257786E1,3.0521204E3,9.2668024E2,8.798824E1,4.58961E0,3.0365007E3,1.5619571E1,7.725425E1,8.49426E2,2.8060863E1,5.9927383E1],"tree_param":{"num_deleted":"0","num_feature":"4","num_nodes":"13","size_leaf_vector":"1"}},{"base_weights":[-1.17616524E-4,8.1413833E-4,-2.3214959E-1,3.1725276E-2,-6.8194233E-3,-5.545227E-1,2.7488938E-1,6.446512E-3,-9.069806E-3,-2.3940136E-3,2.656617E-3,1.06809195E-2,-6.566322E-2,-5.3893615E-2,7.2917E-2],"categories":[],"categories_nodes":[],"categories_segments":[],"categories_sizes":[],"default_left":[0,0,0,0,0,0,0,0,0,0,0,0,0,0,0],"id":72,"left_children":[1,3,5,7,9,11,13,-1,-1,-1,-1,-1,-1,-1,-1],"loss_changes":[8.8050425E-1,9.5740414E-1,2.8149676E0,3.2265732E0,1.8605635E0,7.6495266E-1,2.9808154E0,0E0,0E0,0E0,0E0,0E0,0E0,0E0,0E0],"parents":[2147483647,0,0,1,1,2,2,3,3,4,4,5,5,6,6],"right_children":[2,4,6,8,10,12,14,-1,-1,-1,-1,-1,-1,-1,-1],"split_conditions":[4.8062506E0,1E0,1.3E1,1.068E-3,8.96E-4,2E0,5.33E-4,6.446512E-3,-9.069806E-3,-2.3940136E-3,2.656617E-3,1.06809195E-2,-6.566322E-2,-5.3893615E-2,7.2917E-2],"split_indices":[0,3,2,1,1,2,1,0,0,0,0,0,0,0,0],"split_type":[0,0,0,0,0,0,0,0,0,0,0,0,0,0,0],"sum_hessian":[4.0708213E3,4.0555322E3,1.5289031E1,8.025504E2,3.252982E3,9.289292E0,5.999739E0,6.335837E2,1.6896674E2,2.1504678E3,1.1025142E3,1.2362776E0,8.053015E0,2.082562E0,3.9171772E0],"tree_param":{"num_deleted":"0","num_feature":"4","num_nodes":"15","size_leaf_vector":"1"}},{"base_weights":[-1.1609504E-4,-2.3473927E-1,7.735059E-4,1.045207E-1,-9.568132E-2,1.1877688E-1,-2.4930553E-3,6.902624E-2,-2.070815E-2,1.501177E-2,-7.950852E-2,-2.669893E-2,1.933844E-4],"categories":[],"categories_nodes":[],"categories_segments":[],"categories_sizes":[],"default_left":[0,0,0,0,0,0,0,0,0,0,0,0,0],"id":73,"left_children":[1,3,5,7,-1,9,11,-1,-1,-1,-1,-1,-1],"loss_changes":[8.4998226E-1,3.8682477E0,1.5641613E0,2.2176044E0,0E0,3.2499325E0,4.6241384E0,0E0,0E0,0E0,0E0,0E0,0E0],"parents":[2147483647,0,0,1,1,2,2,3,3,5,5,6,6],"right_children":[2,4,6,8,-1,10,12,-1,-1,-1,-1,-1,-1],"split_conditions":[2.69E-4,3E0,3.37E-4,-4.9594912E-1,-9.568132E-2,3.7137005E0,3.59E-4,6.902624E-2,-2.070815E-2,1.501177E-2,-7.950852E-2,-2.669893E-2,1.933844E-4],"split_indices":[1,3,1,0,0,0,1,0,0,0,0,0,0],"split_type":[0,0,0,0,0,0,0,0,0,0,0,0,0],"sum_hessian":[4.0704673E3,1.4382412E1,4.056085E3,1.0366877E1,4.0155354E0,1.08303345E2,3.9477815E3,3.1779137E0,7.188963E0,1.0552027E2,2.7830746E0,6.401037E1,3.8837712E3],"tree_param":{"num_deleted":"0","num_feature":"4","num_nodes":"13","size_leaf_vector":"1"}},{"base_weights":[-1.3936454E-4,1.5571309E-2,-1.2787549E-2,4.5510463E-2,-8.925634E-2,-5.904548E-2,1.6353412E-2,-8.252696E-4,2.0267427E-2,-1.5748436E-2,1.3751365E-2,3.069945E-3,-2.0633642E-2,-1.2793792E-3,1.4794699E-2],"categories":[],"categories_nodes":[],"categories_segments":[],"categories_sizes":[],"default_left":[0,0,0,0,0,0,0,0,0,0,0,0,0,0,0],"id":74,"left_children":[1,3,5,7,9,11,13,-1,-1,-1,-1,-1,-1,-1,-1],"loss_changes":[8.0919E-1,5.7041726E0,3.042008E0,1.1944349E1,6.2695866E0,1.1534634E1,5.3135605E0,0E0,0E0,0E0,0E0,0E0,0E0,0E0,0E0],"parents":[2147483647,0,0,1,1,2,2,3,3,4,4,5,5,6,6],"right_children":[2,4,6,8,10,12,14,-1,-1,-1,-1,-1,-1,-1,-1],"split_conditions":[7.035E-4,4E0,8.96E-4,3E0,6.055E-4,3E0,4E0,-8.252696E-4,2.0267427E-2,-1.5748436E-2,1.3751365E-2,3.069945E-3,-2.0633642E-2,-1.2793792E-3,1.4794699E-2],"split_indices":[1,3,1,3,1,3,3,0,0,0,0,0,0,0,0],"split_type":[0,0,0,0,0,0,0,0,0,0,0,0,0,0,0],"sum_hessian":[4.070183E3,1.8152178E3,2.2549653E3,1.4123977E3,4.0282E2,8.711262E2,1.3838391E3,1.0530978E3,3.593E2,3.0988947E2,9.293054E1,5.417981E2,3.293281E2,1.133646E3,2.5019313E2],"tree_param":{"num_deleted":"0","num_feature":"4","num_nodes":"15","size_leaf_vector":"1"}},{"base_weights":[-1.24711E-4,3.0717993E-2,-6.2878584E-3,-3.9656524E-2,1.339326E-1,-8.426468E-2,7.495434E-3,-6.592598E-3,9.446729E-2,-2.698789E-3,2.9311433E-2,-2.1121828E-3,-3.3255383E-2,5.5083022E-3,-1.2436028E-3],"categories":[],"categories_nodes":[],"categories_segments":[],"categories_sizes":[],"default_left":[0,0,0,0,0,0,0,0,0,0,0,0,0,0,0],"id":75,"left_children":[1,3,5,7,9,11,13,-1,-1,-1,-1,-1,-1,-1,-1],"loss_changes":[7.738177E-1,4.9299326E0,3.6471806E0,1.0506039E1,7.0544276E0,7.9842157E0,2.7362456E0,0E0,0E0,0E0,0E0,0E0,0E0,0E0,0E0],"parents":[2147483647,0,0,1,1,2,2,3,3,4,4,5,5,6,6],"right_children":[2,4,6,8,10,12,14,-1,-1,-1,-1,-1,-1,-1,-1],"split_conditions":[4E0,3E0,7E0,1.786E-3,2E0,4E0,1.2E1,-6.592598E-3,9.446729E-2,-2.698789E-3,2.9311433E-2,-2.1121828E-3,-3.3255383E-2,5.5083022E-3,-1.2436028E-3],"split_indices":[2,3,2,1,2,3,2,0,0,0,0,0,0,0,0],"split_type":[0,0,0,0,0,0,0,0,0,0,0,0,0,0,0],"sum_hessian":[4.0688206E3,6.7697906E2,3.3918416E3,4.028921E2,2.7408694E2,5.0872064E2,2.8831208E3,3.933281E2,9.563984E0,1.3671205E2,1.3737491E2,4.064426E2,1.0227805E2,8.505698E2,2.032551E3],"tree_param":{"num_deleted":"0","num_feature":"4","num_nodes":"15","size_leaf_vector":"1"}},{"base_weights":[-9.3434566E-5,-1.23766184E-1,1.391547E-3,1.1418578E-1,-3.329623E-1,1.9970639E-1,-2.2361768E-4,-1.9218529E-2,6.5566145E-2,-7.959519E-2,1.3150808E-2,-4.275466E-2,3.4479484E-2,4.260504E-3,-6.2394404E-4],"categories":[],"categories_nodes":[],"categories_segments":[],"categories_sizes":[],"default_left":[0,0,0,0,0,0,0,0,0,0,0,0,0,0,0],"id":76,"left_children":[1,3,5,7,9,11,13,-1,-1,-1,-1,-1,-1,-1,-1],"loss_changes":[7.474306E-1,2.4417293E0,1.2882079E0,3.9972658E0,5.6855316E0,3.1042585E0,1.0283159E0,0E0,0E0,0E0,0E0,0E0,0E0,0E0,0E0],"parents":[2147483647,0,0,1,1,2,2,3,3,4,4,5,5,6,6],"right_children":[2,4,6,8,10,12,14,-1,-1,-1,-1,-1,-1,-1,-1],"split_conditions":[-3.6057844E0,5.33E-4,-3.209195E0,7E0,1.3E1,3E0,3E0,-1.9218529E-2,6.5566145E-2,-7.959519E-2,1.3150808E-2,-4.275466E-2,3.4479484E-2,4.260504E-3,-6.2394404E-4],"split_indices":[0,1,0,2,2,2,2,0,0,0,0,0,0,0,0],"split_type":[0,0,0,0,0,0,0,0,0,0,0,0,0,0,0],"sum_hessian":[4.0678877E3,4.7287987E1,4.0205996E3,2.2335943E1,2.4952045E1,3.149022E1,3.9891094E3,1.467678E1,7.6591625E0,1.2138534E1,1.2813512E1,5.549889E0,2.594033E1,4.9056076E2,3.4985488E3],"tree_param":{"num_deleted":"0","num_feature":"4","num_nodes":"15","size_leaf_vector":"1"}},{"base_weights":[-9.2501825E-5,-1.7615406E-2,1.0417445E-2,4.8342485E-2,-5.209227E-2,1.297932E-1,-8.050241E-3,-1.4080825E-2,1.2771845E-2,4.4124885E-3,-1.3080815E-2,2.5575245E-2,-6.9189244E-3,-5.6180526E-3,2.8144768E-3],"categories":[],"categories_nodes":[],"categories_segments":[],"categories_sizes":[],"default_left":[0,0,0,0,0,0,0,0,0,0,0,0,0,0,0],"id":77,"left_children":[1,3,5,7,9,11,13,-1,-1,-1,-1,-1,-1,-1,-1],"loss_changes":[7.4946547E-1,3.4720612E0,5.609114E0,7.8893194E0,7.5982575E0,8.561089E0,3.841018E0,0E0,0E0,0E0,0E0,0E0,0E0,0E0,0E0],"parents":[2147483647,0,0,1,1,2,2,3,3,4,4,5,5,6,6],"right_children":[2,4,6,8,10,12,14,-1,-1,-1,-1,-1,-1,-1,-1],"split_conditions":[9E0,4.825E-4,1.1E1,2E0,2E0,8.79E-4,8.185E-4,-1.4080825E-2,1.2771845E-2,4.4124885E-3,-1.3080815E-2,2.5575245E-2,-6.9189244E-3,-5.6180526E-3,2.8144768E-3],"split_indices":[2,1,2,3,3,1,1,0,0,0,0,0,0,0,0],"split_type":[0,0,0,0,0,0,0,0,0,0,0,0,0,0,0],"sum_hessian":[4.067541E3,1.5247302E3,2.5428108E3,5.232656E2,1.0014646E3,3.398675E2,2.2029434E3,1.5444751E2,3.6881808E2,4.50834E2,5.506306E2,2.0794775E2,1.3191974E2,9.45334E2,1.2576094E3],"tree_param":{"num_deleted":"0","num_feature":"4","num_nodes":"15","size_leaf_vector":"1"}},{"base_weights":[-8.136959E-5,-4.3788296E-3,4.689537E-2,-5.220884E-1,-3.0892866E-3,7.7249564E-2,-5.8177465E-1,1.8431101E-2,-7.347105E-2,3.9864887E-4,-7.5301826E-3,-2.1476824E-2,1.3191694E-2,-1.3426074E-1,6.0329463E-2],"categories":[],"categories_nodes":[],"categories_segments":[],"categories_sizes":[],"default_left":[0,0,0,0,0,0,0,0,0,0,0,0,0,0,0],"id":78,"left_children":[1,3,5,7,9,11,13,-1,-1,-1,-1,-1,-1,-1,-1],"loss_changes":[8.2132316E-1,2.4868054E0,6.551839E0,1.5255277E0,1.9006128E0,5.235103E0,1.5076314E1,0E0,0E0,0E0,0E0,0E0,0E0,0E0,0E0],"parents":[2147483647,0,0,1,1,2,2,3,3,4,4,5,5,6,6],"right_children":[2,4,6,8,10,12,14,-1,-1,-1,-1,-1,-1,-1,-1],"split_conditions":[2.2E1,2.69E-4,1.2605E-3,-1.3831742E0,2E1,-1.0127721E0,4E0,1.8431101E-2,-7.347105E-2,3.9864887E-4,-7.5301826E-3,-2.1476824E-2,1.3191694E-2,-1.3426074E-1,6.0329463E-2],"split_indices":[2,1,1,0,2,0,3,0,0,0,0,0,0,0,0],"split_type":[0,0,0,0,0,0,0,0,0,0,0,0,0,0,0],"sum_hessian":[4.0663425E3,3.7263599E3,3.3998285E2,8.255318E0,3.7181045E3,3.251602E2,1.4822649E1,1.9407308E0,6.3145866E0,3.3871572E3,3.309472E2,5.0811386E1,2.7434882E2,8.946148E0,5.8765006E0],"tree_param":{"num_deleted":"0","num_feature":"4","num_nodes":"15","size_leaf_vector":"1"}},{"base_weights":[-1.18232216E-4,-9.692537E-4,2.1726358E-1,2.1599198E-4,-2.952012E-1,-2.4038527E-2,7.617297E-1,-1.05687126E-4,3.229078E-2,-8.870637E-2,2.3353139E-2,-1.217069E-1,2.2692768E-2,3.193261E-2,9.1792E-2],"categories":[],"categories_nodes":[],"categories_segments":[],"categories_sizes":[],"default_left":[0,0,0,0,0,0,0,0,0,0,0,0,0,0,0],"id":79,"left_children":[1,3,5,7,9,11,13,-1,-1,-1,-1,-1,-1,-1,-1],"loss_changes":[7.5247353E-1,1.4129722E0,2.1022258E0,1.6581981E0,5.294193E0,3.8571591E0,4.5577288E-2,0E0,0E0,0E0,0E0,0E0,0E0,0E0,0E0],"parents":[2147483647,0,0,1,1,2,2,3,3,4,4,5,5,6,6],"right_children":[2,4,6,8,10,12,14,-1,-1,-1,-1,-1,-1,-1,-1],"split_conditions":[2.919E-3,2.539E-3,-1.4716043E-1,2.324E-3,4E0,1.2E1,1.1E1,-1.05687126E-4,3.229078E-2,-8.870637E-2,2.3353139E-2,-1.217069E-1,2.2692768E-2,3.193261E-2,9.1792E-2],"split_indices":[1,1,0,1,3,2,2,0,0,0,0,0,0,0,0],"split_type":[0,0,0,0,0,0,0,0,0,0,0,0,0,0,0],"sum_hessian":[4.0653613E3,4.0504998E3,1.4861637E1,4.035244E3,1.5255784E1,1.0960084E1,3.9015534E0,4.020382E3,1.4861742E1,6.878399E0,8.377385E0,1.2358115E0,9.724272E0,1.8124158E0,2.0891376E0],"tree_param":{"num_deleted":"0","num_feature":"4","num_nodes":"15","size_leaf_vector":"1"}},{"base_weights":[-1.0683781E-4,1.965273E-3,-8.54009E-2,3.384565E-2,-5.929149E-3,1.9650248E-1,-2.1741194E-1,6.7650634E-3,-9.118628E-3,-9.0521184E-4,1.5256918E-2,-3.1156858E-2,5.0706405E-2,-5.7454813E-2,-2.8754207E-3],"categories":[],"categories_nodes":[],"categories_segments":[],"categories_sizes":[],"default_left":[0,0,0,0,0,0,0,0,0,0,0,0,0,0,0],"id":80,"left_children":[1,3,5,7,9,11,13,-1,-1,-1,-1,-1,-1,-1,-1],"loss_changes":[7.188199E-1,9.9954027E-1,3.632506E0,3.3378658E0,1.5771526E0,5.0951977E0,4.4419203E0,0E0,0E0,0E0,0E0,0E0,0E0,0E0,0E0],"parents":[2147483647,0,0,1,1,2,2,3,3,4,4,5,5,6,6],"right_children":[2,4,6,8,10,12,14,-1,-1,-1,-1,-1,-1,-1,-1],"split_conditions":[3.1352003E0,1E0,5.16E-4,1.068E-3,2.105E-3,3.89E-4,7.265E-4,6.7650634E-3,-9.118628E-3,-9.0521184E-4,1.5256918E-2,-3.1156858E-2,5.0706405E-2,-5.7454813E-2,-2.8754207E-3],"split_indices":[0,3,1,1,1,1,1,0,0,0,0,0,0,0,0],"split_type":[0,0,0,0,0,0,0,0,0,0,0,0,0,0,0],"sum_hessian":[4.065183E3,3.9697207E3,9.546235E1,7.8724976E2,3.182471E3,3.02903E1,6.517205E1,6.20062E2,1.6718774E2,3.1219014E3,6.0569447E1,1.1489886E1,1.8800413E1,2.1820177E1,4.335187E1],"tree_param":{"num_deleted":"0","num_feature":"4","num_nodes":"15","size_leaf_vector":"1"}},{"base_weights":[-1.0396307E-4,-4.263953E-2,4.0660826E-3,1.084124E-2,-2.9105818E-1,1.1025086E-3,1.2781756E-1,6.434568E-3,-2.9917805E-2,-4.456381E-2,1.2735478E-2,5.006698E-4,-1.8462835E-2,2.3583362E-2,-3.6973607E-2],"categories":[],"categories_nodes":[],"categories_segments":[],"categories_sizes":[],"default_left":[0,0,0,0,0,0,0,0,0,0,0,0,0,0,0],"id":81,"left_children":[1,3,5,7,9,11,13,-1,-1,-1,-1,-1,-1,-1,-1],"loss_changes":[7.213417E-1,4.8270893E0,1.3581725E0,4.9911127E0,4.219264E0,2.6244903E0,4.7420497E0,0E0,0E0,0E0,0E0,0E0,0E0,0E0,0E0],"parents":[2147483647,0,0,1,1,2,2,3,3,4,4,5,5,6,6],"right_children":[2,4,6,8,10,12,14,-1,-1,-1,-1,-1,-1,-1,-1],"split_conditions":[-1.98151E0,-2.1186378E0,1.9995E-3,1.068E-3,1.6E1,1.6915E-3,1.9E1,6.434568E-3,-2.9917805E-2,-4.456381E-2,1.2735478E-2,5.006698E-4,-1.8462835E-2,2.3583362E-2,-3.6973607E-2],"split_indices":[0,0,1,1,2,1,2,0,0,0,0,0,0,0,0],"split_type":[0,0,0,0,0,0,0,0,0,0,0,0,0,0,0],"sum_hessian":[4.0647773E3,3.6209433E2,3.702683E3,2.9873712E2,6.3357216E1,3.6170713E3,8.561194E1,2.5544397E2,4.3293156E1,4.6217426E1,1.713979E1,3.5435562E3,7.351494E1,7.077344E1,1.4838497E1],"tree_param":{"num_deleted":"0","num_feature":"4","num_nodes":"15","size_leaf_vector":"1"}},{"base_weights":[-1.1605282E-4,1.0318438E-2,-1.5838189E-2,5.1609904E-4,2.4317901E-1,-8.600992E-2,2.0564573E-2,1.1435305E-3,-1.8743953E-2,-1.2010432E-2,4.294737E-2,-4.249467E-2,-2.4435278E-3,3.7001316E-2,-4.134629E-4],"categories":[],"categories_nodes":[],"categories_segments":[],"categories_sizes":[],"default_left":[0,0,0,0,0,0,0,0,0,0,0,0,0,0,0],"id":82,"left_children":[1,3,5,7,9,11,13,-1,-1,-1,-1,-1,-1,-1,-1],