{"learner":{"attributes":{},"feature_names":["z_score","atr","hour","day_of_week"],"feature_types":["float","float","int","int"],"gradient_booster":{"model":{"cats":{"enc":[],"feature_segments":[],"sorted_idx":[]},"gbtree_model_param":{"num_parallel_tree":"1","num_trees":"100"},"iteration_indptr":[0,1,2,3,4,5,6,7,8,9,10,11,12,13,14,15,16,17,18,19,20,21,22,23,24,25,26,27,28,29,30,31,32,33,34,35,36,37,38,39,40,41,42,43,44,45,46,47,48,49,50,51,52,53,54,55,56,57,58,59,60,61,62,63,64,65,66,67,68,69,70,71,72,73,74,75,76,77,78,79,80,81,82,83,84,85,86,87,88,89,90,91,92,93,94,95,96,97,98,99,100],"tree_info":[0,0,0,0,0,0,0,0,0,0,0,0,0,0,0,0,0,0,0,0,0,0,0,0,0,0,0,0,0,0,0,0,0,0,0,0,0,0,0,0,0,0,0,0,0,0,0,0,0,0,0,0,0,0,0,0,0,0,0,0,0,0,0,0,0,0,0,0,0,0,0,0,0,0,0,0,0,0,0,0,0,0,0,0,0,0,0,0,0,0,0,0,0,0,0,0,0,0,0,0],"trees":[{"base_weights":[7.4158066E-8,-8.378179E-2,3.470996E-2,-6.1170056E-2,-2.6993987E-1,5.5401936E-2,-6.4334124E-2,4.9262713E-3,-7.3331357E-3,-3.8433917E-2,-7.0701377E-3,1.8157918E-3,8.6025065E-3,-2.008267E-2,3.5120398E-3],"categories":[],"categories_nodes":[],"categories_segments":[],"categories_sizes":[],"default_left":[0,0,0,0,0,0,0,0,0,0,0,0,0,0,0],"id":0,"left_children":[1,3,5,7,9,11,13,-1,-1,-1,-1,-1,-1,-1,-1],"loss_changes":[1.796112E2,7.6140724E1,8.9503494E1,2.167178E1,4.4630173E1,4.1199463E1,1.0246115E2,0E0,0E0,0E0,0E0,0E0,0E0,0E0,0E0],"parents":[2147483647,0,0,1,1,2,2,3,3,4,4,5,5,6,6],"right_children":[2,4,6,8,10,12,14,-1,-1,-1,-1,-1,-1,-1,-1],"split_conditions":[-9.267106E-1,2.1E1,2E1,2E0,2.3E1,9E0,4.8188362E-1,4.9262713E-3,-7.3331357E-3,-3.8433917E-2,-7.0701377E-3,1.8157918E-3,8.6025065E-3,-2.008267E-2,3.5120398E-3],"split_indices":[0,2,2,2,2,2,0,0,0,0,0,0,0,0,0],"split_type":[0,0,0,0,0,0,0,0,0,0,0,0,0,0,0],"sum_hessian":[6.176126E4,1.8091361E4,4.36699E4,1.6133082E4,1.9582803E3,3.6123527E4,7.5463726E3,1.6000947E3,1.4532987E4,1.2434081E3,7.148722E2,1.6300435E4,1.9823092E4,3.1804568E3,4.365916E3],"tree_param":{"num_deleted":"0","num_feature":"4","num_nodes":"15","size_leaf_vector":"1"}},{"base_weights":[-2.1595072E-6,-7.543021E-2,3.123522E-2,-5.5064544E-2,-2.4323827E-1,4.9853884E-2,-5.7919346E-2,-2.814405E-3,-9.660036E-3,-3.464839E-2,-6.3655884E-3,1.634156E-3,7.7403644E-3,-1.7087327E-2,4.1323863E-3],"categories":[],"categories_nodes":[],"categories_segments":[],"categories_sizes":[],"default_left":[0,0,0,0,0,0,0,0,0,0,0,0,0,0,0],"id":1,"left_children":[1,3,5,7,9,11,13,-1,-1,-1,-1,-1,-1,-1,-1],"loss_changes":[1.4552179E2,6.180004E1,7.250018E1,1.8034344E1,3.626747E1,3.3356056E1,8.4592575E1,0E0,0E0,0E0,0E0,0E0,0E0,0E0,0E0],"parents":[2147483647,0,0,1,1,2,2,3,3,4,4,5,5,6,6],"right_children":[2,4,6,8,10,12,14,-1,-1,-1,-1,-1,-1,-1,-1],"split_conditions":[-9.267106E-1,2.1E1,2E1,1.935E-4,2.3E1,9E0,6.2321854E-1,-2.814405E-3,-9.660036E-3,-3.464839E-2,-6.3655884E-3,1.634156E-3,7.7403644E-3,-1.7087327E-2,4.1323863E-3],"split_indices":[0,2,2,1,2,2,0,0,0,0,0,0,0,0,0],"split_type":[0,0,0,0,0,0,0,0,0,0,0,0,0,0,0],"sum_hessian":[6.1759887E4,1.8086205E4,4.367368E4,1.6129955E4,1.9562491E3,3.612908E4,7.5446025E3,9.787856E3,6.342099E3,1.2415355E3,7.147137E2,1.63013E4,1.9827777E4,3.5282236E3,4.016379E3],"tree_param":{"num_deleted":"0","num_feature":"4","num_nodes":"15","size_leaf_vector":"1"}},{"base_weights":[-4.4252793E-6,-6.791456E-2,2.8109228E-2,-4.5807898E-2,-1.9561192E-1,4.7576405E-2,-4.303792E-2,4.867849E-3,-5.6755776E-3,-2.4617165E-2,-5.731271E-3,-1.0865573E-1,4.8526083E-3,-1.3633335E-2,2.495411E-3],"categories":[],"categories_nodes":[],"categories_segments":[],"categories_sizes":[],"default_left":[0,0,0,0,0,0,0,0,0,0,0,0,0,0,0],"id":2,"left_children":[1,3,5,7,9,11,13,-1,-1,-1,-1,-1,-1,-1,-1],"loss_changes":[1.1790924E2,5.103443E1,6.0496044E1,1.594791E1,1.8641472E1,3.6989403E1,5.9528557E1,0E0,0E0,0E0,0E0,0E0,0E0,0E0,0E0],"parents":[2147483647,0,0,1,1,2,2,3,3,4,4,5,5,6,6],"right_children":[2,4,6,8,10,12,14,-1,-1,-1,-1,-1,-1,-1,-1],"split_conditions":[-9.267106E-1,2E1,1.9E1,2E0,2.3E1,4E-5,4.8188362E-1,4.867849E-3,-5.6755776E-3,-2.4617165E-2,-5.731271E-3,-1.0865573E-1,4.8526083E-3,-1.3633335E-2,2.495411E-3],"split_indices":[0,2,2,2,2,1,0,0,0,0,0,0,0,0,0],"split_type":[0,0,0,0,0,0,0,0,0,0,0,0,0,0,0],"sum_hessian":[6.175639E4,1.8080498E4,4.367589E4,1.5413507E4,2.6669907E3,3.4293016E4,9.382874E3,1.6001191E3,1.3813388E4,1.9524352E3,7.145556E2,2.773508E1,3.426528E4,3.9550027E3,5.4278716E3],"tree_param":{"num_deleted":"0","num_feature":"4","num_nodes":"15","size_leaf_vector":"1"}},{"base_weights":[-7.5514167E-6,-4.057847E-2,3.8680047E-2,-1.8645402E-2,-2.0947552E-1,3.598033E-2,2.7272114E-1,-1.4837782E-1,-1.7753892E-3,-2.7001128E-2,-9.305995E-3,4.0830667E-3,-6.845115E-3,4.4267856E-2,-4.515872E-3],"categories":[],"categories_nodes":[],"categories_segments":[],"categories_sizes":[],"default_left":[0,0,0,0,0,0,0,0,0,0,0,0,0,0,0],"id":3,"left_children":[1,3,5,7,9,11,13,-1,-1,-1,-1,-1,-1,-1,-1],"loss_changes":[9.6928795E1,1.1166016E2,1.9963299E1,3.4822533E1,2.4389786E1,1.5832523E1,1.948705E1,0E0,0E0,0E0,0E0,0E0,0E0,0E0,0E0],"parents":[2147483647,0,0,1,1,2,2,3,3,4,4,5,5,6,6],"right_children":[2,4,6,8,10,12,14,-1,-1,-1,-1,-1,-1,-1,-1],"split_conditions":[-1.7103793E-2,2.1E1,6.425E-4,3.2E-5,2.3E1,2.3E1,8.305E-4,-1.4837782E-1,-1.7753892E-3,-2.7001128E-2,-9.305995E-3,4.0830667E-3,-6.845115E-3,4.4267856E-2,-4.515872E-3],"split_indices":[0,2,1,1,2,2,1,0,0,0,0,0,0,0,0],"split_type":[0,0,0,0,0,0,0,0,0,0,0,0,0,0,0],"sum_hessian":[6.1752152E4,3.0142385E4,3.160977E4,2.6678951E4,3.4634333E3,3.1250441E4,3.593274E2,1.5212365E1,2.6663738E4,2.2777112E3,1.1857222E3,2.9864012E4,1.3864303E3,2.3388567E2,1.2544173E2],"tree_param":{"num_deleted":"0","num_feature":"4","num_nodes":"15","size_leaf_vector":"1"}},{"base_weights":[-1.0647728E-5,-5.7301234E-2,2.3692593E-2,-3.3581283E-2,-1.3657501E-1,4.0149853E-2,-3.6489055E-2,9.011903E-4,-7.301307E-3,-9.523663E-3,-1.9947601E-2,7.3321286E-4,6.988633E-3,-1.1314064E-2,2.1970521E-3],"categories":[],"categories_nodes":[],"categories_segments":[],"categories_sizes":[],"default_left":[0,0,0,0,0,0,0,0,0,0,0,0,0,0,0],"id":4,"left_children":[1,3,5,7,9,11,13,-1,-1,-1,-1,-1,-1,-1,-1],"loss_changes":[8.385457E1,3.3976315E1,4.3261673E1,2.3364178E1,1.0802101E1,3.347181E1,4.2034126E1,0E0,0E0,0E0,0E0,0E0,0E0,0E0,0E0],"parents":[2147483647,0,0,1,1,2,2,3,3,4,4,5,5,6,6],"right_children":[2,4,6,8,10,12,14,-1,-1,-1,-1,-1,-1,-1,-1],"split_conditions":[-9.267106E-1,1.8E1,1.9E1,1.73E-4,3E0,9E0,5.177719E-1,9.011903E-4,-7.301307E-3,-9.523663E-3,-1.9947601E-2,7.3321286E-4,6.988633E-3,-1.1314064E-2,2.1970521E-3],"split_indices":[0,2,2,1,3,2,0,0,0,0,0,0,0,0,0],"split_type":[0,0,0,0,0,0,0,0,0,0,0,0,0,0,0],"sum_hessian":[6.1747824E4,1.8070389E4,4.3677438E4,1.3909787E4,4.160602E3,3.4298508E4,9.378929E3,6.6872095E3,7.222577E3,2.512142E3,1.6484601E3,1.630512E4,1.7993387E4,4.0576477E3,5.321281E3],"tree_param":{"num_deleted":"0","num_feature":"4","num_nodes":"15","size_leaf_vector":"1"}},{"base_weights":[-1.1108104E-5,-5.159062E-2,2.1322783E-2,-3.7502084E-2,-1.6820252E-1,3.428319E-2,-4.0823594E-2,-7.832142E-3,-1.6963398E-3,-2.4875158E-2,-2.8951003E-3,-8.5518196E-2,3.5091122E-3,-1.1962115E-2,3.4862447E-3],"categories":[],"categories_nodes":[],"categories_segments":[],"categories_sizes":[],"default_left":[0,0,0,0,0,0,0,0,0,0,0,0,0,0,0],"id":5,"left_children":[1,3,5,7,9,11,13,-1,-1,-1,-1,-1,-1,-1,-1],"loss_changes":[6.7942955E1,2.9674019E1,3.518186E1,1.3513134E1,2.1832424E1,2.6002449E1,4.4957443E1,0E0,0E0,0E0,0E0,0E0,0E0,0E0,0E0],"parents":[2147483647,0,0,1,1,2,2,3,3,4,4,5,5,6,6],"right_children":[2,4,6,8,10,12,14,-1,-1,-1,-1,-1,-1,-1,-1],"split_conditions":[-9.267106E-1,2.1E1,2E1,-1.9411541E0,2.3E1,3.7E-5,6.9309515E-1,-7.832142E-3,-1.6963398E-3,-2.4875158E-2,-2.8951003E-3,-8.5518196E-2,3.5091122E-3,-1.1962115E-2,3.4862447E-3],"split_indices":[0,2,2,0,2,1,0,0,0,0,0,0,0,0,0],"split_type":[0,0,0,0,0,0,0,0,0,0,0,0,0,0,0],"sum_hessian":[6.174234E4,1.806491E4,4.367743E4,1.6118825E4,1.9460842E3,3.6140832E4,7.536596E3,5.394596E3,1.0724229E4,1.2324156E3,7.136685E2,3.1838413E1,3.6108996E4,3.692115E3,3.8444812E3],"tree_param":{"num_deleted":"0","num_feature":"4","num_nodes":"15","size_leaf_vector":"1"}},{"base_weights":[-1.3275087E-5,-3.4641914E-2,2.6042895E-2,-1.720841E-2,-1.7097132E-1,2.3412723E-2,2.4682868E-1,-7.051582E-3,-1.3317757E-4,-2.3503503E-2,-5.1025655E-3,4.364713E-4,5.1385257E-3,4.994597E-2,1.18345395E-2],"categories":[],"categories_nodes":[],"categories_segments":[],"categories_sizes":[],"default_left":[0,0,0,0,0,0,0,0,0,0,0,0,0,0,0],"id":6,"left_children":[1,3,5,7,9,11,13,-1,-1,-1,-1,-1,-1,-1,-1],"loss_changes":[5.5705563E1,6.299949E1,2.0452229E1,1.9892328E1,2.3081863E1,1.8550467E1,1.3399544E1,0E0,0E0,0E0,0E0,0E0,0E0,0E0,0E0],"parents":[2147483647,0,0,1,1,2,2,3,3,4,4,5,5,6,6],"right_children":[2,4,6,8,10,12,14,-1,-1,-1,-1,-1,-1,-1,-1],"split_conditions":[-2.9717672E-1,2.1E1,6.425E-4,-1.9411541E0,2.3E1,3E0,7.105E-4,-7.051582E-3,-1.3317757E-4,-2.3503503E-2,-5.1025655E-3,4.364713E-4,5.1385257E-3,4.994597E-2,1.18345395E-2],"split_indices":[0,2,1,0,2,3,1,0,0,0,0,0,0,0,0],"split_type":[0,0,0,0,0,0,0,0,0,0,0,0,0,0,0],"sum_hessian":[6.1736E4,2.6507377E4,3.522862E4,2.3502994E4,3.0043843E3,3.4814984E4,4.136373E2,5.392773E3,1.811022E4,1.9577688E3,1.0466156E3,2.0712133E4,1.4102853E4,1.3847421E2,2.751631E2],"tree_param":{"num_deleted":"0","num_feature":"4","num_nodes":"15","size_leaf_vector":"1"}},{"base_weights":[-1.2502217E-5,-2.8005192E-2,2.6652323E-2,-1.2546619E-2,-1.4762846E-1,6.561535E-4,4.227703E-2,-1.333171E-1,-1.1756099E-3,-1.931212E-2,-6.0607735E-3,2.9481703E-3,-1.251542E-2,1.0173948E-2,2.1742631E-3],"categories":[],"categories_nodes":[],"categories_segments":[],"categories_sizes":[],"default_left":[0,0,0,0,0,0,0,0,0,0,0,0,0,0,0],"id":7,"left_children":[1,3,5,7,9,11,13,-1,-1,-1,-1,-1,-1,-1,-1],"loss_changes":[4.6078365E1,5.5689484E1,1.2841885E1,2.7828312E1,1.3631859E1,4.3050423E1,2.4109661E1,0E0,0E0,0E0,0E0,0E0,0E0,0E0,0E0],"parents":[2147483647,0,0,1,1,2,2,3,3,4,4,5,5,6,6],"right_children":[2,4,6,8,10,12,14,-1,-1,-1,-1,-1,-1,-1,-1],"split_conditions":[-1.7103793E-2,2.1E1,9E0,3.2E-5,2.3E1,2.305E-4,1.3E1,-1.333171E-1,-1.1756099E-3,-1.931212E-2,-6.0607735E-3,2.9481703E-3,-1.251542E-2,1.0173948E-2,2.1742631E-3],"split_indices":[0,2,2,1,2,1,2,0,0,0,0,0,0,0,0],"split_type":[0,0,0,0,0,0,0,0,0,0,0,0,0,0,0],"sum_hessian":[6.1730477E4,3.0115365E4,3.161511E4,2.6669984E4,3.4453809E3,1.1868877E4,1.9746232E4,1.49466915E1,2.6655037E4,2.2617588E3,1.1836222E3,9.657032E3,2.2118445E3,5.067648E3,1.4678585E4],"tree_param":{"num_deleted":"0","num_feature":"4","num_nodes":"15","size_leaf_vector":"1"}},{"base_weights":[-1.5021422E-5,-3.98363E-2,1.6442174E-2,-2.0495107E-2,-9.161942E-2,2.8888764E-2,-2.9116884E-2,1.8723082E-3,-5.5722324E-3,-1.3369511E-2,-3.9405855E-3,-1.125371E-1,2.954919E-3,-6.5739773E-4,-1.5252935E-2],"categories":[],"categories_nodes":[],"categories_segments":[],"categories_sizes":[],"default_left":[0,0,0,0,0,0,0,0,0,0,0,0,0,0,0],"id":8,"left_children":[1,3,5,7,9,11,13,-1,-1,-1,-1,-1,-1,-1,-1],"loss_changes":[4.045231E1,1.8076408E1,2.476767E1,1.8158892E1,1.07777405E1,2.618391E1,2.6073584E1,0E0,0E0,0E0,0E0,0E0,0E0,0E0,0E0],"parents":[2147483647,0,0,1,1,2,2,3,3,4,4,5,5,6,6],"right_children":[2,4,6,8,10,12,14,-1,-1,-1,-1,-1,-1,-1,-1],"split_conditions":[-9.267106E-1,1.7E1,1.9E1,1.72E-4,1.24E-4,3.7E-5,1.745E-4,1.8723082E-3,-5.5722324E-3,-1.3369511E-2,-3.9405855E-3,-1.125371E-1,2.954919E-3,-6.5739773E-4,-1.5252935E-2],"split_indices":[0,2,2,1,1,1,1,0,0,0,0,0,0,0,0],"split_type":[0,0,0,0,0,0,0,0,0,0,0,0,0,0,0],"sum_hessian":[6.1724598E4,1.804936E4,4.367524E4,1.3142122E4,4.907237E3,3.430389E4,9.371349E3,6.2190117E3,6.9231104E3,2.7165642E3,2.1906729E3,1.864234E1,3.4285246E4,7.924828E3,1.4465206E3],"tree_param":{"num_deleted":"0","num_feature":"4","num_nodes":"15","size_leaf_vector":"1"}},{"base_weights":[-1.6746006E-5,-2.2236453E-2,2.3966022E-2,-8.397413E-3,-1.2889361E-1,6.364779E-2,1.1563489E-2,-1.1934995E-1,-7.707148E-4,-1.6820142E-2,-5.3299936E-3,3.807808E-3,1.7679213E-2,1.6516804E-3,-2.1519775E-2],"categories":[],"categories_nodes":[],"categories_segments":[],"categories_sizes":[],"default_left":[0,0,0,0,0,0,0,0,0,0,0,0,0,0,0],"id":9,"left_children":[1,3,5,7,9,11,13,-1,-1,-1,-1,-1,-1,-1,-1],"loss_changes":[3.28908E1,4.728865E1,1.4607956E1,2.3190178E1,1.0924545E1,2.0441631E1,2.5406399E1,0E0,0E0,0E0,0E0,0E0,0E0,0E0,0E0],"parents":[2147483647,0,0,1,1,2,2,3,3,4,4,5,5,6,6],"right_children":[2,4,6,8,10,12,14,-1,-1,-1,-1,-1,-1,-1,-1],"split_conditions":[1.3172406E-1,2.1E1,1.05E-4,3.2E-5,2.3E1,4E0,2.3E1,-1.1934995E-1,-7.707148E-4,-1.6820142E-2,-5.3299936E-3,3.807808E-3,1.7679213E-2,1.6516804E-3,-2.1519775E-2],"split_indices":[0,2,1,1,2,3,2,0,0,0,0,0,0,0,0],"split_type":[0,0,0,0,0,0,0,0,0,0,0,0,0,0,0],"sum_hessian":[6.171955E4,3.2037404E4,2.9682146E4,2.835885E4,3.6785547E3,7.067053E3,2.2615092E4,1.5502166E1,2.8343348E4,2.419315E3,1.2592397E3,5.7654453E3,1.3016078E3,2.2132562E4,4.825309E2],"tree_param":{"num_deleted":"0","num_feature":"4","num_nodes":"15","size_leaf_vector":"1"}},{"base_weights":[-1.8614477E-5,-3.378911E-2,1.3931551E-2,5.5875644E-2,-4.2516567E-2,2.4591431E-2,-2.5103163E-2,2.0019857E-2,-4.539446E-3,-1.8863572E-2,-3.5697364E-3,-3.39692E-4,4.995285E-3,-5.4205017E-4,-1.3293493E-2],"categories":[],"categories_nodes":[],"categories_segments":[],"categories_sizes":[],"default_left":[0,0,0,0,0,0,0,0,0,0,0,0,0,0,0],"id":10,"left_children":[1,3,5,7,9,11,13,-1,-1,-1,-1,-1,-1,-1,-1],"loss_changes":[2.907458E1,1.4120567E1,1.8173801E1,2.3404488E1,1.6376E1,2.4351725E1,1.9884224E1,0E0,0E0,0E0,0E0,0E0,0E0,0E0,0E0],"parents":[2147483647,0,0,1,1,2,2,3,3,4,4,5,5,6,6],"right_children":[2,4,6,8,10,12,14,-1,-1,-1,-1,-1,-1,-1,-1],"split_conditions":[-9.267106E-1,2E0,1.9E1,2E0,3E0,9E0,1.745E-4,2.0019857E-2,-4.539446E-3,-1.8863572E-2,-3.5697364E-3,-3.39692E-4,4.995285E-3,-5.4205017E-4,-1.3293493E-2],"split_indices":[0,2,2,3,2,2,1,0,0,0,0,0,0,0,0],"split_type":[0,0,0,0,0,0,0,0,0,0,0,0,0,0,0],"sum_hessian":[6.1713844E4,1.8040373E4,4.3673473E4,1.5997145E3,1.6440658E4,3.4305457E4,9.368013E3,6.592383E2,9.4047626E2,7.3186597E2,1.5708792E4,1.6308543E4,1.7996916E4,7.922888E3,1.4451239E3],"tree_param":{"num_deleted":"0","num_feature":"4","num_nodes":"15","size_leaf_vector":"1"}},{"base_weights":[-1.7402848E-5,1.15621295E-2,-3.5082918E-2,-5.684058E-2,1.8194394E-2,-7.4399784E-2,2.2593612E-2,6.144723E-4,-1.7883582E-2,-6.1826175E-4,4.257557E-3,-2.1660512E-2,-5.5454127E-3,3.8227278E-3,-1.7152183E-2],"categories":[],"categories_nodes":[],"categories_segments":[],"categories_sizes":[],"default_left":[0,0,0,0,0,0,0,0,0,0,0,0,0,0,0],"id":11,"left_children":[1,3,5,7,9,11,13,-1,-1,-1,-1,-1,-1,-1,-1],"loss_changes":[2.5057472E1,2.1047342E1,3.474166E1,3.1510965E1,2.513609E1,2.4531982E1,1.885445E1,0E0,0E0,0E0,0E0,0E0,0E0,0E0,0E0],"parents":[2147483647,0,0,1,1,2,2,3,3,4,4,5,5,6,6],"right_children":[2,4,6,8,10,12,14,-1,-1,-1,-1,-1,-1,-1,-1],"split_conditions":[1.8E1,-2.032846E0,5.5494636E-1,2.09E-4,9E0,5.3E-5,2.53E-4,6.144723E-4,-1.7883582E-2,-6.1826175E-4,4.257557E-3,-2.1660512E-2,-5.5454127E-3,3.8227278E-3,-1.7152183E-2],"split_indices":[2,0,0,1,2,1,1,0,0,0,0,0,0,0,0],"split_type":[0,0,0,0,0,0,0,0,0,0,0,0,0,0,0],"sum_hessian":[6.1709492E4,4.6390746E4,1.5318743E4,4.0997617E3,4.2290984E4,9.109024E3,6.2097188E3,2.704432E3,1.39533E3,2.114767E4,2.1143314E4,1.0696726E3,8.039352E3,5.74762E3,4.6209866E2],"tree_param":{"num_deleted":"0","num_feature":"4","num_nodes":"15","size_leaf_vector":"1"}},{"base_weights":[-1.7378961E-5,-2.842114E-2,1.1711923E-2,-2.1167142E-2,-1.1626589E-1,9.500075E-3,1.9034636E-1,7.000836E-3,-3.045324E-3,-9.563757E-3,-7.083272E-2,-1.1557948E-2,1.1975967E-3,2.922731E-2,-8.59598E-4],"categories":[],"categories_nodes":[],"categories_segments":[],"categories_sizes":[],"default_left":[0,0,0,0,0,0,0,0,0,0,0,0,0,0,0],"id":12,"left_children":[1,3,5,7,9,11,13,-1,-1,-1,-1,-1,-1,-1,-1],"loss_changes":[2.0557577E1,1.1489315E1,1.7253319E1,1.4107296E1,1.6730225E1,1.3360622E1,1.0832199E1,0E0,0E0,0E0,0E0,0E0,0E0,0E0,0E0],"parents":[2147483647,0,0,1,1,2,2,3,3,4,4,5,5,6,6],"right_children":[2,4,6,8,10,12,14,-1,-1,-1,-1,-1,-1,-1,-1],"split_conditions":[-9.267106E-1,3.54E-4,6.425E-4,2E0,2.2E1,4.5E-5,8.305E-4,7.000836E-3,-3.045324E-3,-9.563757E-3,-7.083272E-2,-1.1557948E-2,1.1975967E-3,2.922731E-2,-8.59598E-4],"split_indices":[0,1,1,2,2,1,1,0,0,0,0,0,0,0,0],"split_type":[0,0,0,0,0,0,0,0,0,0,0,0,0,0,0],"sum_hessian":[6.170351E4,1.8033074E4,4.3670438E4,1.6658682E4,1.3743907E3,4.3137363E4,5.33073E2,1.5392292E3,1.5119453E4,1.3292396E3,4.5151222E1,8.364233E2,4.230094E4,3.5217133E2,1.8090169E2],"tree_param":{"num_deleted":"0","num_feature":"4","num_nodes":"15","size_leaf_vector":"1"}},{"base_weights":[-1.6982478E-5,1.015164E-2,-3.0822618E-2,5.6458686E-2,2.4279556E-3,-6.52204E-2,2.0416424E-2,9.560149E-4,1.1259902E-2,-3.286639E-3,2.8911883E-3,-1.9279918E-2,-4.8270924E-3,1.0180342E-2,-1.8525083E-3],"categories":[],"categories_nodes":[],"categories_segments":[],"categories_sizes":[],"default_left":[0,0,0,0,0,0,0,0,0,0,0,0,0,0,0],"id":13,"left_children":[1,3,5,7,9,11,13,-1,-1,-1,-1,-1,-1,-1,-1],"loss_changes":[1.9328222E1,1.6591541E1,2.6990036E1,1.7458498E1,3.7165066E1,1.9803093E1,1.9497726E1,0E0,0E0,0E0,0E0,0E0,0E0,0E0,0E0],"parents":[2147483647,0,0,1,1,2,2,3,3,4,4,5,5,6,6],"right_children":[2,4,6,8,10,12,14,-1,-1,-1,-1,-1,-1,-1,-1],"split_conditions":[1.8E1,1.035E-4,5.722839E-1,3E0,9E0,5.3E-5,8E-5,9.560149E-4,1.1259902E-2,-3.286639E-3,2.8911883E-3,-1.9279918E-2,-4.8270924E-3,1.0180342E-2,-1.8525083E-3],"split_indices":[2,1,0,3,2,1,1,0,0,0,0,0,0,0,0],"split_type":[0,0,0,0,0,0,0,0,0,0,0,0,0,0,0],"sum_hessian":[6.170005E4,4.638839E4,1.5311658E4,6.630311E3,3.975808E4,9.161254E3,6.1504043E3,3.6131372E3,3.0171738E3,1.7043916E4,2.2714164E4,1.0731647E3,8.0880894E3,1.9899121E3,4.1604917E3],"tree_param":{"num_deleted":"0","num_feature":"4","num_nodes":"15","size_leaf_vector":"1"}},{"base_weights":[-1.6024089E-5,-1.5669756E-2,1.6867887E-2,-5.530237E-3,-9.410895E-2,5.259801E-2,5.699408E-3,1.0272798E-2,-1.1729382E-3,-1.6385812E-2,-5.834302E-3,3.04862E-3,1.5042387E-2,-3.732865E-3,2.46693E-3],"categories":[],"categories_nodes":[],"categories_segments":[],"categories_sizes":[],"default_left":[0,0,0,0,0,0,0,0,0,0,0,0,0,0,0],"id":14,"left_children":[1,3,5,7,9,11,13,-1,-1,-1,-1,-1,-1,-1,-1],"loss_changes":[1.630633E1,2.5462076E1,1.1844441E1,1.9027966E1,9.132442E0,1.5285213E1,1.8459991E1,0E0,0E0,0E0,0E0,0E0,0E0,0E0,0E0],"parents":[2147483647,0,0,1,1,2,2,3,3,4,4,5,5,6,6],"right_children":[2,4,6,8,10,12,14,-1,-1,-1,-1,-1,-1,-1,-1],"split_conditions":[1.3172406E-1,2.1E1,1.05E-4,7.55E-5,2.2E1,4E0,8E0,1.0272798E-2,-1.1729382E-3,-1.6385812E-2,-5.834302E-3,3.04862E-3,1.5042387E-2,-3.732865E-3,2.46693E-3],"split_indices":[0,2,1,1,2,3,2,0,0,0,0,0,0,0,0],"split_type":[0,0,0,0,0,0,0,0,0,0,0,0,0,0,0],"sum_hessian":[6.1695168E4,3.2013902E4,2.9681264E4,2.835025E4,3.6636523E3,7.0674424E3,2.2613822E4,1.5346394E3,2.6815611E4,1.2406361E3,2.4230164E3,5.7655527E3,1.3018898E3,6.918993E3,1.5694829E4],"tree_param":{"num_deleted":"0","num_feature":"4","num_nodes":"15","size_leaf_vector":"1"}},{"base_weights":[-1.4862551E-5,8.99616E-3,-2.732891E-2,-4.939766E-2,1.465533E-2,-5.1921166E-2,2.1508383E-2,6.040919E-4,-1.5692415E-2,-1.1114285E-1,1.5011517E-3,-1.6501877E-2,-3.8410518E-3,4.3117288E-3,-1.7754667E-2],"categories":[],"categories_nodes":[],"categories_segments":[],"categories_sizes":[],"default_left":[0,0,0,0,0,0,0,0,0,0,0,0,0,0,0],"id":15,"left_children":[1,3,5,7,9,11,13,-1,-1,-1,-1,-1,-1,-1,-1],"loss_changes":[1.5184184E1,1.53303175E1,1.8381258E1,2.443391E1,1.6979378E1,1.5546932E1,2.2056835E1,0E0,0E0,0E0,0E0,0E0,0E0,0E0,0E0],"parents":[2147483647,0,0,1,1,2,2,3,3,4,4,5,5,6,6],"right_children":[2,4,6,8,10,12,14,-1,-1,-1,-1,-1,-1,-1,-1],"split_conditions":[1.8E1,-2.032846E0,8.4785855E-1,2.09E-4,4E-5,5.1E-5,2.245E-4,6.040919E-4,-1.5692415E-2,-1.1114285E-1,1.5011517E-3,-1.6501877E-2,-3.8410518E-3,4.3117288E-3,-1.7754667E-2],"split_indices":[2,0,0,1,1,1,1,0,0,0,0,0,0,0,0],"split_type":[0,0,0,0,0,0,0,0,0,0,0,0,0,0,0],"sum_hessian":[6.1690355E4,4.6387566E4,1.5302788E4,4.097723E3,4.2289844E4,1.0177696E4,5.125092E3,2.704354E3,1.3933689E3,1.238593E1,4.2277457E4,1.0848877E3,9.092809E3,4.6239146E3,5.0117694E2],"tree_param":{"num_deleted":"0","num_feature":"4","num_nodes":"15","size_leaf_vector":"1"}},{"base_weights":[-1.6706717E-5,8.093472E-3,-2.460741E-2,2.1716101E-2,-1.4410722E-2,-5.0487444E-2,1.3884538E-2,3.541217E-4,5.008967E-3,-1.3456593E-2,-9.992922E-5,-1.5397764E-2,-3.6793572E-3,8.499737E-3,-2.0147383E-3],"categories":[],"categories_nodes":[],"categories_segments":[],"categories_sizes":[],"default_left":[0,0,0,0,0,0,0,0,0,0,0,0,0,0,0],"id":16,"left_children":[1,3,5,7,9,11,13,-1,-1,-1,-1,-1,-1,-1,-1],"loss_changes":[1.23025675E1,1.4221317E1,1.5241227E1,1.4901364E1,2.8188215E1,1.2959379E1,1.4889254E1,0E0,0E0,0E0,0E0,0E0,0E0,0E0,0E0],"parents":[2147483647,0,0,1,1,2,2,3,3,4,4,5,5,6,6],"right_children":[2,4,6,8,10,12,14,-1,-1,-1,-1,-1,-1,-1,-1],"split_conditions":[1.8E1,2.08E-4,5.722839E-1,9E0,-1.8861349E0,5.3E-5,8E-5,3.541217E-4,5.008967E-3,-1.3456593E-2,-9.992922E-5,-1.5397764E-2,-3.6793572E-3,8.499737E-3,-2.0147383E-3],"split_indices":[2,1,0,2,0,1,1,0,0,0,0,0,0,0,0],"split_type":[0,0,0,0,0,0,0,0,0,0,0,0,0,0,0],"sum_hessian":[6.16851E4,4.638702E4,1.5298078E4,2.889552E4,1.7491502E4,9.147472E3,6.150607E3,1.7613924E4,1.1281596E4,1.7554153E3,1.5736087E4,1.0677565E3,8.0797153E3,1.9902659E3,4.1603413E3],"tree_param":{"num_deleted":"0","num_feature":"4","num_nodes":"15","size_leaf_vector":"1"}},{"base_weights":[-1.5956988E-5,-2.1158408E-2,8.228941E-3,-1.445576E-2,-1.1256543E-1,6.3649127E-3,1.5805684E-1,-2.2206157E-3,9.434966E-3,1.1226773E-2,-1.5911406E-2,9.5391617E-4,-6.441932E-3,-3.400469E-2,1.9676238E-2],"categories":[],"categories_nodes":[],"categories_segments":[],"categories_sizes":[],"default_left":[0,0,0,0,0,0,0,0,0,0,0,0,0,0,0],"id":17,"left_children":[1,3,5,7,9,11,13,-1,-1,-1,-1,-1,-1,-1,-1],"loss_changes":[1.0752161E1,1.0600817E1,1.2392531E1,1.3599411E1,1.2389519E1,9.849068E0,1.0579253E1,0E0,0E0,0E0,0E0,0E0,0E0,0E0,0E0],"parents":[2147483647,0,0,1,1,2,2,3,3,4,4,5,5,6,6],"right_children":[2,4,6,8,10,12,14,-1,-1,-1,-1,-1,-1,-1,-1],"split_conditions":[-9.787492E-1,3.67E-4,6.425E-4,2.93E-4,8E0,2.3E1,-7.6752937E-1,-2.2206157E-3,9.434966E-3,1.1226773E-2,-1.5911406E-2,9.5391617E-4,-6.441932E-3,-3.400469E-2,1.9676238E-2],"split_indices":[0,1,1,1,2,2,0,0,0,0,0,0,0,0,0],"split_type":[0,0,0,0,0,0,0,0,0,0,0,0,0,0,0],"sum_hessian":[6.1679527E4,1.7304334E4,4.4375195E4,1.6123217E4,1.1811171E3,4.383093E4,5.4426385E2,1.5051844E4,1.0713729E3,2.023484E2,9.787687E2,4.1950562E4,1.8803662E3,3.8681686E1,5.0558215E2],"tree_param":{"num_deleted":"0","num_feature":"4","num_nodes":"15","size_leaf_vector":"1"}},{"base_weights":[-1.4924133E-5,1.1510747E-2,-1.49694625E-2,3.2489628E-2,-1.2733518E-2,-3.0329442E-2,2.1346167E-2,1.454524E-3,2.5954982E-2,-4.4128E-3,3.5060607E-3,-5.2328585E-3,4.7024983E-4,-2.045088E-2,3.3028002E-3],"categories":[],"categories_nodes":[],"categories_segments":[],"categories_sizes":[],"default_left":[0,0,0,0,0,0,0,0,0,0,0,0,0,0,0],"id":18,"left_children":[1,3,5,7,9,11,13,-1,-1,-1,-1,-1,-1,-1,-1],"loss_changes":[1.0631033E1,1.7716963E1,1.4975592E1,7.608354E1,2.4248465E1,1.45403805E1,2.1061924E1,0E0,0E0,0E0,0E0,0E0,0E0,0E0,0E0],"parents":[2147483647,0,0,1,1,2,2,3,3,4,4,5,5,6,6],"right_children":[2,4,6,8,10,12,14,-1,-1,-1,-1,-1,-1,-1,-1],"split_conditions":[1.755E-4,1.2E1,2.96E-4,1.1E1,5.900044E-1,3E0,2E0,1.454524E-3,2.5954982E-2,-4.4128E-3,3.5060607E-3,-5.2328585E-3,4.7024983E-4,-2.045088E-2,3.3028002E-3],"split_indices":[1,2,1,2,0,3,2,0,0,0,0,0,0,0,0],"split_type":[0,0,0,0,0,0,0,0,0,0,0,0,0,0,0],"sum_hessian":[6.1676844E4,3.4831758E4,2.6845088E4,1.8673227E4,1.6158528E4,1.886581E4,7.979277E3,1.7306566E4,1.3666603E3,9.752494E3,6.406035E3,1.1588219E4,7.2775923E3,3.9160156E2,7.5876753E3],"tree_param":{"num_deleted":"0","num_feature":"4","num_nodes":"15","size_leaf_vector":"1"}},{"base_weights":[-1.3634812E-5,5.263021E-3,-2.6822051E-2,5.040494E-2,-3.494473E-3,2.7848808E-2,-6.234418E-2,-5.3575236E-2,5.334347E-3,-2.864693E-3,1.2301756E-3,5.022254E-3,-1.7452076E-2,-9.403618E-3,1.7318373E-5],"categories":[],"categories_nodes":[],"categories_segments":[],"categories_sizes":[],"default_left":[0,0,0,0,0,0,0,0,0,0,0,0,0,0,0],"id":19,"left_children":[1,3,5,7,9,11,13,-1,-1,-1,-1,-1,-1,-1,-1],"loss_changes":[8.724503E0,2.0372414E1,1.96997E1,1.445047E1,1.7148535E1,1.8099298E1,1.2182106E1,0E0,0E0,0E0,0E0,0E0,0E0,0E0,0E0],"parents":[2147483647,0,0,1,1,2,2,3,3,4,4,5,5,6,6],"right_children":[2,4,6,8,10,12,14,-1,-1,-1,-1,-1,-1,-1,-1],"split_conditions":[2E1,1.06E-4,2E0,3.7E-5,9E0,1.785E-4,4E0,-5.3575236E-2,5.334347E-3,-2.864693E-3,1.2301756E-3,5.022254E-3,-1.7452076E-2,-9.403618E-3,1.7318373E-5],"split_indices":[2,1,3,1,2,1,3,0,0,0,0,0,0,0,0],"split_type":[0,0,0,0,0,0,0,0,0,0,0,0,0,0,0],"sum_hessian":[6.1673223E4,5.1531223E4,1.0142001E4,8.371941E3,4.315928E4,3.9944695E3,6.1475317E3,4.0856472E1,8.331085E3,1.6648668E4,2.6510613E4,3.5974875E3,3.9698193E2,4.0791694E3,2.0683623E3],"tree_param":{"num_deleted":"0","num_feature":"4","num_nodes":"15","size_leaf_vector":"1"}},{"base_weights":[-1.4012925E-5,-3.1850636E-2,4.354974E-3,1.7439905E-1,-4.1963145E-2,-6.196811E-2,7.0044403E-3,-1.3756961E-2,2.3820061E-2,-6.5659045E-4,-9.287081E-3,-1.5965289E-2,7.021397E-3,7.6107844E-3,7.435658E-5],"categories":[],"categories_nodes":[],"categories_segments":[],"categories_sizes":[],"default_left":[0,0,0,0,0,0,0,0,0,0,0,0,0,0,0],"id":20,"left_children":[1,3,5,7,9,11,13,-1,-1,-1,-1,-1,-1,-1,-1],"loss_changes":[8.578285E0,1.5529398E1,9.529866E0,6.959998E0,1.2784704E1,2.6910862E1,2.256177E1,0E0,0E0,0E0,0E0,0E0,0E0,0E0,0E0],"parents":[2147483647,0,0,1,1,2,2,3,3,4,4,5,5,6,6],"right_children":[2,4,6,8,10,12,14,-1,-1,-1,-1,-1,-1,-1,-1],"split_conditions":[-1.7828532E0,1E0,5.5E-5,8.2E-5,3E0,7.615644E-1,7.9E-5,-1.3756961E-2,2.3820061E-2,-6.5659045E-4,-9.287081E-3,-1.5965289E-2,7.021397E-3,7.6107844E-3,7.435658E-5],"split_indices":[0,2,1,1,3,0,1,0,0,0,0,0,0,0,0],"split_type":[0,0,0,0,0,0,0,0,0,0,0,0,0,0,0],"sum_hessian":[6.1670676E4,7.4411367E3,5.422954E4,3.4703055E2,7.094106E3,2.082278E3,5.214726E4,5.8725574E1,2.88305E2,4.185183E3,2.908923E3,1.1972686E3,8.8500946E2,4.331198E3,4.7816062E4],"tree_param":{"num_deleted":"0","num_feature":"4","num_nodes":"15","size_leaf_vector":"1"}},{"base_weights":[-1.3163646E-5,7.549013E-3,-1.6600711E-2,3.1959715E-3,6.580934E-2,4.4637024E-2,-3.207643E-2,9.211455E-4,-5.2633155E-3,-2.7282446E-4,1.7695803E-2,-9.997641E-3,7.025305E-3,-1.05364015E-2,-1.281959E-3],"categories":[],"categories_nodes":[],"categories_segments":[],"categories_sizes":[],"default_left":[0,0,0,0,0,0,0,0,0,0,0,0,0,0,0],"id":21,"left_children":[1,3,5,7,9,11,13,-1,-1,-1,-1,-1,-1,-1,-1],"loss_changes":[7.735725E0,1.0742348E1,1.8302502E1,1.3237523E1,2.2433788E1,1.44399E1,2.1754995E1,0E0,0E0,0E0,0E0,0E0,0E0,0E0,0E0],"parents":[2147483647,0,0,1,1,2,2,3,3,4,4,5,5,6,6],"right_children":[2,4,6,8,10,12,14,-1,-1,-1,-1,-1,-1,-1,-1],"split_conditions":[2.08E-4,1.945E-4,1E0,1.785E-4,3E0,2.22E-4,-1.263116E0,9.211455E-4,-5.2633155E-3,-2.7282446E-4,1.7695803E-2,-9.997641E-3,7.025305E-3,-1.05364015E-2,-1.281959E-3],"split_indices":[1,1,3,1,3,1,0,0,0,0,0,0,0,0,0],"split_type":[0,0,0,0,0,0,0,0,0,0,0,0,0,0,0],"sum_hessian":[6.1667723E4,4.235764E4,1.9310082E4,3.9413812E4,2.94383E3,3.895121E3,1.5414961E4,3.5580875E4,3.8329373E3,1.8215707E3,1.1222593E3,5.856987E2,3.3094224E3,3.206647E3,1.2208314E4],"tree_param":{"num_deleted":"0","num_feature":"4","num_nodes":"15","size_leaf_vector":"1"}},{"base_weights":[-1.2217551E-5,6.43547E-3,-1.957557E-2,-8.657463E-1,6.7024804E-3,-3.6368944E-2,1.3722081E-2,8.5879244E-2,-1.1364018E-1,-8.2553487E-4,2.1659473E-3,-1.173405E-2,-2.674959E-3,2.98803E-3,-1.839754E-2],"categories":[],"categories_nodes":[],"categories_segments":[],"categories_sizes":[],"default_left":[0,0,0,0,0,0,0,0,0,0,0,0,0,0,0],"id":22,"left_children":[1,3,5,7,9,11,13,-1,-1,-1,-1,-1,-1,-1,-1],"loss_changes":[7.7787437E0,1.0807267E1,8.548412E0,7.6051226E0,1.0373957E1,7.911886E0,1.6379044E1,0E0,0E0,0E0,0E0,0E0,0E0,0E0,0E0],"parents":[2147483647,0,0,1,1,2,2,3,3,4,4,5,5,6,6],"right_children":[2,4,6,8,10,12,14,-1,-1,-1,-1,-1,-1,-1,-1],"split_conditions":[1.8E1,4E-5,8.4785855E-1,-1.6663749E0,9E0,5.1E-5,2.53E-4,8.5879244E-2,-1.1364018E-1,-8.2553487E-4,2.1659473E-3,-1.173405E-2,-2.674959E-3,2.98803E-3,-1.839754E-2],"split_indices":[2,1,0,0,2,1,1,0,0,0,0,0,0,0,0],"split_type":[0,0,0,0,0,0,0,0,0,0,0,0,0,0,0],"sum_hessian":[6.1666332E4,4.638082E4,1.5285515E4,1.3202691E1,4.6367617E4,1.0160875E4,5.1246396E3,1.4962169E0,1.1706474E1,2.3183385E4,2.3184232E4,1.077739E3,9.083136E3,4.7382236E3,3.8641586E2],"tree_param":{"num_deleted":"0","num_feature":"4","num_nodes":"15","size_leaf_vector":"1"}},{"base_weights":[-1.237756E-5,9.611162E-3,-1.1774287E-2,2.9103152E-2,-1.2772273E-2,-6.0653132E-3,-8.601536E-2,1.3739881E-3,2.2751415E-2,-1.4851843E-2,-2.0758233E-4,-4.0064137E-3,1.0952132E-3,-1.4011477E-3,-2.3359213E-2],"categories":[],"categories_nodes":[],"categories_segments":[],"categories_sizes":[],"default_left":[0,0,0,0,0,0,0,0,0,0,0,0,0,0,0],"id":23,"left_children":[1,3,5,7,9,11,13,-1,-1,-1,-1,-1,-1,-1,-1],"loss_changes":[6.9798613E0,1.4797469E1,1.1760712E1,5.5257755E1,2.2922977E1,1.4909577E1,2.1051342E1,0E0,0E0,0E0,0E0,0E0,0E0,0E0,0E0],"parents":[2147483647,0,0,1,1,2,2,3,3,4,4,5,5,6,6],"right_children":[2,4,6,8,10,12,14,-1,-1,-1,-1,-1,-1,-1,-1],"split_conditions":[1.72E-4,1.2E1,1.9E1,1.1E1,1.5E1,9E0,4E0,1.3739881E-3,2.2751415E-2,-1.4851843E-2,-2.0758233E-4,-4.0064137E-3,1.0952132E-3,-1.4011477E-3,-2.3359213E-2],"split_indices":[1,2,2,2,2,2,3,0,0,0,0,0,0,0,0],"split_type":[0,0,0,0,0,0,0,0,0,0,0,0,0,0,0],"sum_hessian":[6.166235E4,3.391414E4,2.774821E4,1.8127773E4,1.5786366E4,2.5767805E4,1.9804053E3,1.6825982E4,1.3017926E3,1.1521255E3,1.4634241E4,8.594889E3,1.7172916E4,1.3317357E3,6.486695E2],"tree_param":{"num_deleted":"0","num_feature":"4","num_nodes":"15","size_leaf_vector":"1"}},{"base_weights":[-1.1707928E-5,-1.16032725E-2,8.691615E-3,-5.66669E-3,-5.8626976E-2,-7.058398E-3,3.160344E-2,9.505129E-3,-1.148451E-3,-1.0707026E-2,3.1012506E-3,-1.6114757E-3,1.765377E-2,-3.3758786E-2,3.4171473E-3],"categories":[],"categories_nodes":[],"categories_segments":[],"categories_sizes":[],"default_left":[0,0,0,0,0,0,0,0,0,0,0,0,0,0,0],"id":24,"left_children":[1,3,5,7,9,11,13,-1,-1,-1,-1,-1,-1,-1,-1],"loss_changes":[6.2207613E0,7.381568E0,1.2709253E1,1.3759525E1,1.2874498E1,3.4707123E1,1.3614319E1,0E0,0E0,0E0,0E0,0E0,0E0,0E0,0E0],"parents":[2147483647,0,0,1,1,2,2,3,3,4,4,5,5,6,6],"right_children":[2,4,6,8,10,12,14,-1,-1,-1,-1,-1,-1,-1,-1],"split_conditions":[-2.9717672E-1,2.1E1,3E0,7.55E-5,2.3E1,3.99E-4,3.7E-5,9.505129E-3,-1.148451E-3,-1.0707026E-2,3.1012506E-3,-1.6114757E-3,1.765377E-2,-3.3758786E-2,3.4171473E-3],"split_indices":[0,2,3,1,2,1,1,0,0,0,0,0,0,0,0],"split_type":[0,0,0,0,0,0,0,0,0,0,0,0,0,0,0],"sum_hessian":[6.1659824E4,2.644225E4,3.5217574E4,2.3479201E4,2.9630488E3,2.087109E4,1.4346483E4,1.2813394E3,2.2197861E4,1.9234023E3,1.0396464E3,1.9890836E4,9.802553E2,9.820123E1,1.4248282E4],"tree_param":{"num_deleted":"0","num_feature":"4","num_nodes":"15","size_leaf_vector":"1"}},{"base_weights":[-1.1195999E-5,6.8941647E-3,-1.5159362E-2,2.9222234E-3,6.0044102E-2,-4.2760458E-2,1.5324543E-2,8.223985E-4,-4.6287547E-3,-1.02143094E-4,1.5904851E-2,2.151496E-3,-6.031013E-3,-1.6938595E-2,2.483079E-3],"categories":[],"categories_nodes":[],"categories_segments":[],"categories_sizes":[],"default_left":[0,0,0,0,0,0,0,0,0,0,0,0,0,0,0],"id":25,"left_children":[1,3,5,7,9,11,13,-1,-1,-1,-1,-1,-1,-1,-1],"loss_changes":[6.449627E0,8.940612E0,1.6244669E1,1.0281812E1,1.7804E1,1.1430828E1,1.6114159E1,0E0,0E0,0E0,0E0,0E0,0E0,0E0,0E0],"parents":[2147483647,0,0,1,1,2,2,3,3,4,4,5,5,6,6],"right_children":[2,4,6,8,10,12,14,-1,-1,-1,-1,-1,-1,-1,-1],"split_conditions":[2.08E-4,1.945E-4,2.81E-4,1.785E-4,3E0,1E0,2E0,8.223985E-4,-4.6287547E-3,-1.02143094E-4,1.5904851E-2,2.151496E-3,-6.031013E-3,-1.6938595E-2,2.483079E-3],"split_indices":[1,1,1,1,3,3,2,0,0,0,0,0,0,0,0],"split_type":[0,0,0,0,0,0,0,0,0,0,0,0,0,0,0],"sum_hessian":[6.165582E4,4.2350637E4,1.9305186E4,3.9406785E4,2.9438486E3,1.0131448E4,9.173737E3,3.5574855E4,3.831931E3,1.8214037E3,1.122445E3,2.1729233E3,7.958525E3,4.4819992E2,8.725537E3],"tree_param":{"num_deleted":"0","num_feature":"4","num_nodes":"15","size_leaf_vector":"1"}},{"base_weights":[-1.0353063E-5,-2.6152726E-2,3.5755627E-3,1.5883774E-1,-3.523259E-2,2.3171727E-3,1.0584857E-1,-1.3352846E-2,2.1861563E-2,-2.3995386E-3,-1.6996473E-2,7.7971135E-4,-1.8197838E-3,8.476385E-2,7.923398E-3],"categories":[],"categories_nodes":[],"categories_segments":[],"categories_sizes":[],"default_left":[0,0,0,0,0,0,0,0,0,0,0,0,0,0,0],"id":26,"left_children":[1,3,5,7,9,11,13,-1,-1,-1,-1,-1,-1,-1,-1],"loss_changes":[5.7800126E0,1.2497895E1,6.977822E0,6.113737E0,1.0730466E1,6.021628E0,1.2943157E1,0E0,0E0,0E0,0E0,0E0,0E0,0E0,0E0],"parents":[2147483647,0,0,1,1,2,2,3,3,4,4,5,5,6,6],"right_children":[2,4,6,8,10,12,14,-1,-1,-1,-1,-1,-1,-1,-1],"split_conditions":[-1.7828532E0,1E0,6.425E-4,8.2E-5,3.43E-4,1.9E1,1E0,-1.3352846E-2,2.1861563E-2,-2.3995386E-3,-1.6996473E-2,7.7971135E-4,-1.8197838E-3,8.476385E-2,7.923398E-3],"split_indices":[0,2,1,1,1,2,2,0,0,0,0,0,0,0,0],"split_type":[0,0,0,0,0,0,0,0,0,0,0,0,0,0,0],"sum_hessian":[6.1655184E4,7.436275E3,5.421891E4,3.4714526E2,7.08913E3,5.3560906E4,6.580028E2,5.871988E1,2.8842538E2,6.5444727E3,5.446572E2,4.2270336E4,1.1290572E4,2.172222E1,6.362806E2],"tree_param":{"num_deleted":"0","num_feature":"4","num_nodes":"15","size_leaf_vector":"1"}},{"base_weights":[-8.197496E-6,2.5963483E-2,-3.5027326E-3,9.1008714E-4,1.510938E-1,-1.4623475E-3,-1.0548957E-1,-6.1857183E-3,6.267413E-3,-3.41745E-2,1.8548874E-2,-1.5337974E-3,7.3708256E-4,-1.3592354E-2,3.1093443E-2],"categories":[],"categories_nodes":[],"categories_segments":[],"categories_sizes":[],"default_left":[0,0,0,0,0,0,0,0,0,0,0,0,0,0,0],"id":27,"left_children":[1,3,5,7,9,11,13,-1,-1,-1,-1,-1,-1,-1,-1],"loss_changes":[5.595697E0,2.2922201E1,1.1308128E1,2.3625523E1,2.0739597E1,6.5301423E0,1.35503645E1,0E0,0E0,0E0,0E0,0E0,0E0,0E0,0E0],"parents":[2147483647,0,0,1,1,2,2,3,3,4,4,5,5,6,6],"right_children":[2,4,6,8,10,12,14,-1,-1,-1,-1,-1,-1,-1,-1],"split_conditions":[7.9E-5,4E0,6E0,6.2E-5,1E0,9E0,2.2962868E0,-6.1857183E-3,6.267413E-3,-3.41745E-2,1.8548874E-2,-1.5337974E-3,7.3708256E-4,-1.3592354E-2,3.1093443E-2],"split_indices":[1,3,3,1,2,2,0,0,0,0,0,0,0,0,0],"split_type":[0,0,0,0,0,0,0,0,0,0,0,0,0,0,0],"sum_hessian":[6.1652492E4,7.310892E3,5.43416E4,6.0921406E3,1.2187516E3,5.3276742E4,1.0648593E3,3.0215303E3,3.0706104E3,7.8924286E1,1.1398274E3,2.0723076E4,3.2553664E4,9.92963E2,7.189622E1],"tree_param":{"num_deleted":"0","num_feature":"4","num_nodes":"15","size_leaf_vector":"1"}},{"base_weights":[-7.73772E-6,6.1710654E-3,-1.428003E-2,-6.9964696E-3,2.122795E-2,4.3189246E-2,-2.876861E-2,4.2750972E-4,-3.2960437E-3,9.1660436E-4,6.861908E-3,1.2227956E-2,-9.346874E-4,-5.81434E-3,8.9265435E-4],"categories":[],"categories_nodes":[],"categories_segments":[],"categories_sizes":[],"default_left":[0,0,0,0,0,0,0,0,0,0,0,0,0,0,0],"id":28,"left_children":[1,3,5,7,9,11,13,-1,-1,-1,-1,-1,-1,-1,-1],"loss_changes":[5.436904E0,8.530567E0,1.5510924E1,6.717684E0,1.1473735E1,1.5586491E1,1.6473671E1,0E0,0E0,0E0,0E0,0E0,0E0,0E0,0E0],"parents":[2147483647,0,0,1,1,2,2,3,3,4,4,5,5,6,6],"right_children":[2,4,6,8,10,12,14,-1,-1,-1,-1,-1,-1,-1,-1],"split_conditions":[2.115E-4,2.0691818E-1,1E0,1.8E1,4E0,-5.3821546E-1,2.96E-4,4.2750972E-4,-3.2960437E-3,9.1660436E-4,6.861908E-3,1.2227956E-2,-9.346874E-4,-5.81434E-3,8.9265435E-4],"split_indices":[1,0,3,2,3,0,1,0,0,0,0,0,0,0,0],"split_type":[0,0,0,0,0,0,0,0,0,0,0,0,0,0,0],"sum_hessian":[6.1650914E4,4.302498E4,1.8625934E4,2.2952826E4,2.0072152E4,3.7498982E3,1.4876035E4,1.600536E4,6.9474663E3,1.6000841E4,4.0713118E3,1.4961687E3,2.2537295E3,8.360437E3,6.515599E3],"tree_param":{"num_deleted":"0","num_feature":"4","num_nodes":"15","size_leaf_vector":"1"}},{"base_weights":[-7.006141E-6,2.569643E-2,-2.9921022E-3,-2.5021894E-2,8.69398E-2,-1.271728E-3,-8.862356E-2,-5.487799E-3,1.590362E-2,-2.6163235E-2,9.571097E-3,-1.4565793E-3,7.282526E-4,-1.1624227E-2,2.328749E-2],"categories":[],"categories_nodes":[],"categories_segments":[],"categories_sizes":[],"default_left":[0,0,0,0,0,0,0,0,0,0,0,0,0,0,0],"id":29,"left_children":[1,3,5,7,9,11,13,-1,-1,-1,-1,-1,-1,-1,-1],"loss_changes":[4.730249E0,1.9927635E1,8.137061E0,1.9295435E1,8.910158E0,6.157922E0,9.68635E0,0E0,0E0,0E0,0E0,0E0,0E0,0E0,0E0],"parents":[2147483647,0,0,1,1,2,2,3,3,4,4,5,5,6,6],"right_children":[2,4,6,8,10,12,14,-1,-1,-1,-1,-1,-1,-1,-1],"split_conditions":[7.55E-5,6.2E-5,6E0,4E0,-3.0170243E0,9E0,2.1820533E0,-5.487799E-3,1.590362E-2,-2.6163235E-2,9.571097E-3,-1.4565793E-3,7.282526E-4,-1.1624227E-2,2.328749E-2],"split_indices":[1,1,3,3,0,2,0,0,0,0,0,0,0,0,0],"split_type":[0,0,0,0,0,0,0,0,0,0,0,0,0,0,0],"sum_hessian":[6.1648195E4,6.41382E3,5.523438E4,3.5087012E3,2.9051184E3,5.4147543E4,1.0868334E3,3.0195942E3,4.891071E2,7.05999E1,2.8345183E3,2.1200066E4,3.2947477E4,1.0014418E3,8.5391624E1],"tree_param":{"num_deleted":"0","num_feature":"4","num_nodes":"15","size_leaf_vector":"1"}},{"base_weights":[-6.5370305E-6,-1.33841E-2,5.5108313E-3,3.4136262E-3,-3.818818E-2,3.935111E-3,1.329435E-1,1.2822273E-3,-1.2623504E-2,9.897848E-2,-4.0585897E-3,-5.691963E-4,1.8036579E-3,5.5708396E-3,4.17421E-2],"categories":[],"categories_nodes":[],"categories_segments":[],"categories_sizes":[],"default_left":[0,0,0,0,0,0,0,0,0,0,0,0,0,0,0],"id":30,"left_children":[1,3,5,7,9,11,13,-1,-1,-1,-1,-1,-1,-1,-1],"loss_changes":[4.5502005E0,7.500485E0,8.763693E0,1.3094989E1,1.7955717E1,5.85319E0,1.1689316E1,0E0,0E0,0E0,0E0,0E0,0E0,0E0,0E0],"parents":[2147483647,0,0,1,1,2,2,3,3,4,4,5,5,6,6],"right_children":[2,4,6,8,10,12,14,-1,-1,-1,-1,-1,-1,-1,-1],"split_conditions":[-9.267106E-1,3E0,6.425E-4,3.605E-4,3.2E-5,3E0,1.6E1,1.2822273E-3,-1.2623504E-2,9.897848E-2,-4.0585897E-3,-5.691963E-4,1.8036579E-3,5.5708396E-3,4.17421E-2],"split_indices":[0,3,1,1,1,3,2,0,0,0,0,0,0,0,0],"split_type":[0,0,0,0,0,0,0,0,0,0,0,0,0,0,0],"sum_hessian":[6.1646363E4,1.800048E4,4.3645883E4,1.0732869E4,7.267611E3,4.3113805E4,5.320765E2,1.00075205E4,7.253481E2,1.5953719E1,7.2516567E3,2.5622152E4,1.7491654E4,4.1940472E2,1.1267175E2],"tree_param":{"num_deleted":"0","num_feature":"4","num_nodes":"15","size_leaf_vector":"1"}},{"base_weights":[-4.1218245E-6,7.562775E-3,-9.253432E-3,2.3681918E-2,-1.0954735E-2,-4.4235825E-3,-7.2149836E-2,9.946827E-4,2.0112878E-2,-1.3841859E-2,-9.080865E-5,-2.114845E-3,2.1251766E-3,-1.1183935E-3,-1.975434E-2],"categories":[],"categories_nodes":[],"categories_segments":[],"categories_sizes":[],"default_left":[0,0,0,0,0,0,0,0,0,0,0,0,0,0,0],"id":31,"left_children":[1,3,5,7,9,11,13,-1,-1,-1,-1,-1,-1,-1,-1],"loss_changes":[4.3145704E0,1.0121091E1,8.42642E0,4.418004E1,2.0207937E1,1.1063269E1,1.5120329E1,0E0,0E0,0E0,0E0,0E0,0E0,0E0,0E0],"parents":[2147483647,0,0,1,1,2,2,3,3,4,4,5,5,6,6],"right_children":[2,4,6,8,10,12,14,-1,-1,-1,-1,-1,-1,-1,-1],"split_conditions":[1.72E-4,1.2E1,1.9E1,1.1E1,1.5E1,3E0,4E0,9.946827E-4,2.0112878E-2,-1.3841859E-2,-9.080865E-5,-2.114845E-3,2.1251766E-3,-1.1183935E-3,-1.975434E-2],"split_indices":[1,2,2,2,2,3,3,0,0,0,0,0,0,0,0],"split_type":[0,0,0,0,0,0,0,0,0,0,0,0,0,0,0],"sum_hessian":[6.1644773E4,3.390618E4,2.7738596E4,1.8126834E4,1.5779346E4,2.5761432E4,1.9771643E3,1.6825527E4,1.3013068E3,1.1519205E3,1.4627425E4,1.559988E4,1.0161552E4,1.331085E3,6.460794E2],"tree_param":{"num_deleted":"0","num_feature":"4","num_nodes":"15","size_leaf_vector":"1"}},{"base_weights":[-4.0915857E-6,-2.2053663E-2,3.0194265E-3,9.484286E-3,-6.752445E-2,-4.315788E-4,2.8471844E-2,-4.9115944E-4,3.1894565E-2,9.115605E-2,-7.0411484E-3,6.011262E-4,-3.3008996E-3,-6.6959024E-3,5.76283E-3],"categories":[],"categories_nodes":[],"categories_segments":[],"categories_sizes":[],"default_left":[0,0,0,0,0,0,0,0,0,0,0,0,0,0,0],"id":32,"left_children":[1,3,5,7,9,11,13,-1,-1,-1,-1,-1,-1,-1,-1],"loss_changes":[4.1096625E0,1.0660807E1,4.761694E0,1.9559458E1,8.669792E0,1.0020216E1,1.8013567E1,0E0,0E0,0E0,0E0,0E0,0E0,0E0,0E0],"parents":[2147483647,0,0,1,1,2,2,3,3,4,4,5,5,6,6],"right_children":[2,4,6,8,10,12,14,-1,-1,-1,-1,-1,-1,-1,-1],"split_conditions":[-1.7828532E0,3E0,3.065E-4,2.3E1,3.2E-5,2.245E-4,9E0,-4.9115944E-4,3.1894565E-2,9.115605E-2,-7.0411484E-3,6.011262E-4,-3.3008996E-3,-6.6959024E-3,5.76283E-3],"split_indices":[0,3,1,2,1,1,2,0,0,0,0,0,0,0,0],"split_type":[0,0,0,0,0,0,0,0,0,0,0,0,0,0,0],"sum_hessian":[6.1642375E4,7.4325825E3,5.4209793E4,4.38913E3,3.0434524E3,4.7738125E4,6.4716646E3,4.194968E3,1.9416222E2,8.022511E0,3.03543E3,3.9856516E4,7.8816123E3,1.5142231E3,4.9574414E3],"tree_param":{"num_deleted":"0","num_feature":"4","num_nodes":"15","size_leaf_vector":"1"}},{"base_weights":[-2.229407E-6,4.5815785E-3,-1.392078E-2,-7.959822E-1,4.822903E-3,-2.6092688E-2,3.3677068E-2,8.0769315E-2,-1.0533865E-1,-7.696641E-3,6.4373453E-4,-6.880122E-4,-8.237609E-3,8.939374E-3,-2.2443496E-2],"categories":[],"categories_nodes":[],"categories_segments":[],"categories_sizes":[],"default_left":[0,0,0,0,0,0,0,0,0,0,0,0,0,0,0],"id":33,"left_children":[1,3,5,7,9,11,13,-1,-1,-1,-1,-1,-1,-1,-1],"loss_changes":[3.9328206E0,8.962598E0,8.84855E0,6.621725E0,6.1218586E0,1.3150914E1,4.475167E1,0E0,0E0,0E0,0E0,0E0,0E0,0E0,0E0],"parents":[2147483647,0,0,1,1,2,2,3,3,4,4,5,5,6,6],"right_children":[2,4,6,8,10,12,14,-1,-1,-1,-1,-1,-1,-1,-1],"split_conditions":[1.8E1,4E-5,4E0,-1.6663749E0,-3.0170243E0,3E0,2.055E-4,8.0769315E-2,-1.0533865E-1,-7.696641E-3,6.4373453E-4,-6.880122E-4,-8.237609E-3,8.939374E-3,-2.2443496E-2],"split_indices":[2,1,3,0,0,3,1,0,0,0,0,0,0,0,0],"split_type":[0,0,0,0,0,0,0,0,0,0,0,0,0,0,0],"sum_hessian":[6.164099E4,4.6370445E4,1.5270545E4,1.2980165E1,4.6357465E4,1.216111E4,3.1094348E3,1.4995925E0,1.1480572E1,8.964356E2,4.5461027E4,9.067131E3,3.0939795E3,2.557928E3,5.515067E2],"tree_param":{"num_deleted":"0","num_feature":"4","num_nodes":"15","size_leaf_vector":"1"}},{"base_weights":[-3.5643272E-6,2.274638E-2,-2.6457866E-3,-1.6676491E-2,8.7438665E-2,1.8964503E-3,-2.7871352E-2,-4.214136E-3,1.323967E-2,-1.1142059E-2,1.1300198E-2,-1.3080854E-3,1.4297592E-3,1.2115096E-2,-3.134312E-3],"categories":[],"categories_nodes":[],"categories_segments":[],"categories_sizes":[],"default_left":[0,0,0,0,0,0,0,0,0,0,0,0,0,0,0],"id":34,"left_children":[1,3,5,7,9,11,13,-1,-1,-1,-1,-1,-1,-1,-1],"loss_changes":[3.7052562E0,1.6359783E1,6.3279552E0,1.5138027E1,1.2359667E1,8.692739E0,4.363707E0,0E0,0E0,0E0,0E0,0E0,0E0,0E0,0E0],"parents":[2147483647,0,0,1,1,2,2,3,3,4,4,5,5,6,6],"right_children":[2,4,6,8,10,12,14,-1,-1,-1,-1,-1,-1,-1,-1],"split_conditions":[7.55E-5,6.45E-5,1.9E1,4E0,3E0,9E0,-2.7979226E0,-4.214136E-3,1.323967E-2,-1.1142059E-2,1.1300198E-2,-1.3080854E-3,1.4297592E-3,1.2115096E-2,-3.134312E-3],"split_indices":[1,1,2,3,2,2,0,0,0,0,0,0,0,0,0],"split_type":[0,0,0,0,0,0,0,0,0,0,0,0,0,0,0],"sum_hessian":[6.1638844E4,6.4131357E3,5.5225707E4,3.9852837E3,2.4278523E3,4.679966E4,8.426048E3,3.404449E3,5.808349E2,2.7616693E2,2.1516853E3,2.1198008E4,2.560165E4,1.910606E2,8.234987E3],"tree_param":{"num_deleted":"0","num_feature":"4","num_nodes":"15","size_leaf_vector":"1"}},{"base_weights":[-3.1097936E-6,-6.4560613E-3,9.551906E-3,7.3266245E-2,-9.951926E-3,1.9943476E-2,-2.1647893E-2,1.56001225E-2,-7.3836963E-3,1.7589495E-3,-1.669626E-3,9.234675E-4,6.2256767E-3,-1.0852552E-2,1.3983211E-3],"categories":[],"categories_nodes":[],"categories_segments":[],"categories_sizes":[],"default_left":[0,0,0,0,0,0,0,0,0,0,0,0,0,0,0],"id":35,"left_children":[1,3,5,7,9,11,13,-1,-1,-1,-1,-1,-1,-1,-1],"loss_changes":[3.8005278E0,1.0254505E1,8.056242E0,1.8823334E1,6.547367E0,8.445495E0,1.922026E1,0E0,0E0,0E0,0E0,0E0,0E0,0E0,0E0],"parents":[2147483647,0,0,1,1,2,2,3,3,4,4,5,5,6,6],"right_children":[2,4,6,8,10,12,14,-1,-1,-1,-1,-1,-1,-1,-1],"split_conditions":[5.0086E-1,1E0,2.29E-4,1.505E-4,1E0,4E0,9E0,1.56001225E-2,-7.3836963E-3,1.7589495E-3,-1.669626E-3,9.234675E-4,6.2256767E-3,-1.0852552E-2,1.3983211E-3],"split_indices":[0,2,1,1,3,3,2,0,0,0,0,0,0,0,0],"split_type":[0,0,0,0,0,0,0,0,0,0,0,0,0,0,0],"sum_hessian":[6.1636793E4,3.6790656E4,2.4846137E4,1.5446793E3,3.524598E4,1.8638621E4,6.2075156E3,9.886015E2,5.560779E2,6.932902E3,2.8313076E4,1.4875176E4,3.7634446E3,1.8048328E3,4.402683E3],"tree_param":{"num_deleted":"0","num_feature":"4","num_nodes":"15","size_leaf_vector":"1"}},{"base_weights":[-2.821498E-6,-1.1346852E-2,4.417828E-3,-5.9385025E-3,-8.522595E-2,1.5197055E-3,5.0308093E-2,-1.2822425E-3,9.059153E-3,1.3895439E-2,-1.3170644E-2,-9.5808174E-4,1.7926447E-3,5.755768E-5,2.2523386E-2],"categories":[],"categories_nodes":[],"categories_segments":[],"categories_sizes":[],"default_left":[0,0,0,0,0,0,0,0,0,0,0,0,0,0,0],"id":36,"left_children":[1,3,5,7,9,11,13,-1,-1,-1,-1,-1,-1,-1,-1],"loss_changes":[3.090935E0,6.905446E0,5.898618E0,1.0703576E1,1.2302255E1,7.5981708E0,2.2919514E1,0E0,0E0,0E0,0E0,0E0,0E0,0E0,0E0],"parents":[2147483647,0,0,1,1,2,2,3,3,4,4,5,5,6,6],"right_children":[2,4,6,8,10,12,14,-1,-1,-1,-1,-1,-1,-1,-1],"split_conditions":[-9.787492E-1,3.67E-4,3.9E-4,2.93E-4,8E0,3E0,1.6E1,-1.2822425E-3,9.059153E-3,1.3895439E-2,-1.3170644E-2,-9.5808174E-4,1.7926447E-3,5.755768E-5,2.2523386E-2],"split_indices":[0,1,1,1,2,3,2,0,0,0,0,0,0,0,0],"split_type":[0,0,0,0,0,0,0,0,0,0,0,0,0,0,0],"sum_hessian":[6.1634273E4,1.728272E4,4.435155E4,1.610484E4,1.1778811E3,4.1717957E4,2.633594E3,1.5033604E4,1.0712363E3,2.0193546E2,9.759457E2,2.4882975E4,1.6834982E4,2.0513774E3,5.8221655E2],"tree_param":{"num_deleted":"0","num_feature":"4","num_nodes":"15","size_leaf_vector":"1"}},{"base_weights":[-2.276038E-6,3.994136E-3,-1.2139819E-2,-7.381035E-1,4.2138305E-3,-2.2116337E-2,2.6861606E-2,5.1553752E-2,-1.0497569E-1,-1.1804949E-2,5.139118E-4,-4.440052E-4,-7.3921247E-3,7.694246E-3,-2.057466E-2],"categories":[],"categories_nodes":[],"categories_segments":[],"categories_sizes":[],"default_left":[0,0,0,0,0,0,0,0,0,0,0,0,0,0,0],"id":37,"left_children":[1,3,5,7,9,11,13,-1,-1,-1,-1,-1,-1,-1,-1],"loss_changes":[2.9896953E0,7.562653E0,5.940983E0,5.904951E0,5.244685E0,1.1132788E1,3.6247936E1,0E0,0E0,0E0,0E0,0E0,0E0,0E0,0E0],"parents":[2147483647,0,0,1,1,2,2,3,3,4,4,5,5,6,6],"right_children":[2,4,6,8,10,12,14,-1,-1,-1,-1,-1,-1,-1,-1],"split_conditions":[1.8E1,4E-5,4E0,1E0,-3.6363044E0,3E0,2.055E-4,5.1553752E-2,-1.0497569E-1,-1.1804949E-2,5.139118E-4,-4.440052E-4,-7.3921247E-3,7.694246E-3,-2.057466E-2],"split_indices":[2,1,3,2,0,3,1,0,0,0,0,0,0,0,0],"split_type":[0,0,0,0,0,0,0,0,0,0,0,0,0,0,0],"sum_hessian":[6.1632785E4,4.6366727E4,1.5266058E4,1.2728545E1,4.6354E4,1.2156796E4,3.1092612E3,2.404027E0,1.0324518E1,3.4722067E2,4.6006777E4,9.06487E3,3.0919265E3,2.558979E3,5.502823E2],"tree_param":{"num_deleted":"0","num_feature":"4","num_nodes":"15","size_leaf_vector":"1"}},{"base_weights":[-4.045109E-6,1.9505383E-2,-2.6286617E-3,-1.9955687E-2,5.5892006E-2,-6.1197527E-4,-8.0391854E-2,-4.239961E-3,1.1812754E-2,1.7279265E-2,3.1999934E-3,-1.637801E-3,5.5885164E-4,1.8151062E-2,-1.6388386E-2],"categories":[],"categories_nodes":[],"categories_segments":[],"categories_sizes":[],"default_left":[0,0,0,0,0,0,0,0,0,0,0,0,0,0,0],"id":38,"left_children":[1,3,5,7,9,11,13,-1,-1,-1,-1,-1,-1,-1,-1],"loss_changes":[3.1558857E0,1.0494764E1,8.519312E0,1.0872922E1,1.06149235E1,5.1765428E0,3.0057423E1,0E0,0E0,0E0,0E0,0E0,0E0,0E0,0E0],"parents":[2147483647,0,0,1,1,2,2,3,3,4,4,5,5,6,6],"right_children":[2,4,6,8,10,12,14,-1,-1,-1,-1,-1,-1,-1,-1],"split_conditions":[7.9E-5,6.2E-5,2.3E1,4E0,1E0,-9.787492E-1,-1.031863E0,-4.239961E-3,1.1812754E-2,1.7279265E-2,3.1999934E-3,-1.637801E-3,5.5885164E-4,1.8151062E-2,-1.6388386E-2],"split_indices":[1,1,2,3,3,0,0,0,0,0,0,0,0,0,0],"split_type":[0,0,0,0,0,0,0,0,0,0,0,0,0,0,0],"sum_hessian":[6.163065E4,7.3072925E3,5.432336E4,3.505764E3,3.8015283E3,5.295115E4,1.3722107E3,3.0162056E3,4.8955835E2,6.4404956E2,3.157479E3,1.4946058E4,3.800509E4,3.3141992E2,1.0407908E3],"tree_param":{"num_deleted":"0","num_feature":"4","num_nodes":"15","size_leaf_vector":"1"}},{"base_weights":[-3.545886E-6,-8.719583E-4,5.451031E-2,4.325166E-3,-1.3536582E-2,-1.1525602E-2,2.721051E-1,1.46954835E-5,4.18386E-3,4.551596E-3,-2.872148E-3,-6.6581974E-3,2.8657267E-2,1.467606E-2,6.000913E-2],"categories":[],"categories_nodes":[],"categories_segments":[],"categories_sizes":[],"default_left":[0,0,0,0,0,0,0,0,0,0,0,0,0,0,0],"id":39,"left_children":[1,3,5,7,9,11,13,-1,-1,-1,-1,-1,-1,-1,-1],"loss_changes":[2.9176087E0,3.9929328E0,1.3889165E1,6.7419105E0,1.5829298E1,1.2202614E1,9.163506E0,0E0,0E0,0E0,0E0,0E0,0E0,0E0,0E0],"parents":[2147483647,0,0,1,1,2,2,3,3,4,4,5,5,6,6],"right_children":[2,4,6,8,10,12,14,-1,-1,-1,-1,-1,-1,-1,-1],"split_conditions":[5.93E-4,2.115E-4,1.6E1,1.915E-4,1E0,1.4300475E0,4E0,1.46954835E-5,4.18386E-3,4.551596E-3,-2.872148E-3,-6.6581974E-3,2.8657267E-2,1.467606E-2,6.000913E-2],"split_indices":[1,1,2,1,3,0,3,0,0,0,0,0,0,0,0],"split_type":[0,0,0,0,0,0,0,0,0,0,0,0,0,0,0],"sum_hessian":[6.1628266E4,6.0662883E4,9.653832E2,4.301264E4,1.7650244E4,7.4134576E2,2.2403743E2,3.8702945E4,4.3096943E3,3.609861E3,1.4040383E4,6.2642645E2,1.1491932E2,1.6313904E2,6.0898396E1],"tree_param":{"num_deleted":"0","num_feature":"4","num_nodes":"15","size_leaf_vector":"1"}},{"base_weights":[-1.6496002E-6,2.234699E-2,-2.0420854E-3,-4.3135686E-3,1.2661129E-1,-6.321216E-3,2.555433E-2,2.0095345E-3,-2.75752E-2,-4.0872518E-2,1.6287971E-2,5.3609107E-5,-4.2855646E-3,3.544626E-2,1.8117452E-3],"categories":[],"categories_nodes":[],"categories_segments":[],"categories_sizes":[],"default_left":[0,0,0,0,0,0,0,0,0,0,0,0,0,0,0],"id":40,"left_children":[1,3,5,7,9,11,13,-1,-1,-1,-1,-1,-1,-1,-1],"loss_changes":[2.8103755E0,1.4333077E1,6.669063E0,2.7217108E1,2.0452667E1,1.2249124E1,1.853832E1,0E0,0E0,0E0,0E0,0E0,0E0,0E0,0E0],"parents":[2147483647,0,0,1,1,2,2,3,3,4,4,5,5,6,6],"right_children":[2,4,6,8,10,12,14,-1,-1,-1,-1,-1,-1,-1,-1],"split_conditions":[2E0,4E0,2.96E-4,2.87E-4,7.55E-5,2.245E-4,4E0,2.0095345E-3,-2.75752E-2,-4.0872518E-2,1.6287971E-2,5.3609107E-5,-4.2855646E-3,3.544626E-2,1.8117452E-3],"split_indices":[2,3,1,1,1,1,2,0,0,0,0,0,0,0,0],"split_type":[0,0,0,0,0,0,0,0,0,0,0,0,0,0,0],"sum_hessian":[6.1627742E4,5.1550596E3,5.647268E4,4.1060854E3,1.0489742E3,4.8892176E4,7.580505E3,3.7681619E3,3.3792337E2,6.590597E1,9.830683E2,4.116645E4,7.725726E3,1.6657965E2,7.4139253E3],"tree_param":{"num_deleted":"0","num_feature":"4","num_nodes":"15","size_leaf_vector":"1"}},{"base_weights":[-2.032718E-6,1.9809727E-2,-2.3026352E-3,-1.2813439E-2,7.3292E-2,-9.2565507E-4,-7.102593E-2,-3.277575E-3,1.0389539E-2,1.3358603E-2,5.0056813E-4,-1.2552838E-3,6.5567804E-4,-2.2031289E-2,-5.567938E-4],"categories":[],"categories_nodes":[],"categories_segments":[],"categories_sizes":[],"default_left":[0,0,0,0,0,0,0,0,0,0,0,0,0,0,0],"id":41,"left_children":[1,3,5,7,9,11,13,-1,-1,-1,-1,-1,-1,-1,-1],"loss_changes":[2.8089802E0,1.118827E1,5.225143E0,9.28403E0,1.0002113E1,4.709659E0,1.0597631E1,0E0,0E0,0E0,0E0,0E0,0E0,0E0,0E0],"parents":[2147483647,0,0,1,1,2,2,3,3,4,4,5,5,6,6],"right_children":[2,4,6,8,10,12,14,-1,-1,-1,-1,-1,-1,-1,-1],"split_conditions":[7.55E-5,6.45E-5,6E0,4E0,2E1,9E0,1.155E-4,-3.277575E-3,1.0389539E-2,1.3358603E-2,5.0056813E-4,-1.2552838E-3,6.5567804E-4,-2.2031289E-2,-5.567938E-4],"split_indices":[1,1,3,3,2,2,1,0,0,0,0,0,0,0,0],"split_type":[0,0,0,0,0,0,0,0,0,0,0,0,0,0,0],"sum_hessian":[6.162685E4,6.410956E3,5.52159E4,3.98248E3,2.4284763E3,5.4132285E4,1.0836125E3,3.4014097E3,5.8107043E2,1.2892047E3,1.1392715E3,2.1195414E4,3.293687E4,3.2958286E2,7.540297E2],"tree_param":{"num_deleted":"0","num_feature":"4","num_nodes":"15","size_leaf_vector":"1"}},{"base_weights":[-1.9925772E-6,-5.4412424E-3,8.051503E-3,6.4198576E-2,-8.4955515E-3,4.114812E-2,-5.8342936E-4,1.3713064E-2,-6.555272E-3,-7.696923E-3,-6.1702164E-4,4.959621E-3,-1.4718368E-2,-8.450809E-3,7.227744E-4],"categories":[],"categories_nodes":[],"categories_segments":[],"categories_sizes":[],"default_left":[0,0,0,0,0,0,0,0,0,0,0,0,0,0,0],"id":42,"left_children":[1,3,5,7,9,11,13,-1,-1,-1,-1,-1,-1,-1,-1],"loss_changes":[2.6995695E0,7.8244905E0,7.099925E0,1.4635202E1,5.6104393E0,8.186061E0,1.2917455E1,0E0,0E0,0E0,0E0,0E0,0E0,0E0,0E0],"parents":[2147483647,0,0,1,1,2,2,3,3,4,4,5,5,6,6],"right_children":[2,4,6,8,10,12,14,-1,-1,-1,-1,-1,-1,-1,-1],"split_conditions":[5.0086E-1,1E0,9.85E-5,1.505E-4,5.3E-5,3.3692627E0,1.13E-4,1.3713064E-2,-6.555272E-3,-7.696923E-3,-6.1702164E-4,4.959621E-3,-1.4718368E-2,-8.450809E-3,7.227744E-4],"split_indices":[0,2,1,1,1,0,1,0,0,0,0,0,0,0,0],"split_type":[0,0,0,0,0,0,0,0,0,0,0,0,0,0,0],"sum_hessian":[6.1625004E4,3.678268E4,2.4842324E4,1.5446163E3,3.5238062E4,5.1395E3,1.9702824E4,9.8877673E2,5.558396E2,1.1563108E3,3.408175E4,4.9195576E3,2.1994226E2,1.6768309E3,1.8025994E4],"tree_param":{"num_deleted":"0","num_feature":"4","num_nodes":"15","size_leaf_vector":"1"}},{"base_weights":[-2.2010545E-6,-2.9305499E-2,1.308489E-3,2.8960332E-2,-1.1168436E-1,1.4352186E-1,7.354272E-4,1.4565607E-3,2.9376054E-2,1.1831415E-4,-1.5374407E-2,9.991612E-3,4.4701185E-2,-9.277289E-6,6.9106533E-3],"categories":[],"categories_nodes":[],"categories_segments":[],"categories_sizes":[],"default_left":[0,0,0,0,0,0,0,0,0,0,0,0,0,0,0],"id":43,"left_children":[1,3,5,7,9,11,13,-1,-1,-1,-1,-1,-1,-1,-1],"loss_changes":[2.366846E0,1.2667013E1,4.8070927E0,5.889188E0,5.18987E0,3.0882125E0,3.326747E0,0E0,0E0,0E0,0E0,0E0,0E0,0E0,0E0],"parents":[2147483647,0,0,1,1,2,2,3,3,4,4,5,5,6,6],"right_children":[2,4,6,8,10,12,14,-1,-1,-1,-1,-1,-1,-1,-1],"split_conditions":[-2.4935682E0,3E0,-2.4358902E0,2.3E1,1.04E-4,2.84E-4,6.425E-4,1.4565607E-3,2.9376054E-2,1.1831415E-4,-1.5374407E-2,9.991612E-3,4.4701185E-2,-9.277289E-6,6.9106533E-3],"split_indices":[0,3,0,2,1,1,1,0,0,0,0,0,0,0,0],"split_type":[0,0,0,0,0,0,0,0,0,0,0,0,0,0,0],"sum_hessian":[6.1622516E4,2.6373572E3,5.8985156E4,1.5451411E3,1.0922161E3,2.3573103E2,5.8749426E4,1.4664774E3,7.8663734E1,2.967791E2,7.9543695E2,2.072783E2,2.8452723E1,5.804728E4,7.021458E2],"tree_param":{"num_deleted":"0","num_feature":"4","num_nodes":"15","size_leaf_vector":"1"}},{"base_weights":[-9.566133E-7,5.472225E-3,-6.69199E-3,8.274511E-5,5.295557E-2,-5.5638727E-2,-9.426766E-4,-1.3730143E-3,1.5964486E-3,2.198949E-2,2.0692043E-3,-8.1059756E-4,-1.1883894E-2,-1.4792486E-3,1.9928177E-3],"categories":[],"categories_nodes":[],"categories_segments":[],"categories_sizes":[],"default_left":[0,0,0,0,0,0,0,0,0,0,0,0,0,0,0],"id":44,"left_children":[1,3,5,7,9,11,13,-1,-1,-1,-1,-1,-1,-1,-1],"loss_changes":[2.256744E0,8.674538E0,7.8026433E0,6.67849E0,1.8605305E1,8.7543955E0,7.1728606E0,0E0,0E0,0E0,0E0,0E0,0E0,0E0,0E0],"parents":[2147483647,0,0,1,1,2,2,3,3,4,4,5,5,6,6],"right_children":[2,4,6,8,10,12,14,-1,-1,-1,-1,-1,-1,-1,-1],"split_conditions":[1.72E-4,1.59E-4,1.835E-4,2.0691818E-1,4E0,1.785E-4,3E0,-1.3730143E-3,1.5964486E-3,2.198949E-2,2.0692043E-3,-8.1059756E-4,-1.1883894E-2,-1.4792486E-3,1.9928177E-3],"split_indices":[1,1,1,0,2,1,3,0,0,0,0,0,0,0,0],"split_type":[0,0,0,0,0,0,0,0,0,0,0,0,0,0,0],"sum_hessian":[6.1621906E4,3.389577E4,2.7726135E4,3.0441576E4,3.4541943E3,2.9134893E3,2.4812646E4,1.6281308E4,1.416027E4,5.585104E2,2.8956838E3,1.6635013E3,1.2499878E3,1.4915244E4,9.897402E3],"tree_param":{"num_deleted":"0","num_feature":"4","num_nodes":"15","size_leaf_vector":"1"}},{"base_weights":[-7.9549807E-7,7.3665474E-3,-4.8138206E-3,2.514909E-4,8.691241E-2,2.7500588E-4,-6.130143E-2,-1.8713553E-2,3.9706967E-4,1.2601241E-2,-1.958679E-2,-3.6318894E-2,1.5888076E-4,-9.227829E-3,6.1571538E-3],"categories":[],"categories_nodes":[],"categories_segments":[],"categories_sizes":[],"default_left":[0,0,0,0,0,0,0,0,0,0,0,0,0,0,0],"id":45,"left_children":[1,3,5,7,9,11,13,-1,-1,-1,-1,-1,-1,-1,-1],"loss_changes":[2.1850834E0,1.3781357E1,1.0714232E1,1.5578333E1,2.2128994E1,1.6328537E1,1.1729981E1,0E0,0E0,0E0,0E0,0E0,0E0,0E0,0E0],"parents":[2147483647,0,0,1,1,2,2,3,3,4,4,5,5,6,6],"right_children":[2,4,6,8,10,12,14,-1,-1,-1,-1,-1,-1,-1,-1],"split_conditions":[2E0,2.2E1,2.2E1,5.1E-5,1.785E-4,3.7E-5,1.59E-4,-1.8713553E-2,3.9706967E-4,1.2601241E-2,-1.958679E-2,-3.6318894E-2,1.5888076E-4,-9.227829E-3,6.1571538E-3],"split_indices":[3,2,2,1,1,1,1,0,0,0,0,0,0,0,0],"split_type":[0,0,0,0,0,0,0,0,0,0,0,0,0,0,0],"sum_hessian":[6.162046E4,2.4348877E4,3.7271586E4,2.23507E4,1.9981768E3,3.419228E4,3.0793015E3,4.3401746E2,2.1916682E4,1.7559379E3,2.4223888E2,1.221566E2,3.4070125E4,2.459499E3,6.198024E2],"tree_param":{"num_deleted":"0","num_feature":"4","num_nodes":"15","size_leaf_vector":"1"}},{"base_weights":[-2.4359056E-6,1.8719632E-2,-2.1753197E-3,-8.787981E-3,6.378274E-2,1.5867561E-3,-2.307742E-2,-2.7065184E-3,9.800746E-3,-1.2456636E-2,8.799701E-3,-1.1972237E-3,1.2813285E-3,7.344261E-3,-2.7662495E-3],"categories":[],"categories_nodes":[],"categories_segments":[],"categories_sizes":[],"default_left":[0,0,0,0,0,0,0,0,0,0,0,0,0,0,0],"id":46,"left_children":[1,3,5,7,9,11,13,-1,-1,-1,-1,-1,-1,-1,-1],"loss_changes":[2.506803E0,7.9438257E0,4.3417373E0,7.7712593E0,1.1089263E1,7.122897E0,3.729126E0,0E0,0E0,0E0,0E0,0E0,0E0,0E0,0E0],"parents":[2147483647,0,0,1,1,2,2,3,3,4,4,5,5,6,6],"right_children":[2,4,6,8,10,12,14,-1,-1,-1,-1,-1,-1,-1,-1],"split_conditions":[7.55E-5,6.45E-5,1.9E1,4E0,3E0,9E0,-2.3340473E0,-2.7065184E-3,9.800746E-3,-1.2456636E-2,8.799701E-3,-1.1972237E-3,1.2813285E-3,7.344261E-3,-2.7662495E-3],"split_indices":[1,1,2,3,2,2,0,0,0,0,0,0,0,0,0],"split_type":[0,0,0,0,0,0,0,0,0,0,0,0,0,0,0],"sum_hessian":[6.1619168E4,6.407038E3,5.5212133E4,3.978978E3,2.4280598E3,4.6791297E4,8.420833E3,3.3981567E3,5.8082135E2,2.7612167E2,2.1519382E3,2.1193951E4,2.5597348E4,3.812002E2,8.0396323E3],"tree_param":{"num_deleted":"0","num_feature":"4","num_nodes":"15","size_leaf_vector":"1"}},{"base_weights":[-2.1635449E-6,1.0578241E-2,-3.3632137E-3,-3.4948552E-3,6.797644E-2,-5.0699055E-2,1.9307571E-3,2.2098245E-3,-3.2874574E-3,-3.6413256E-2,7.484229E-3,-3.3374466E-3,-2.7342407E-2,-1.7286744E-3,1.1945631E-3],"categories":[],"categories_nodes":[],"categories_segments":[],"categories_sizes":[],"default_left":[0,0,0,0,0,0,0,0,0,0,0,0,0,0,0],"id":47,"left_children":[1,3,5,7,9,11,13,-1,-1,-1,-1,-1,-1,-1,-1],"loss_changes":[2.1912568E0,1.19999485E1,1.1718862E1,8.972011E0,8.705574E0,1.8141651E1,8.09528E0,0E0,0E0,0E0,0E0,0E0,0E0,0E0,0E0],"parents":[2147483647,0,0,1,1,2,2,3,3,4,4,5,5,6,6],"right_children":[2,4,6,8,10,12,14,-1,-1,-1,-1,-1,-1,-1,-1],"split_conditions":[1.06E-4,4E0,1.22E-4,2E1,3.7E-5,2.2E1,9E0,2.2098245E-3,-3.2874574E-3,-3.6413256E-2,7.484229E-3,-3.3374466E-3,-2.7342407E-2,-1.7286744E-3,1.1945631E-3],"split_indices":[1,3,1,2,1,2,2,0,0,0,0,0,0,0,0],"split_type":[0,0,0,0,0,0,0,0,0,0,0,0,0,0,0],"sum_hessian":[6.161719E4,1.485435E4,4.676284E4,1.19302E4,2.9241501E3,4.702956E3,4.2059883E4,6.376118E3,5.554082E3,4.492172E1,2.8792283E3,4.3646064E3,3.3834964E2,1.440927E4,2.7650613E4],"tree_param":{"num_deleted":"0","num_feature":"4","num_nodes":"15","size_leaf_vector":"1"}},{"base_weights":[-3.2420567E-6,5.533114E-3,-6.7705926E-3,8.1048155E-4,4.712829E-2,-4.189399E-2,-2.7872334E-4,-1.2051811E-3,1.5597339E-3,2.0052299E-2,1.7472556E-3,-1.1704913E-2,-9.4376935E-4,-5.6314818E-3,5.640495E-4],"categories":[],"categories_nodes":[],"categories_segments":[],"categories_sizes":[],"default_left":[0,0,0,0,0,0,0,0,0,0,0,0,0,0,0],"id":48,"left_children":[1,3,5,7,9,11,13,-1,-1,-1,-1,-1,-1,-1,-1],"loss_changes":[2.308553E0,6.657398E0,6.3219438E0,5.7889223E0,1.5715783E1,1.0549064E1,7.7624307E0,0E0,0E0,0E0,0E0,0E0,0E0,0E0,0E0],"parents":[2147483647,0,0,1,1,2,2,3,3,4,4,5,5,6,6],"right_children":[2,4,6,8,10,12,14,-1,-1,-1,-1,-1,-1,-1,-1],"split_conditions":[1.72E-4,1.59E-4,1.895E-4,2.0691818E-1,4E0,8E0,-1.9134024E0,-1.2051811E-3,1.5597339E-3,2.0052299E-2,1.7472556E-3,-1.1704913E-2,-9.4376935E-4,-5.6314818E-3,5.640495E-4],"split_indices":[1,1,1,0,2,2,0,0,0,0,0,0,0,0,0],"split_type":[0,0,0,0,0,0,0,0,0,0,0,0,0,0,0],"sum_hessian":[6.161452E4,3.388965E4,2.7724871E4,3.0435125E4,3.4545234E3,4.324155E3,2.3400717E4,1.6276905E4,1.415822E4,5.587289E2,2.8957944E3,1.3034065E3,3.0207483E3,2.2348938E3,2.1165822E4],"tree_param":{"num_deleted":"0","num_feature":"4","num_nodes":"15","size_leaf_vector":"1"}},{"base_weights":[-3.0009992E-6,5.481131E-3,-6.528852E-3,-5.722961E-3,3.0695831E-2,-4.8155196E-2,2.803301E-3,2.2621546E-3,-1.743782E-3,-4.841366E-2,3.4572948E-3,-5.0160088E-2,-3.0520456E-3,-4.158957E-4,6.9633797E-3],"categories":[],"categories_nodes":[],"categories_segments":[],"categories_sizes":[],"default_left":[0,0,0,0,0,0,0,0,0,0,0,0,0,0,0],"id":49,"left_children":[1,3,5,7,9,11,13,-1,-1,-1,-1,-1,-1,-1,-1],"loss_changes":[2.2050836E0,9.458303E0,1.0929516E1,7.697452E0,2.0575989E1,4.1185863E1,1.0694279E1,0E0,0E0,0E0,0E0,0E0,0E0,0E0,0E0],"parents":[2147483647,0,0,1,1,2,2,3,3,4,4,5,5,6,6],"right_children":[2,4,6,8,10,12,14,-1,-1,-1,-1,-1,-1,-1,-1],"split_conditions":[1.3E1,9E0,1.5E1,1.075E-4,-3.6363044E0,1.505E-4,3.11E-4,2.2621546E-3,-1.743782E-3,-4.841366E-2,3.4572948E-3,-5.0160088E-2,-3.0520456E-3,-4.158957E-4,6.9633797E-3],"split_indices":[2,2,2,1,0,1,1,0,0,0,0,0,0,0,0],"split_type":[0,0,0,0,0,0,0,0,0,0,0,0,0,0,0],"sum_hessian":[6.161208E4,3.347817E4,2.8133904E4,2.3179285E4,1.0298888E4,5.1514683E3,2.2982436E4,6.7782188E3,1.6401066E4,7.6053604E1,1.0222834E4,1.9181616E2,4.9596523E3,2.081492E4,2.167516E3],"tree_param":{"num_deleted":"0","num_feature":"4","num_nodes":"15","size_leaf_vector":"1"}},{"base_weights":[-4.403952E-6,2.0416748E-2,-1.8689691E-3,-2.8909808E-3,1.1153734E-1,2.9246337E-3,-2.0628221E-2,1.8511413E-3,-2.413961E-2,-3.9423916E-2,1.4580565E-2,2.2511544E-4,2.5699679E-2,1.089411E-2,-3.445246E-3],"categories":[],"categories_nodes":[],"categories_segments":[],"categories_sizes":[],"default_left":[0,0,0,0,0,0,0,0,0,0,0,0,0,0,0],"id":50,"left_children":[1,3,5,7,9,11,13,-1,-1,-1,-1,-1,-1,-1,-1],"loss_changes":[2.3459923E0,1.09483595E1,5.0769763E0,2.0963245E1,1.82565E1,7.6939907E0,2.058582E1,0E0,0E0,0E0,0E0,0E0,0E0,0E0,0E0],"parents":[2147483647,0,0,1,1,2,2,3,3,4,4,5,5,6,6],"right_children":[2,4,6,8,10,12,14,-1,-1,-1,-1,-1,-1,-1,-1],"split_conditions":[2E0,4E0,4E0,2.87E-4,7.55E-5,8.305E-4,7.85E-5,1.8511413E-3,-2.413961E-2,-3.9423916E-2,1.4580565E-2,2.2511544E-4,2.5699679E-2,1.089411E-2,-3.445246E-3],"split_indices":[2,3,3,1,1,1,1,0,0,0,0,0,0,0,0],"split_type":[0,0,0,0,0,0,0,0,0,0,0,0,0,0,0],"sum_hessian":[6.1610492E4,5.153894E3,5.6456598E4,4.1048765E3,1.0490177E3,4.496692E4,1.1489676E4,3.767702E3,3.371745E2,6.589841E1,9.831193E2,4.4849047E4,1.1787435E2,1.1070295E3,1.0382646E4],"tree_param":{"num_deleted":"0","num_feature":"4","num_nodes":"15","size_leaf_vector":"1"}},{"base_weights":[-4.3464447E-6,7.141316E-3,-4.6728966E-3,3.8782443E-4,8.262504E-2,1.681361E-3,-3.697952E-2,-4.1219857E-2,1.895737E-4,8.923315E-2,7.0531876E-3,-1.06401816E-1,2.1469235E-4,-5.085386E-3,4.699331E-3],"categories":[],"categories_nodes":[],"categories_segments":[],"categories_sizes":[],"default_left":[0,0,0,0,0,0,0,0,0,0,0,0,0,0,0],"id":51,"left_children":[1,3,5,7,9,11,13,-1,-1,-1,-1,-1,-1,-1,-1],"loss_changes":[2.0553486E0,1.2411343E1,7.6499496E0,1.3904587E1,1.9514902E1,1.5452849E1,7.1382446E0,0E0,0E0,0E0,0E0,0E0,0E0,0E0,0E0],"parents":[2147483647,0,0,1,1,2,2,3,3,4,4,5,5,6,6],"right_children":[2,4,6,8,10,12,14,-1,-1,-1,-1,-1,-1,-1,-1],"split_conditions":[2E0,2.2E1,2E1,3.2E-5,3.2E-5,3.7E-5,1.825E-4,-4.1219857E-2,1.895737E-4,8.923315E-2,7.0531876E-3,-1.06401816E-1,2.1469235E-4,-5.085386E-3,4.699331E-3],"split_indices":[3,2,2,1,1,1,1,0,0,0,0,0,0,0,0],"split_type":[0,0,0,0,0,0,0,0,0,0,0,0,0,0,0],"sum_hessian":[6.1609387E4,2.4345596E4,3.726379E4,2.2347207E4,1.9983885E3,3.113995E4,6.1238413E3,8.038493E1,2.2266822E4,2.8336102E1,1.9700524E3,1.2600332E1,3.1127348E4,5.2558433E3,8.679979E2],"tree_param":{"num_deleted":"0","num_feature":"4","num_nodes":"15","size_leaf_vector":"1"}},{"base_weights":[-5.5740256E-6,3.9669606E-3,-8.72219E-3,1.05398096E-4,4.50727E-2,3.414151E-2,-1.9568255E-2,4.624583E-4,-5.106045E-3,-1.2257005E-3,1.381018E-2,1.0531143E-2,-1.2090799E-3,-7.132741E-3,-5.997934E-4],"categories":[],"categories_nodes":[],"categories_segments":[],"categories_sizes":[],"default_left":[0,0,0,0,0,0,0,0,0,0,0,0,0,0,0],"id":52,"left_children":[1,3,5,7,9,11,13,-1,-1,-1,-1,-1,-1,-1,-1],"loss_changes":[2.1333857E0,6.717912E0,8.967741E0,8.946183E0,1.938526E1,1.2818395E1,1.08119335E1,0E0,0E0,0E0,0E0,0E0,0E0,0E0,0E0],"parents":[2147483647,0,0,1,1,2,2,3,3,4,4,5,5,6,6],"right_children":[2,4,6,8,10,12,14,-1,-1,-1,-1,-1,-1,-1,-1],"split_conditions":[2.08E-4,1.915E-4,1E0,1.785E-4,3E0,-5.5539596E-1,-1.263116E0,4.624583E-4,-5.106045E-3,-1.2257005E-3,1.381018E-2,1.0531143E-2,-1.2090799E-3,-7.132741E-3,-5.997934E-4],"split_indices":[1,1,3,1,3,0,0,0,0,0,0,0,0,0,0],"split_type":[0,0,0,0,0,0,0,0,0,0,0,0,0,0,0],"sum_hessian":[6.1608367E4,4.232129E4,1.9287076E4,3.868787E4,3.63342E3,3.8943677E3,1.5392708E4,3.5548945E4,3.1389243E3,2.248585E3,1.3848347E3,1.5330758E3,2.3612917E3,3.1965085E3,1.2196199E4],"tree_param":{"num_deleted":"0","num_feature":"4","num_nodes":"15","size_leaf_vector":"1"}},{"base_weights":[-5.073678E-6,1.8051641E-2,-1.6536772E-3,-2.8835998E-3,9.9884875E-2,-5.046351E-3,2.0219255E-2,1.6347027E-3,-2.1759829E-2,-3.5598006E-2,1.3074932E-2,1.1055247E-4,-3.7821624E-3,3.2519046E-2,1.3316845E-3],"categories":[],"categories_nodes":[],"categories_segments":[],"categories_sizes":[],"default_left":[0,0,0,0,0,0,0,0,0,0,0,0,0,0,0],"id":53,"left_children":[1,3,5,7,9,11,13,-1,-1,-1,-1,-1,-1,-1,-1],"loss_changes":[1.8339931E0,8.830746E0,4.1894565E0,1.6954868E1,1.48206E1,9.85458E0,1.5953775E1,0E0,0E0,0E0,0E0,0E0,0E0,0E0,0E0],"parents":[2147483647,0,0,1,1,2,2,3,3,4,4,5,5,6,6],"right_children":[2,4,6,8,10,12,14,-1,-1,-1,-1,-1,-1,-1,-1],"split_conditions":[2E0,4E0,2.96E-4,2.87E-4,7.55E-5,2.245E-4,4E0,1.6347027E-3,-2.1759829E-2,-3.5598006E-2,1.3074932E-2,1.1055247E-4,-3.7821624E-3,3.2519046E-2,1.3316845E-3],"split_indices":[2,3,1,1,1,1,2,0,0,0,0,0,0,0,0],"split_type":[0,0,0,0,0,0,0,0,0,0,0,0,0,0,0],"sum_hessian":[6.1606797E4,5.153369E3,5.6453426E4,4.1043306E3,1.0490383E3,4.8873508E4,7.579919E3,3.767797E3,3.3653372E2,6.585357E1,9.8318475E2,4.1150566E4,7.722941E3,1.6673874E2,7.41318E3],"tree_param":{"num_deleted":"0","num_feature":"4","num_nodes":"15","size_leaf_vector":"1"}},{"base_weights":[-4.9771143E-6,1.5819024E-2,-1.8410232E-3,-4.315782E-3,6.2779106E-2,-3.960866E-2,4.2124756E-4,5.966785E-3,-3.2146908E-3,-2.2520233E-2,7.596222E-3,1.6497804E-2,-5.563544E-3,5.74782E-4,-1.9828225E-3],"categories":[],"categories_nodes":[],"categories_segments":[],"categories_sizes":[],"default_left":[0,0,0,0,0,0,0,0,0,0,0,0,0,0,0],"id":54,"left_children":[1,3,5,7,9,11,13,-1,-1,-1,-1,-1,-1,-1,-1],"loss_changes":[1.789918E0,6.0564857E0,4.716541E0,7.986546E0,7.314707E0,1.0238405E1,5.617868E0,0E0,0E0,0E0,0E0,0E0,0E0,0E0,0E0],"parents":[2147483647,0,0,1,1,2,2,3,3,4,4,5,5,6,6],"right_children":[2,4,6,8,10,12,14,-1,-1,-1,-1,-1,-1,-1,-1],"split_conditions":[7.55E-5,1.0013741E0,8.75E-5,6E0,1E0,1E0,4E0,5.966785E-3,-3.2146908E-3,-2.2520233E-2,7.596222E-3,1.6497804E-2,-5.563544E-3,5.74782E-4,-1.9828225E-3],"split_indices":[1,0,1,2,2,2,3,0,0,0,0,0,0,0,0],"split_type":[0,0,0,0,0,0,0,0,0,0,0,0,0,0,0],"sum_hessian":[6.160545E4,6.4040854E3,5.5201363E4,4.4828906E3,1.9211952E3,3.118745E3,5.2082617E4,1.3585187E3,3.1243718E3,8.339401E1,1.8378011E3,2.2589052E2,2.8928547E3,4.1236242E4,1.0846373E4],"tree_param":{"num_deleted":"0","num_feature":"4","num_nodes":"15","size_leaf_vector":"1"}},{"base_weights":[-4.5683605E-6,-6.529181E-3,3.930561E-3,1.7469639E-2,-1.6448509E-2,2.826016E-2,-4.9771923E-3,-1.5777529E-3,5.9823855E-3,3.4220744E-4,-3.1121809E-3,-4.3724842E-2,3.1751592E-3,-4.210911E-3,3.3472668E-4],"categories":[],"categories_nodes":[],"categories_segments":[],"categories_sizes":[],"default_left":[0,0,0,0,0,0,0,0,0,0,0,0,0,0,0],"id":55,"left_children":[1,3,5,7,9,11,13,-1,-1,-1,-1,-1,-1,-1,-1],"loss_changes":[1.581737E0,5.517639E0,8.328464E0,9.546276E0,4.7816525E0,1.6753044E1,8.695339E0,0E0,0E0,0E0,0E0,0E0,0E0,0E0,0E0],"parents":[2147483647,0,0,1,1,2,2,3,3,4,4,5,5,6,6],"right_children":[2,4,6,8,10,12,14,-1,-1,-1,-1,-1,-1,-1,-1],"split_conditions":[9E0,1.075E-4,1.3E1,3E0,2E0,-3.6363044E0,1.5E1,-1.5777529E-3,5.9823855E-3,3.4220744E-4,-3.1121809E-3,-4.3724842E-2,3.1751592E-3,-4.210911E-3,3.3472668E-4],"split_indices":[2,1,2,3,3,0,2,0,0,0,0,0,0,0,0],"split_type":[0,0,0,0,0,0,0,0,0,0,0,0,0,0,0],"sum_hessian":[6.1603656E4,2.3176074E4,3.8427582E4,6.777596E3,1.6398477E4,1.0298175E4,2.8129408E4,3.797369E3,2.9802273E3,6.965952E3,9.432525E3,7.573907E1,1.0222436E4,5.150615E3,2.2978793E4],"tree_param":{"num_deleted":"0","num_feature":"4","num_nodes":"15","size_leaf_vector":"1"}},{"base_weights":[-4.959827E-6,-2.1909983E-3,1.2502392E-2,2.081165E-3,-2.9869586E-2,4.7341555E-2,-1.0105185E-2,-6.8869663E-4,1.2338354E-3,5.6020725E-3,-5.3026187E-3,5.8253254E-3,-7.633836E-2,-4.572937E-3,6.7854035E-3],"categories":[],"categories_nodes":[],"categories_segments":[],"categories_sizes":[],"default_left":[0,0,0,0,0,0,0,0,0,0,0,0,0,0,0],"id":56,"left_children":[1,3,5,7,9,11,13,-1,-1,-1,-1,-1,-1,-1,-1],"loss_changes":[1.6843544E0,6.20083E0,7.2193255E0,4.178925E0,1.39487705E1,3.1954111E1,1.5442315E1,0E0,0E0,0E0,0E0,0E0,0E0,0E0,0E0],"parents":[2147483647,0,0,1,1,2,2,3,3,4,4,5,5,6,6],"right_children":[2,4,6,8,10,12,14,-1,-1,-1,-1,-1,-1,-1,-1],"split_conditions":[2.81E-4,2.245E-4,3.375E-4,2.0691818E-1,1E0,6E0,1.5E1,-6.8869663E-4,1.2338354E-3,5.6020725E-3,-5.3026187E-3,5.8253254E-3,-7.633836E-2,-4.572937E-3,6.7854035E-3],"split_indices":[1,1,1,0,3,3,2,0,0,0,0,0,0,0,0],"split_type":[0,0,0,0,0,0,0,0,0,0,0,0,0,0,0],"sum_hessian":[6.16022E4,5.2437914E4,9.164288E3,4.5427195E4,7.0107188E3,3.6060815E3,5.5582065E3,2.4236717E4,2.1190477E4,1.4884562E3,5.5222627E3,3.559107E3,4.6974525E1,3.8152202E3,1.7429865E3],"tree_param":{"num_deleted":"0","num_feature":"4","num_nodes":"15","size_leaf_vector":"1"}},{"base_weights":[-6.023044E-6,1.653672E-2,-1.5162718E-3,3.826767E-2,-5.3592887E-2,-4.553996E-3,1.8066023E-2,5.6811147E-3,-1.4866113E-2,-1.081371E-2,1.8577328E-2,1.5209375E-4,-2.8227295E-3,2.948883E-2,1.1796652E-3],"categories":[],"categories_nodes":[],"categories_segments":[],"categories_sizes":[],"default_left":[0,0,0,0,0,0,0,0,0,0,0,0,0,0,0],"id":57,"left_children":[1,3,5,7,9,11,13,-1,-1,-1,-1,-1,-1,-1,-1],"loss_changes":[1.5390468E0,7.855766E0,3.357969E0,1.364797E1,1.5942343E1,7.028048E0,1.31531925E1,0E0,0E0,0E0,0E0,0E0,0E0,0E0,0E0],"parents":[2147483647,0,0,1,1,2,2,3,3,4,4,5,5,6,6],"right_children":[2,4,6,8,10,12,14,-1,-1,-1,-1,-1,-1,-1,-1],"split_conditions":[2E0,1.2547002E0,2.96E-4,2.73E-4,4E0,2.115E-4,4E0,5.6811147E-3,-1.4866113E-2,-1.081371E-2,1.8577328E-2,1.5209375E-4,-2.8227295E-3,2.948883E-2,1.1796652E-3],"split_indices":[2,0,1,1,3,1,2,0,0,0,0,0,0,0,0],"split_type":[0,0,0,0,0,0,0,0,0,0,0,0,0,0,0],"sum_hessian":[6.1600133E4,5.1524146E3,5.644772E4,3.933883E3,1.2185316E3,4.8867816E4,7.5799043E3,3.5794907E3,3.5439212E2,9.928417E2,2.2568996E2,3.8889184E4,9.97863E3,1.6684566E2,7.4130586E3],"tree_param":{"num_deleted":"0","num_feature":"4","num_nodes":"15","size_leaf_vector":"1"}},{"base_weights":[-5.105922E-6,3.128988E-3,-7.7004246E-3,-2.3107041E-4,5.6839775E-2,-9.842262E-3,2.0708945E-1,6.8368367E-4,-2.7904424E-3,-2.339742E-2,8.836272E-3,2.1850805E-4,-3.9540133E-3,-3.3499476E-2,3.0597558E-2],"categories":[],"categories_nodes":[],"categories_segments":[],"categories_sizes":[],"default_left":[0,0,0,0,0,0,0,0,0,0,0,0,0,0,0],"id":58,"left_children":[1,3,5,7,9,11,13,-1,-1,-1,-1,-1,-1,-1,-1],"loss_changes":[1.4856795E0,7.8998218E0,8.203548E0,8.058029E0,2.3646305E1,6.305344E0,9.540302E0,0E0,0E0,0E0,0E0,0E0,0E0,0E0,0E0],"parents":[2147483647,0,0,1,1,2,2,3,3,4,4,5,5,6,6],"right_children":[2,4,6,8,10,12,14,-1,-1,-1,-1,-1,-1,-1,-1],"split_conditions":[1.7E1,1.6E1,5.93E-4,4E0,1.4E-4,1.53E-4,2E0,6.8368367E-4,-2.7904424E-3,-2.339742E-2,8.836272E-3,2.1850805E-4,-3.9540133E-3,-3.3499476E-2,3.0597558E-2],"split_indices":[2,2,1,3,1,1,3,0,0,0,0,0,0,0,0],"split_type":[0,0,0,0,0,0,0,0,0,0,0,0,0,0,0],"sum_hessian":[6.1598824E4,4.3772195E4,1.782663E4,4.1196035E4,2.5761604E3,1.7651566E4,1.750633E2,3.281554E4,8.380493E3,2.5130754E2,2.3248528E3,1.2564142E4,5.0874253E3,2.6639647E1,1.4842366E2],"tree_param":{"num_deleted":"0","num_feature":"4","num_nodes":"15","size_leaf_vector":"1"}},{"base_weights":[-5.0472886E-6,-6.127745E-3,3.6875764E-3,4.2032055E-3,-2.7106043E-2,2.6159631E-2,-4.540205E-3,1.2357169E-3,-6.21482E-3,-9.045518E-4,-1.0605167E-2,-3.9502382E-2,2.9303846E-3,-3.6480539E-3,2.620009E-4],"categories":[],"categories_nodes":[],"categories_segments":[],"categories_sizes":[],"default_left":[0,0,0,0,0,0,0,0,0,0,0,0,0,0,0],"id":59,"left_children":[1,3,5,7,9,11,13,-1,-1,-1,-1,-1,-1,-1,-1],"loss_changes":[1.3927103E0,5.0226607E0,7.1048355E0,8.402217E0,1.0902069E1,1.3649795E1,6.432992E0,0E0,0E0,0E0,0E0,0E0,0E0,0E0,0E0],"parents":[2147483647,0,0,1,1,2,2,3,3,4,4,5,5,6,6],"right_children":[2,4,6,8,10,12,14,-1,-1,-1,-1,-1,-1,-1,-1],"split_conditions":[9E0,8.4785855E-1,1.3E1,8E0,2.32E-4,-3.6363044E0,1.5E1,1.2357169E-3,-6.21482E-3,-9.045518E-4,-1.0605167E-2,-3.9502382E-2,2.9303846E-3,-3.6480539E-3,2.620009E-4],"split_indices":[2,0,2,2,1,0,2,0,0,0,0,0,0,0,0],"split_type":[0,0,0,0,0,0,0,0,0,0,0,0,0,0,0],"sum_hessian":[6.1598316E4,2.3173666E4,3.8424652E4,1.5527707E4,7.645958E3,1.0297504E4,2.8127146E4,1.382906E4,1.6986476E3,6.2233467E3,1.4226112E3,7.5379684E1,1.0222125E4,5.1499805E3,2.2977166E4],"tree_param":{"num_deleted":"0","num_feature":"4","num_nodes":"15","size_leaf_vector":"1"}},{"base_weights":[-5.6838103E-6,-4.0112925E-3,6.016005E-3,5.2547604E-2,-6.4904257E-3,-6.880616E-2,9.265889E-3,1.3499312E-3,3.2352414E-2,-9.4701645E-5,-2.8064682E-3,-2.2970426E-3,-2.59049E-2,8.275286E-3,6.385316E-4],"categories":[],"categories_nodes":[],"categories_segments":[],"categories_sizes":[],"default_left":[0,0,0,0,0,0,0,0,0,0,0,0,0,0,0],"id":60,"left_children":[1,3,5,7,9,11,13,-1,-1,-1,-1,-1,-1,-1,-1],"loss_changes":[1.4858011E0,5.1872544E0,5.9841566E0,1.643332E1,4.238364E0,8.926974E0,4.9917507E0,0E0,0E0,0E0,0E0,0E0,0E0,0E0,0E0],"parents":[2147483647,0,0,1,1,2,2,3,3,4,4,5,5,6,6],"right_children":[2,4,6,8,10,12,14,-1,-1,-1,-1,-1,-1,-1,-1],"split_conditions":[5.177719E-1,1E0,1E0,2.335E-4,4E0,2.105E-4,5.3E-5,1.3499312E-3,3.2352414E-2,-9.4701645E-5,-2.8064682E-3,-2.2970426E-3,-2.59049E-2,8.275286E-3,6.385316E-4],"split_indices":[0,2,2,1,3,1,1,0,0,0,0,0,0,0,0],"split_type":[0,0,0,0,0,0,0,0,0,0,0,0,0,0,0],"sum_hessian":[6.1597027E4,3.699104E4,2.460599E4,1.5524846E3,3.5438555E4,1.0234274E3,2.3582562E4,1.3578634E3,1.9462115E2,2.8195014E4,7.243539E3,8.256275E2,1.9779996E2,8.8848535E2,2.2694078E4],"tree_param":{"num_deleted":"0","num_feature":"4","num_nodes":"15","size_leaf_vector":"1"}},{"base_weights":[-5.1461393E-6,-2.025449E-3,1.1554689E-2,7.8823784E-4,-2.8164722E-2,1.6145201E-2,-1.3876554E-1,-6.245467E-6,8.654109E-3,1.6623396E-2,-4.026036E-3,1.8666309E-3,-5.035901E-2,-7.583794E-3,-6.771558E-2],"categories":[],"categories_nodes":[],"categories_segments":[],"categories_sizes":[],"default_left":[0,0,0,0,0,0,0,0,0,0,0,0,0,0,0],"id":61,"left_children":[1,3,5,7,9,11,13,-1,-1,-1,-1,-1,-1,-1,-1],"loss_changes":[1.4385853E0,3.856441E0,6.3257527E0,3.4533956E0,1.1988489E1,1.1662273E1,9.152387E0,0E0,0E0,0E0,0E0,0E0,0E0,0E0,0E0],"parents":[2147483647,0,0,1,1,2,2,3,3,4,4,5,5,6,6],"right_children":[2,4,6,8,10,12,14,-1,-1,-1,-1,-1,-1,-1,-1],"split_conditions":[2.81E-4,2.365E-4,2.2E1,2.335E-4,2E0,6E0,2.0155694E0,-6.245467E-6,8.654109E-3,1.6623396E-2,-4.026036E-3,1.8666309E-3,-5.035901E-2,-7.583794E-3,-6.771558E-2],"split_indices":[1,1,2,1,2,3,0,0,0,0,0,0,0,0,0],"split_type":[0,0,0,0,0,0,0,0,0,0,0,0,0,0,0],"sum_hessian":[6.1596125E4,5.243324E4,9.162888E3,4.7338582E4,5.0946553E3,8.892228E3,2.706602E2,4.6874574E4,4.640097E2,2.9767862E2,4.7969766E3,8.850262E3,4.1966347E1,2.4335721E2,2.730298E1],"tree_param":{"num_deleted":"0","num_feature":"4","num_nodes":"15","size_leaf_vector":"1"}},{"base_weights":[-6.6140506E-6,-7.0247785E-3,3.2567773E-3,5.03715E-3,-5.0397713E-2,6.5994754E-2,4.6393232E-4,9.795777E-3,-7.336301E-5,-2.7529004E-3,-1.9033091E-2,2.171291E-3,1.7883474E-2,2.4815402E-3,-5.687311E-4],"categories":[],"categories_nodes":[],"categories_segments":[],"categories_sizes":[],"default_left":[0,0,0,0,0,0,0,0,0,0,0,0,0,0,0],"id":62,"left_children":[1,3,5,7,9,11,13,-1,-1,-1,-1,-1,-1,-1,-1],"loss_changes":[1.4107615E0,1.0228632E1,7.367178E0,8.203198E0,1.3608473E1,8.95005E0,6.030031E0,0E0,0E0,0E0,0E0,0E0,0E0,0E0,0E0],"parents":[2147483647,0,0,1,1,2,2,3,3,4,4,5,5,6,6],"right_children":[2,4,6,8,10,12,14,-1,-1,-1,-1,-1,-1,-1,-1],"split_conditions":[1.22E-4,1.075E-4,1.28E-4,1E0,1.6850364E0,1.8E1,1E0,9.795777E-3,-7.336301E-5,-2.7529004E-3,-1.9033091E-2,2.171291E-3,1.7883474E-2,2.4815402E-3,-5.687311E-4],"split_indices":[1,1,1,2,0,2,3,0,0,0,0,0,0,0,0],"split_type":[0,0,0,0,0,0,0,0,0,0,0,0,0,0,0],"sum_hessian":[6.1595188E4,1.95501E4,4.2045086E4,1.5296937E4,4.253164E3,1.7909467E3,4.025414E4,8.935234E2,1.4403413E4,3.656753E3,5.9641144E2,1.2870582E3,5.0388843E2,8.1171255E3,3.2137016E4],"tree_param":{"num_deleted":"0","num_feature":"4","num_nodes":"15","size_leaf_vector":"1"}},{"base_weights":[-5.88231E-6,-3.8096292E-3,5.7123303E-3,-6.0679533E-2,-1.9461296E-3,-1.5458398E-2,1.6346075E-2,8.593112E-3,-1.5926195E-2,3.1844372E-4,-2.1556297E-3,1.5301596E-3,-6.4612734E-3,5.657534E-3,7.227983E-4],"categories":[],"categories_nodes":[],"categories_segments":[],"categories_sizes":[],"default_left":[0,0,0,0,0,0,0,0,0,0,0,0,0,0,0],"id":63,"left_children":[1,3,5,7,9,11,13,-1,-1,-1,-1,-1,-1,-1,-1],"loss_changes":[1.3397713E0,3.920048E0,5.5396953E0,1.6976177E1,3.603773E0,1.2440898E1,6.0078764E0,0E0,0E0,0E0,0E0,0E0,0E0,0E0,0E0],"parents":[2147483647,0,0,1,1,2,2,3,3,4,4,5,5,6,6],"right_children":[2,4,6,8,10,12,14,-1,-1,-1,-1,-1,-1,-1,-1],"split_conditions":[5.177719E-1,5.3E-5,8E0,-1.1197989E0,4E0,5E0,1.1E1,8.593112E-3,-1.5926195E-2,3.1844372E-4,-2.1556297E-3,1.5301596E-3,-6.4612734E-3,5.657534E-3,7.227983E-4],"split_indices":[0,1,2,0,3,2,2,0,0,0,0,0,0,0,0],"split_type":[0,0,0,0,0,0,0,0,0,0,0,0,0,0,0],"sum_hessian":[6.159488E4,3.698971E4,2.4605168E4,1.172612E3,3.5817098E4,8.226523E3,1.6378645E4,4.7151245E2,7.010996E2,2.8390254E4,7.4268447E3,5.0604585E3,3.1660652E3,3.0253806E3,1.3353265E4],"tree_param":{"num_deleted":"0","num_feature":"4","num_nodes":"15","size_leaf_vector":"1"}},{"base_weights":[-5.72589E-6,-1.2555624E-2,1.7140245E-3,-2.803296E-3,-1.3175423E-1,-4.5512957E-3,1.0867229E-2,2.280622E-3,-4.003787E-3,-1.0420317E-2,-7.04817E-2,-7.6382625E-4,9.659578E-3,-1.8911077E-4,3.2061914E-3],"categories":[],"categories_nodes":[],"categories_segments":[],"categories_sizes":[],"default_left":[0,0,0,0,0,0,0,0,0,0,0,0,0,0,0],"id":64,"left_children":[1,3,5,7,9,11,13,-1,-1,-1,-1,-1,-1,-1,-1],"loss_changes":[1.3293858E0,8.628961E0,3.106674E0,6.5451136E0,8.790054E0,1.0042213E1,5.9525642E0,0E0,0E0,0E0,0E0,0E0,0E0,0E0,0E0],"parents":[2147483647,0,0,1,1,2,2,3,3,4,4,5,5,6,6],"right_children":[2,4,6,8,10,12,14,-1,-1,-1,-1,-1,-1,-1,-1],"split_conditions":[-1.7828532E0,3.43E-4,3E0,3E0,2E1,4.62E-4,1.895E-4,2.280622E-3,-4.003787E-3,-1.0420317E-2,-7.04817E-2,-7.6382625E-4,9.659578E-3,-1.8911077E-4,3.2061914E-3],"split_indices":[0,1,3,3,2,1,1,0,0,0,0,0,0,0,0],"split_type":[0,0,0,0,0,0,0,0,0,0,0,0,0,0,0],"sum_hessian":[6.1592992E4,7.4223086E3,5.4170684E4,6.861919E3,5.603898E2,3.2158715E4,2.2011969E4,4.0658564E3,2.7960623E3,5.3581146E2,2.4578312E1,3.1207209E4,9.515067E2,1.3741223E4,8.270745E3],"tree_param":{"num_deleted":"0","num_feature":"4","num_nodes":"15","size_leaf_vector":"1"}},{"base_weights":[-6.617214E-6,1.271421E-2,-1.4823377E-3,-6.520664E-3,5.7476312E-2,-3.7815582E-2,6.9388223E-4,-6.956469E-3,1.6512064E-3,-1.17838895E-2,8.167279E-3,1.3217463E-2,-5.1123425E-3,2.0394207E-4,-5.6037446E-3],"categories":[],"categories_nodes":[],"categories_segments":[],"categories_sizes":[],"default_left":[0,0,0,0,0,0,0,0,0,0,0,0,0,0,0],"id":65,"left_children":[1,3,5,7,9,11,13,-1,-1,-1,-1,-1,-1,-1,-1],"loss_changes":[1.1562586E0,5.5129766E0,4.3639283E0,6.5052047E0,8.17322E0,7.0624127E0,3.9750667E0,0E0,0E0,0E0,0E0,0E0,0E0,0E0,0E0],"parents":[2147483647,0,0,1,1,2,2,3,3,4,4,5,5,6,6],"right_children":[2,4,6,8,10,12,14,-1,-1,-1,-1,-1,-1,-1,-1],"split_conditions":[7.55E-5,6.7E-5,8.75E-5,1.9E1,3E0,1E0,2.3E1,-6.956469E-3,1.6512064E-3,-1.17838895E-2,8.167279E-3,1.3217463E-2,-5.1123425E-3,2.0394207E-4,-5.6037446E-3],"split_indices":[1,1,1,2,2,2,2,0,0,0,0,0,0,0,0],"split_type":[0,0,0,0,0,0,0,0,0,0,0,0,0,0,0],"sum_hessian":[6.159158E4,6.401607E3,5.5189973E4,4.478143E3,1.9234637E3,3.1179316E3,5.207204E4,1.197737E3,3.2804062E3,2.3280545E2,1.6906583E3,2.2572018E2,2.8922114E3,5.0866562E4,1.2054755E3],"tree_param":{"num_deleted":"0","num_feature":"4","num_nodes":"15","size_leaf_vector":"1"}},{"base_weights":[-6.105079E-6,2.7135185E-3,-6.684722E-3,-2.814479E-4,5.0584577E-2,-8.605823E-3,1.8612994E-1,5.4614816E-4,-2.2770485E-3,-2.1682013E-2,7.817056E-3,1.8519141E-4,-3.4437866E-3,-3.0735552E-2,2.7609015E-2],"categories":[],"categories_nodes":[],"categories_segments":[],"categories_sizes":[],"default_left":[0,0,0,0,0,0,0,0,0,0,0,0,0,0,0],"id":66,"left_children":[1,3,5,7,9,11,13,-1,-1,-1,-1,-1,-1,-1,-1],"loss_changes":[1.1187361E0,6.2753553E0,6.603744E0,5.320379E0,1.9027508E1,4.767763E0,7.892735E0,0E0,0E0,0E0,0E0,0E0,0E0,0E0,0E0],"parents":[2147483647,0,0,1,1,2,2,3,3,4,4,5,5,6,6],"right_children":[2,4,6,8,10,12,14,-1,-1,-1,-1,-1,-1,-1,-1],"split_conditions":[1.7E1,1.6E1,5.93E-4,4E0,1.385E-4,1.53E-4,2E0,5.4614816E-4,-2.2770485E-3,-2.1682013E-2,7.817056E-3,1.8519141E-4,-3.4437866E-3,-3.0735552E-2,2.7609015E-2],"split_indices":[2,2,1,3,1,1,3,0,0,0,0,0,0,0,0],"split_type":[0,0,0,0,0,0,0,0,0,0,0,0,0,0,0],"sum_hessian":[6.159114E4,4.3768574E4,1.7822566E4,4.1192438E4,2.5761365E3,1.764769E4,1.7487666E2,3.28137E4,8.378737E3,2.4026527E2,2.3358713E3,1.2562761E4,5.084928E3,2.659124E1,1.4828542E2],"tree_param":{"num_deleted":"0","num_feature":"4","num_nodes":"15","size_leaf_vector":"1"}},{"base_weights":[-5.9077083E-6,1.3045747E-3,-1.3936761E-2,-9.816178E-4,6.506236E-2,-4.65729E-2,5.7296183E-2,5.531288E-4,-8.1130717E-4,1.227847E-2,-1.0838642E-2,7.870995E-3,-1.1701233E-2,-5.9846073E-2,6.3978857E-3],"categories":[],"categories_nodes":[],"categories_segments":[],"categories_sizes":[],"default_left":[0,0,0,0,0,0,0,0,0,0,0,0,0,0,0],"id":67,"left_children":[1,3,5,7,9,11,13,-1,-1,-1,-1,-1,-1,-1,-1],"loss_changes":[1.1244388E0,8.20599E0,1.2314274E1,2.5243523E0,1.9524311E1,3.206474E1,7.332155E0,0E0,0E0,0E0,0E0,0E0,0E0,0E0,0E0],"parents":[2147483647,0,0,1,1,2,2,3,3,4,4,5,5,6,6],"right_children":[2,4,6,8,10,12,14,-1,-1,-1,-1,-1,-1,-1,-1],"split_conditions":[3.43E-4,3.065E-4,1.5E1,1.2E1,1.1868955E0,2E0,-3.362208E0,5.531288E-4,-8.1130717E-4,1.227847E-2,-1.0838642E-2,7.870995E-3,-1.1701233E-2,-5.9846073E-2,6.3978857E-3],"split_indices":[1,1,2,2,0,3,0,0,0,0,0,0,0,0,0],"split_type":[0,0,0,0,0,0,0,0,0,0,0,0,0,0,0],"sum_hessian":[6.1590367E4,5.6295523E4,5.294842E3,5.434774E4,1.9477874E3,3.6314158E3,1.663426E3,2.8405875E4,2.5941861E4,1.4616532E3,4.8613416E2,1.3068853E3,2.3245305E3,1.5887274E1,1.6475388E3],"tree_param":{"num_deleted":"0","num_feature":"4","num_nodes":"15","size_leaf_vector":"1"}},{"base_weights":[-6.409305E-6,-5.142025E-3,3.847244E-3,-1.8515185E-3,-7.21765E-2,-7.5487136E-3,2.0432454E-2,-6.8058283E-4,4.0739006E-3,1.7859377E-2,-1.2600887E-2,-1.6056931E-3,1.1203534E-2,2.9397875E-3,-6.0019526E-3],"categories":[],"categories_nodes":[],"categories_segments":[],"categories_sizes":[],"default_left":[0,0,0,0,0,0,0,0,0,0,0,0,0,0,0],"id":68,"left_children":[1,3,5,7,9,11,13,-1,-1,-1,-1,-1,-1,-1,-1],"loss_changes":[1.2189556E0,5.8240085E0,6.6507835E0,5.3112416E0,1.6700138E1,2.1223152E1,1.033869E1,0E0,0E0,0E0,0E0,0E0,0E0,0E0,0E0],"parents":[2147483647,0,0,1,1,2,2,3,3,4,4,5,5,6,6],"right_children":[2,4,6,8,10,12,14,-1,-1,-1,-1,-1,-1,-1,-1],"split_conditions":[-2.9717672E-1,4.2E-4,3E0,2.84E-4,8E0,3.605E-4,3.375E-4,-6.8058283E-4,4.0739006E-3,1.7859377E-2,-1.2600887E-2,-1.6056931E-3,1.1203534E-2,2.9397875E-3,-6.0019526E-3],"split_indices":[0,1,3,1,2,1,1,0,0,0,0,0,0,0,0],"split_type":[0,0,0,0,0,0,0,0,0,0,0,0,0,0,0],"sum_hessian":[6.158978E4,2.6403076E4,3.5186703E4,2.5168656E4,1.2344208E3,2.0856453E4,1.433025E4,2.2546762E4,2.6218943E3,2.1774937E2,1.0166714E3,1.9471922E4,1.3845308E3,1.2894001E4,1.436249E3],"tree_param":{"num_deleted":"0","num_feature":"4","num_nodes":"15","size_leaf_vector":"1"}},{"base_weights":[-5.6402723E-6,-5.660849E-3,3.4055896E-3,1.50866285E-2,-1.423694E-2,2.2856196E-2,-3.7167799E-3,-1.5603703E-3,5.4187155E-3,-2.8262946E-3,5.5265875E-4,-8.93924E-2,2.411439E-3,-2.6080775E-4,-2.2264898E-2],"categories":[],"categories_nodes":[],"categories_segments":[],"categories_sizes":[],"default_left":[0,0,0,0,0,0,0,0,0,0,0,0,0,0,0],"id":69,"left_children":[1,3,5,7,9,11,13,-1,-1,-1,-1,-1,-1,-1,-1],"loss_changes":[1.1881541E0,4.123487E0,5.3221807E0,8.134302E0,4.5453033E0,1.18991585E1,6.8252573E0,0E0,0E0,0E0,0E0,0E0,0E0,0E0,0E0],"parents":[2147483647,0,0,1,1,2,2,3,3,4,4,5,5,6,6],"right_children":[2,4,6,8,10,12,14,-1,-1,-1,-1,-1,-1,-1,-1],"split_conditions":[9E0,1.075E-4,1.3E1,3E0,1.915E-4,6.95E-5,8.305E-4,-1.5603703E-3,5.4187155E-3,-2.8262946E-3,5.5265875E-4,-8.93924E-2,2.411439E-3,-2.6080775E-4,-2.2264898E-2],"split_indices":[2,1,2,3,1,1,1,0,0,0,0,0,0,0,0],"split_type":[0,0,0,0,0,0,0,0,0,0,0,0,0,0,0],"sum_hessian":[6.158841E4,2.3172271E4,3.841614E4,6.776835E3,1.6395436E4,1.0296107E4,2.8120033E4,3.7970776E3,2.9797573E3,9.589453E3,6.8059824E3,1.3138725E1,1.0282969E4,2.7979354E4,1.4067935E2],"tree_param":{"num_deleted":"0","num_feature":"4","num_nodes":"15","size_leaf_vector":"1"}},{"base_weights":[-6.7772116E-6,-5.1653926E-4,4.292242E-2,1.1970736E-3,-2.1608856E-2,7.422398E-1,1.9937523E-2,-6.577797E-5,6.101159E-3,4.60331E-3,-5.8269585E-3,-3.5333544E-2,1.1724627E-1,-2.589192E-2,6.6740005E-3],"categories":[],"categories_nodes":[],"categories_segments":[],"categories_sizes":[],"default_left":[0,0,0,0,0,0,0,0,0,0,0,0,0,0,0],"id":70,"left_children":[1,3,5,7,9,11,13,-1,-1,-1,-1,-1,-1,-1,-1],"loss_changes":[1.347802E0,2.1999927E0,1.1602652E1,6.245712E0,1.1344073E1,1.12418585E1,9.163394E0,0E0,0E0,0E0,0E0,0E0,0E0,0E0,0E0],"parents":[2147483647,0,0,1,1,2,2,3,3,4,4,5,5,6,6],"right_children":[2,4,6,8,10,12,14,-1,-1,-1,-1,-1,-1,-1,-1],"split_conditions":[6.425E-4,3.43E-4,1E0,3.11E-4,2E0,2E0,9E0,-6.577797E-5,6.101159E-3,4.60331E-3,-5.8269585E-3,-3.5333544E-2,1.1724627E-1,-2.589192E-2,6.6740005E-3],"split_indices":[1,1,2,1,3,3,2,0,0,0,0,0,0,0,0],"split_type":[0,0,0,0,0,0,0,0,0,0,0,0,0,0,0],"sum_hessian":[6.158737E4,6.086561E4,7.217597E2,5.6293105E4,4.572504E3,2.197185E1,6.9978784E2,5.4600918E4,1.6921901E3,1.6070723E3,2.9654316E3,6.2457023E0,1.5726149E1,9.9919464E1,5.998684E2],"tree_param":{"num_deleted":"0","num_feature":"4","num_nodes":"15","size_leaf_vector":"1"}},{"base_weights":[-4.9626706E-6,4.1192356E-3,-5.358025E-3,-6.8990845E-4,3.2387283E-2,-1.9581417E-2,1.604379E-2,3.369447E-4,-4.637703E-3,1.5675997E-2,7.6990656E-4,-2.6325553E-3,7.6272115E-3,2.4871086E-3,-8.005921E-3],"categories":[],"categories_nodes":[],"categories_segments":[],"categories_sizes":[],"default_left":[0,0,0,0,0,0,0,0,0,0,0,0,0,0,0],"id":71,"left_children":[1,3,5,7,9,11,13,-1,-1,-1,-1,-1,-1,-1,-1],"loss_changes":[1.3596994E0,4.7291837E0,8.158836E0,5.51398E0,1.5528963E1,1.0410732E1,9.079994E0,0E0,0E0,0E0,0E0,0E0,0E0,0E0,0E0],"parents":[2147483647,0,0,1,1,2,2,3,3,4,4,5,5,6,6],"right_children":[2,4,6,8,10,12,14,-1,-1,-1,-1,-1,-1,-1,-1],"split_conditions":[1.755E-4,1.565E-4,3E0,1.48E-4,4E0,4.62E-4,1.9E1,3.369447E-4,-4.637703E-3,1.5675997E-2,7.6990656E-4,-2.6325553E-3,7.6272115E-3,2.4871086E-3,-8.005921E-3],"split_indices":[1,1,3,1,2,1,2,0,0,0,0,0,0,0,0],"split_type":[0,0,0,0,0,0,0,0,0,0,0,0,0,0,0],"sum_hessian":[6.1586703E4,3.4786285E4,2.6800416E4,2.9729488E4,5.0567983E3,1.610038E4,1.0700036E4,2.7304387E4,2.4251016E3,8.3664636E2,4.220152E3,1.5042719E4,1.0576615E3,9.800571E3,8.994651E2],"tree_param":{"num_deleted":"0","num_feature":"4","num_nodes":"15","size_leaf_vector":"1"}},{"base_weights":[-4.3992854E-6,-5.517728E-3,3.3212318E-3,-2.081181E-3,-5.141951E-2,2.0850599E-2,-3.0979395E-3,-4.5727714E-4,8.172272E-3,-1.675752E-2,4.154162E-3,9.065714E-3,4.557604E-4,-2.0396015E-4,-2.1205643E-2],"categories":[],"categories_nodes":[],"categories_segments":[],"categories_sizes":[],"default_left":[0,0,0,0,0,0,0,0,0,0,0,0,0,0,0],"id":72,"left_children":[1,3,5,7,9,11,13,-1,-1,-1,-1,-1,-1,-1,-1],"loss_changes":[1.1292236E0,3.6551397E0,4.3227124E0,4.502024E0,1.7434387E1,1.1710942E1,6.218127E0,0E0,0E0,0E0,0E0,0E0,0E0,0E0,0E0],"parents":[2147483647,0,0,1,1,2,2,3,3,4,4,5,5,6,6],"right_children":[2,4,6,8,10,12,14,-1,-1,-1,-1,-1,-1,-1,-1],"split_conditions":[9E0,3.11E-4,1.3E1,2.81E-4,3.74E-4,1.41E-4,8.305E-4,-4.5727714E-4,8.172272E-3,-1.675752E-2,4.154162E-3,9.065714E-3,4.557604E-4,-2.0396015E-4,-2.1205643E-2],"split_indices":[2,1,2,1,1,1,1,0,0,0,0,0,0,0,0],"split_type":[0,0,0,0,0,0,0,0,0,0,0,0,0,0,0],"sum_hessian":[6.158541E4,2.3171068E4,3.841434E4,2.1558115E4,1.6129547E3,1.0295985E4,2.8118355E4,2.093659E4,6.2152454E2,7.1666876E2,8.9628595E2,1.947491E3,8.348494E3,2.7977662E4,1.4069218E2],"tree_param":{"num_deleted":"0","num_feature":"4","num_nodes":"15","size_leaf_vector":"1"}},{"base_weights":[-4.3097766E-6,-3.4433864E-3,5.165416E-3,2.7910993E-2,-6.3531324E-3,-6.820162E-2,8.351122E-3,1.09277135E-2,-2.5055392E-3,-1.0735425E-3,2.0456964E-3,4.7597396E-3,-1.3964039E-2,7.5015537E-3,5.7372986E-4],"categories":[],"categories_nodes":[],"categories_segments":[],"categories_sizes":[],"default_left":[0,0,0,0,0,0,0,0,0,0,0,0,0,0,0],"id":73,"left_children":[1,3,5,7,9,11,13,-1,-1,-1,-1,-1,-1,-1,-1],"loss_changes":[1.0949516E0,3.3743212E0,5.750881E0,1.3538898E1,3.97652E0,8.477259E0,4.108338E0,0E0,0E0,0E0,0E0,0E0,0E0,0E0,0E0],"parents":[2147483647,0,0,1,1,2,2,3,3,4,4,5,5,6,6],"right_children":[2,4,6,8,10,12,14,-1,-1,-1,-1,-1,-1,-1,-1],"split_conditions":[5.177719E-1,2E0,1E0,2E0,2.93E-4,1.2547002E0,5.3E-5,1.09277135E-2,-2.5055392E-3,-1.0735425E-3,2.0456964E-3,4.7597396E-3,-1.3964039E-2,7.5015537E-3,5.7372986E-4],"split_indices":[0,2,2,3,1,0,1,0,0,0,0,0,0,0,0],"split_type":[0,0,0,0,0,0,0,0,0,0,0,0,0,0,0],"sum_hessian":[6.1584508E4,3.69827E4,2.460181E4,3.1398806E3,3.384282E4,1.02294336E3,2.3578867E4,1.2376139E3,1.9022666E3,2.9088676E4,4.754143E3,3.904215E2,6.325218E2,8.885704E2,2.2690297E4],"tree_param":{"num_deleted":"0","num_feature":"4","num_nodes":"15","size_leaf_vector":"1"}},{"base_weights":[-3.8101884E-6,2.8848886E-3,-6.3446313E-3,-5.414838E-4,3.935717E-2,2.2175778E-2,-1.3567165E-2,3.3561786E-4,-4.467931E-3,-1.1112149E-3,1.2127284E-2,-1.0175585E-2,4.41366E-3,-5.8904714E-3,-1.6931957E-4],"categories":[],"categories_nodes":[],"categories_segments":[],"categories_sizes":[],"default_left":[0,0,0,0,0,0,0,0,0,0,0,0,0,0,0],"id":74,"left_children":[1,3,5,7,9,11,13,-1,-1,-1,-1,-1,-1,-1,-1],"loss_changes":[1.1280385E0,5.287396E0,3.9707947E0,6.654007E0,1.5022903E1,1.0606095E1,8.280012E0,0E0,0E0,0E0,0E0,0E0,0E0,0E0,0E0],"parents":[2147483647,0,0,1,1,2,2,3,3,4,4,5,5,6,6],"right_children":[2,4,6,8,10,12,14,-1,-1,-1,-1,-1,-1,-1,-1],"split_conditions":[2.08E-4,1.915E-4,1E0,1.785E-4,3E0,2.22E-4,-1.263116E0,3.3561786E-4,-4.467931E-3,-1.1112149E-3,1.2127284E-2,-1.0175585E-2,4.41366E-3,-5.8904714E-3,-1.6931957E-4],"split_indices":[1,1,3,1,3,1,0,0,0,0,0,0,0,0,0],"split_type":[0,0,0,0,0,0,0,0,0,0,0,0,0,0,0],"sum_hessian":[6.158317E4,4.2308953E4,1.9274217E4,3.8676492E4,3.6324607E3,3.8942993E3,1.5379918E4,3.5539082E4,3.1374124E3,2.2481873E3,1.3842733E3,5.856522E2,3.3086472E3,3.191204E3,1.2188714E4],"tree_param":{"num_deleted":"0","num_feature":"4","num_nodes":"15","size_leaf_vector":"1"}},{"base_weights":[-3.63216E-6,1.2359486E-3,-1.3183619E-2,-5.5589643E-4,5.9024863E-2,-4.441755E-2,5.5006225E-2,2.553755E-4,-1.2066471E-3,1.1000935E-2,-1.3902428E-2,5.7563414E-3,-1.0179858E-2,-5.3765684E-2,6.098383E-3],"categories":[],"categories_nodes":[],"categories_segments":[],"categories_sizes":[],"default_left":[0,0,0,0,0,0,0,0,0,0,0,0,0,0,0],"id":75,"left_children":[1,3,5,7,9,11,13,-1,-1,-1,-1,-1,-1,-1,-1],"loss_changes":[1.0061222E0,5.8286924E0,1.127779E1,1.9542748E0,1.7108812E1,2.1256233E1,5.926268E0,0E0,0E0,0E0,0E0,0E0,0E0,0E0,0E0],"parents":[2147483647,0,0,1,1,2,2,3,3,4,4,5,5,6,6],"right_children":[2,4,6,8,10,12,14,-1,-1,-1,-1,-1,-1,-1,-1],"split_conditions":[3.43E-4,3.11E-4,1.5E1,2.115E-4,1.3770194E0,2E0,-3.362208E0,2.553755E-4,-1.2066471E-3,1.1000935E-2,-1.3902428E-2,5.7563414E-3,-1.0179858E-2,-5.3765684E-2,6.098383E-3],"split_indices":[1,1,2,1,0,3,0,0,0,0,0,0,0,0,0],"split_type":[0,0,0,0,0,0,0,0,0,0,0,0,0,0,0],"sum_hessian":[6.158102E4,5.6288023E4,5.2929956E3,5.4596164E4,1.691858E3,3.6304424E3,1.6625529E3,4.2984438E4,1.1611729E4,1.3458386E3,3.460194E2,1.307202E3,2.3232405E3,1.5712944E1,1.64684E3],"tree_param":{"num_deleted":"0","num_feature":"4","num_nodes":"15","size_leaf_vector":"1"}},{"base_weights":[-4.330698E-6,-4.7447372E-4,3.96097E-2,1.1122605E-3,-2.0008976E-2,6.7172784E-1,1.8907405E-2,-9.6303644E-5,4.275234E-3,-4.876827E-3,4.331447E-3,-3.485255E-2,1.0758243E-1,-1.2219322E-2,1.0128386E-2],"categories":[],"categories_nodes":[],"categories_segments":[],"categories_sizes":[],"default_left":[0,0,0,0,0,0,0,0,0,0,0,0,0,0,0],"id":76,"left_children":[1,3,5,7,9,11,13,-1,-1,-1,-1,-1,-1,-1,-1],"loss_changes":[1.1469249E0,1.8864427E0,9.439432E0,4.86427E0,8.328651E0,9.806466E0,8.153568E0,0E0,0E0,0E0,0E0,0E0,0E0,0E0,0E0],"parents":[2147483647,0,0,1,1,2,2,3,3,4,4,5,5,6,6],"right_children":[2,4,6,8,10,12,14,-1,-1,-1,-1,-1,-1,-1,-1],"split_conditions":[6.425E-4,3.43E-4,1E0,2.96E-4,1.5E1,2E0,-5.3821546E-1,-9.6303644E-5,4.275234E-3,-4.876827E-3,4.331447E-3,-3.485255E-2,1.0758243E-1,-1.2219322E-2,1.0128386E-2],"split_indices":[1,1,2,1,2,3,0,0,0,0,0,0,0,0,0],"split_type":[0,0,0,0,0,0,0,0,0,0,0,0,0,0,0],"sum_hessian":[6.1580297E4,6.0859004E4,7.212923E2,5.628784E4,4.5711646E3,2.1876432E1,6.994159E2,5.361662E4,2.6712183E3,3.143656E3,1.4275084E3,6.245488E0,1.5630944E1,2.576353E2,4.4178058E2],"tree_param":{"num_deleted":"0","num_feature":"4","num_nodes":"15","size_leaf_vector":"1"}},{"base_weights":[-2.5648942E-6,-1.7092415E-3,9.192762E-3,2.4122775E-4,-3.198513E-2,-5.608829E-2,2.4981106E-2,-4.3227463E-3,1.9068828E-4,-2.25443E-3,-2.3116596E-2,4.121999E-2,-7.971589E-3,5.6340992E-3,-1.951357E-3],"categories":[],"categories_nodes":[],"categories_segments":[],"categories_sizes":[],"default_left":[0,0,0,0,0,0,0,0,0,0,0,0,0,0,0],"id":77,"left_children":[1,3,5,7,9,11,13,-1,-1,-1,-1,-1,-1,-1,-1],"loss_changes":[9.66423E-1,3.067233E0,9.937536E0,3.533263E0,5.9062686E0,2.08096E1,1.0834013E1,0E0,0E0,0E0,0E0,0E0,0E0,0E0,0E0],"parents":[2147483647,0,0,1,1,2,2,3,3,4,4,5,5,6,6],"right_children":[2,4,6,8,10,12,14,-1,-1,-1,-1,-1,-1,-1,-1],"split_conditions":[1.6011448E0,1.3591107E0,1E0,5.5E-5,2.3E1,5.3E-5,1.4E1,-4.3227463E-3,1.9068828E-4,-2.25443E-3,-2.3116596E-2,4.121999E-2,-7.971589E-3,5.6340992E-3,-1.951357E-3],"split_indices":[0,0,3,1,2,1,2,0,0,0,0,0,0,0,0],"split_type":[0,0,0,0,0,0,0,0,0,0,0,0,0,0,0],"sum_hessian":[6.1579297E4,5.1939926E4,9.639371E3,4.8797242E4,3.1426821E3,1.8767797E3,7.7625913E3,1.7999111E3,4.6997332E4,3.001528E3,1.4115408E2,8.935518E1,1.7874244E3,4.553215E3,3.2093765E3],"tree_param":{"num_deleted":"0","num_feature":"4","num_nodes":"15","size_leaf_vector":"1"}},{"base_weights":[-2.2486718E-6,-5.283606E-3,3.183575E-3,3.600611E-3,-2.3326963E-2,-1.4374185E-2,9.417511E-3,1.0725952E-3,-5.4409574E-3,-7.222532E-4,-9.377393E-3,3.9151224E-4,-1.0055229E-2,5.3583994E-3,-4.6477624E-5],"categories":[],"categories_nodes":[],"categories_segments":[],"categories_sizes":[],"default_left":[0,0,0,0,0,0,0,0,0,0,0,0,0,0,0],"id":78,"left_children":[1,3,5,7,9,11,13,-1,-1,-1,-1,-1,-1,-1,-1],"loss_changes":[1.036121E0,3.714261E0,4.2043157E0,6.4182982E0,8.672203E0,1.586386E1,1.2372402E1,0E0,0E0,0E0,0E0,0E0,0E0,0E0,0E0],"parents":[2147483647,0,0,1,1,2,2,3,3,4,4,5,5,6,6],"right_children":[2,4,6,8,10,12,14,-1,-1,-1,-1,-1,-1,-1,-1],"split_conditions":[9E0,8.4785855E-1,1.175E-4,8E0,2.32E-4,1.06E-4,1.48E-4,1.0725952E-3,-5.4409574E-3,-7.222532E-4,-9.377393E-3,3.9151224E-4,-1.0055229E-2,5.3583994E-3,-4.6477624E-5],"split_indices":[2,0,1,2,1,1,1,0,0,0,0,0,0,0,0],"split_type":[0,0,0,0,0,0,0,0,0,0,0,0,0,0,0],"sum_hessian":[6.15785E4,2.3169004E4,3.8409496E4,1.5525389E4,7.6436147E3,1.0063771E4,2.8345723E4,1.3827753E4,1.6976361E3,6.2222817E3,1.4213335E3,8.302675E3,1.7610961E3,5.1819287E3,2.3163795E4],"tree_param":{"num_deleted":"0","num_feature":"4","num_nodes":"15","size_leaf_vector":"1"}},{"base_weights":[-2.4998624E-6,-3.370517E-3,5.0602606E-3,-7.9346227E-4,-3.6971897E-2,-6.127357E-2,7.9396E-3,-3.0494493E-4,6.0797366E-3,-4.603563E-3,2.0222897E-2,-8.5516855E-2,-5.089668E-3,3.4177266E-3,2.51747E-4],"categories":[],"categories_nodes":[],"categories_segments":[],"categories_sizes":[],"default_left":[0,0,0,0,0,0,0,0,0,0,0,0,0,0,0],"id":79,"left_children":[1,3,5,7,9,11,13,-1,-1,-1,-1,-1,-1,-1,-1],"loss_changes":[1.0500201E0,3.202082E0,4.699109E0,4.7724943E0,5.7200937E0,8.388381E0,3.3542018E0,0E0,0E0,0E0,0E0,0E0,0E0,0E0,0E0],"parents":[2147483647,0,0,1,1,2,2,3,3,4,4,5,5,6,6],"right_children":[2,4,6,8,10,12,14,-1,-1,-1,-1,-1,-1,-1,-1],"split_conditions":[5.177719E-1,3.1782642E-1,1E0,2.2519882E-1,4.62E-4,5.1E-5,5E0,-3.0494493E-4,6.0797366E-3,-4.603563E-3,2.0222897E-2,-8.5516855E-2,-5.089668E-3,3.4177266E-3,2.51747E-4],"split_indices":[0,0,2,0,1,1,2,0,0,0,0,0,0,0,0],"split_type":[0,0,0,0,0,0,0,0,0,0,0,0,0,0,0],"sum_hessian":[6.1577465E4,3.6978043E4,2.4599424E4,3.434498E4,2.6330615E3,1.0225179E3,2.3576906E4,3.313234E4,1.2126414E3,2.537711E3,9.535069E1,1.2142369E1,1.0103755E3,4.0369277E3,1.9539979E4],"tree_param":{"num_deleted":"0","num_feature":"4","num_nodes":"15","size_leaf_vector":"1"}},{"base_weights":[-3.3745544E-6,1.1425531E-2,-1.329283E-3,-1.2964311E-2,4.0778395E-2,-3.396875E-2,7.9792226E-4,-5.5092005E-3,4.211926E-3,-2.5508216E-2,4.822809E-3,-1.5529819E-2,-1.3855312E-3,2.4535963E-3,-1.7776106E-4],"categories":[],"categories_nodes":[],"categories_segments":[],"categories_sizes":[],"default_left":[0,0,0,0,0,0,0,0,0,0,0,0,0,0,0],"id":80,"left_children":[1,3,5,7,9,11,13,-1,-1,-1,-1,-1,-1,-1,-1],"loss_changes":[9.3314415E-1,4.583313E0,3.8310397E0,8.117252E0,6.415854E0,8.236626E0,3.1671393E0,0E0,0E0,0E0,0E0,0E0,0E0,0E0,0E0],"parents":[2147483647,0,0,1,1,2,2,3,3,4,4,5,5,6,6],"right_children":[2,4,6,8,10,12,14,-1,-1,-1,-1,-1,-1,-1,-1],"split_conditions":[7.55E-5,6.2E-5,8.85E-5,2.2E1,-3.0170243E0,-1.6663749E0,1.06E-4,-5.5092005E-3,4.211926E-3,-2.5508216E-2,4.822809E-3,-1.5529819E-2,-1.3855312E-3,2.4535963E-3,-1.7776106E-4],"split_indices":[1,1,1,2,0,0,1,0,0,0,0,0,0,0,0],"split_type":[0,0,0,0,0,0,0,0,0,0,0,0,0,0,0],"sum_hessian":[6.1576707E4,6.4003267E3,5.517638E4,3.4959963E3,2.9043303E3,3.3750608E3,5.180132E4,1.9809634E3,1.515033E3,7.051767E1,2.8338125E3,4.7898422E2,2.8960767E3,5.0694004E3,4.6731918E4],"tree_param":{"num_deleted":"0","num_feature":"4","num_nodes":"15","size_leaf_vector":"1"}},{"base_weights":[-3.789442E-6,-4.2449168E-4,3.547675E-2,9.4185356E-4,-1.7246962E-2,6.1453444E-1,1.6647018E-2,-9.89902E-5,3.969968E-3,3.7053663E-3,-4.6695764E-3,-3.1998545E-2,9.886094E-2,-2.3854822E-2,5.949382E-3],"categories":[],"categories_nodes":[],"categories_segments":[],"categories_sizes":[],"default_left":[0,0,0,0,0,0,0,0,0,0,0,0,0,0,0],"id":81,"left_children":[1,3,5,7,9,11,13,-1,-1,-1,-1,-1,-1,-1,-1],"loss_changes":[9.191577E-1,1.3988171E0,7.857625E0,4.214188E0,7.3120947E0,8.251028E0,7.66702E0,0E0,0E0,0E0,0E0,0E0,0E0,0E0,0E0],"parents":[2147483647,0,0,1,1,2,2,3,3,4,4,5,5,6,6],"right_children":[2,4,6,8,10,12,14,-1,-1,-1,-1,-1,-1,-1,-1],"split_conditions":[6.425E-4,3.43E-4,1E0,2.96E-4,2E0,2E0,9E0,-9.89902E-5,3.969968E-3,3.7053663E-3,-4.6695764E-3,-3.1998545E-2,9.886094E-2,-2.3854822E-2,5.949382E-3],"split_indices":[1,1,2,1,3,3,2,0,0,0,0,0,0,0,0],"split_type":[0,0,0,0,0,0,0,0,0,0,0,0,0,0,0],"sum_hessian":[6.1575906E4,6.0855316E4,7.2058966E2,5.6284734E4,4.570583E3,2.1697742E1,6.988919E2,5.361352E4,2.671214E3,1.6070626E3,2.9635203E3,6.243852E0,1.5453892E1,9.9816734E1,5.990752E2],"tree_param":{"num_deleted":"0","num_feature":"4","num_nodes":"15","size_leaf_vector":"1"}},{"base_weights":[-2.4213348E-6,-1.7264856E-3,8.287245E-3,1.8387107E-4,-4.446142E-2,-5.0516225E-2,2.2629442E-2,-3.7979658E-3,1.6454025E-4,